filename,0,1,2,3,4,5,6,7,8,9,10,11,12,13,14,15,16,17,18,19,20,21,22,23,24,25,26,27,28,29,30,31,32,33,34,35,36,37,38,39,40,41,42,43,44,45,46,47,48,49,50,51,52,53,54,55,56,57,58,59,60,61,62,63,64,65,66,67,68,69,70,71,72,73,74,75,76,77,78,79,80,81,82,83,84,85,86,87,88,89,90,91,92,93,94,95,96,97,98,99,100,101,102,103,104,105,106,107,108,109,110,111,112,113,114,115,116,117,118,119,120,121,122,123,124,125,126,127,128,129,130,131,132,133,134,135,136,137,138,139,140,141,142,143,144,145,146,147,148,149,150,151,152,153,154,155,156,157,158,159,160,161,162,163,164,165,166,167,168,169,170,171,172,173,174,175,176,177,178,179,180,181,182,183,184,185,186,187,188,189,190,191,192,193,194,195,196,197,198,199,200,201,202,203,204,205,206,207,208,209,210,211,212,213,214,215,216,217,218,219,220,221,222,223,224,225,226,227,228,229,230,231,232,233,234,235,236,237,238,239,240,241,242,243,244,245,246,247,248,249,250,251,252,253,254,255,256,257,258,259,260,261,262,263,264,265,266,267,268,269,270,271,272,273,274,275,276,277,278,279,280,281,282,283,284,285,286,287,288,289,290,291,292,293,294,295,296,297,298,299,300,301,302,303,304,305,306,307,308,309,310,311,312,313,314,315,316,317,318,319,320,321,322,323,324,325,326,327,328,329,330,331,332,333,334,335,336,337,338,339,340,341,342,343,344,345,346,347,348,349,350,351,352,353,354,355,356,357,358,359,360,361,362,363,364,365,366,367,368,369,370,371,372,373,374,375,376,377,378,379,380,381,382,383,384,385,386,387,388,389,390,391,392,393,394,395,396,397,398,399,400,401,402,403,404,405,406,407,408,409,410,411,412,413,414,415,416,417,418,419,420,421,422,423,424,425,426,427,428,429,430,431,432,433,434,435,436,437,438,439,440,441,442,443,444,445,446,447,448,449,450,451,452,453,454,455,456,457,458,459,460,461,462,463,464,465,466,467,468,469,470,471,472,473,474,475,476,477,478,479,480,481,482,483,484,485,486,487,488,489,490,491,492,493,494,495,496,497,498,499,500,501,502,503,504,505,506,507,508,509,510,511
11.jpg,-0.6933954,-1.1836331,1.1748048,1.0744967,0.19262818,-0.3059155,-0.06077548,-0.75376034,1.5245154,0.4011768,0.21384247,1.1268358,-0.8596604,-0.19992395,0.35626367,-1.0362027,-1.3552231,-0.7463253,-1.792538,0.01783075,-0.3341939,0.69608915,-1.8996323,-1.4806743,-0.24619502,-0.682504,-2.7067254,-2.2087924,1.4336481,-0.6904679,-1.5489594,1.935637,1.1503798,-1.3913647,0.8528065,0.6562637,1.3660986,0.30557045,-0.12706083,0.9457567,-0.010168497,-0.01589842,1.7833135,-0.12395073,1.2158142,-0.6306808,-0.56312126,-2.374749,1.323516,0.10887428,1.644335,1.1075912,-0.47064978,-0.92651474,0.01249087,-0.36503452,-0.12332091,-0.16520831,-0.5130957,-0.00653688,-1.8835323,-1.100028,0.7672585,0.8663465,0.54599273,-0.30375627,1.359739,2.1908777,-0.51257503,0.29021084,0.7322444,0.83373374,0.5972915,0.5476575,-1.0923144,0.51024413,1.1500854,-1.0702273,-0.2551693,-2.2756765,0.11670927,-0.032019522,-0.7019568,0.4657579,0.81594515,0.8769444,-0.23014656,0.2894428,-1.6207436,-1.5034238,0.95231456,-1.4877291,-0.07671251,0.75892615,0.38996294,-0.21318667,-0.42540288,0.92066044,-0.5721549,-1.0028539,1.2786419,0.990908,0.46844622,0.6309174,0.9917914,0.63954914,0.728816,0.31600836,1.4654573,0.27302665,-2.422583,-0.6700945,-0.99965936,-0.026536722,0.7960834,0.100659505,-0.8294738,-0.67755085,-0.8981193,-0.6813666,0.26115662,0.0165215,0.2595416,-0.0226814,-1.2060559,-0.5124157,1.586429,0.61185825,-0.20932993,1.1462607,-1.3936825,1.1637411,1.9524075,-0.058812648,-1.3131994,0.2907785,-0.14720276,0.47184184,2.077367,-0.16074586,-0.041921534,-0.5046325,0.81518966,-1.0089141,0.05464844,-0.15243044,-0.9076285,-0.4897377,-0.07627112,0.07110675,-0.80774105,0.9432514,2.2907054,-0.38427868,0.25486347,-0.7189647,-0.5711835,-0.29425803,-0.118883714,0.042063016,0.7783652,0.7476025,-0.49940202,-0.12790303,-0.90479165,0.33048508,-0.91315746,0.12590204,-0.92950714,-0.9643683,0.19282575,0.7831876,-0.35049963,-0.22627483,0.31709486,0.43148112,2.1097264,1.9684118,-0.595631,1.2092624,-0.2908323,0.72912234,0.057648957,-0.2639359,-0.21806978,0.8419633,-0.21827392,-0.89310306,-0.39286962,0.40238923,-0.2854268,0.54499346,1.5009086,-0.5274699,-0.3560284,-0.18578418,0.08958219,-0.2869387,1.4039203,-0.92722195,-0.5181837,-0.29263288,-1.2189382,0.52005315,0.8687288,1.5538235,-0.26939496,-2.8046668,0.40808034,1.6393181,1.0263618,-0.43308675,-0.75586426,-1.0882176,0.5043583,0.45262527,0.559031,0.5629465,0.52154505,-0.8020317,-2.9135041,0.17959821,-0.7659857,-0.39949954,0.7345278,1.4528342,-0.30608797,0.57533306,-0.830216,0.7222314,0.046123646,0.21636093,0.17248727,-0.6865417,0.28670678,1.0269061,-0.65806305,0.74754554,1.8110125,-0.8501903,0.79065573,-0.7843618,0.05231828,0.41493303,0.13235304,-0.15992509,1.4338073,1.6782897,0.24696936,0.4607001,0.1925112,-0.6725172,-0.5289869,-1.2878975,0.5722826,-0.9684217,-0.3006302,-0.9842376,-0.18555635,0.39997706,-0.90744543,0.91359615,-1.4243222,0.57436544,0.714292,-0.13032687,-0.799254,1.0098664,0.04759451,2.1478071,0.75151825,0.23283902,1.8485062,-0.51707065,0.34253222,2.4181027,0.28453317,1.4593922,-0.53200173,-1.4105873,1.2789567,1.5145805,-0.41760466,-1.1847482,0.9049596,0.7775457,0.07908036,-2.2115493,0.565972,0.432256,-0.6327971,0.29939318,-0.61946005,1.0613803,-2.8561842,0.8560368,1.5001487,-0.5760522,-0.7397888,-0.4798491,0.08361929,0.61686283,-0.66552913,-0.6874958,0.42818424,0.080069214,1.6506902,0.17941266,-0.4670501,1.1090919,-0.059604574,0.83876747,-0.065854125,-0.35084724,-0.13575043,-0.23906626,0.70571274,1.7295201,0.73216546,1.7689544,-1.7473575,-0.558552,-1.0067024,-0.21176504,-0.8604557,1.8267475,0.048225403,-0.32532132,-0.95523864,-0.44796738,1.9041585,0.27335072,1.3126018,-0.14776622,0.741955,0.73529154,-0.32272527,0.3131459,-1.7577088,-0.22016324,0.59991825,-0.32445937,0.53356534,-0.0060823527,-0.57132447,1.3289647,0.94498676,0.02358265,-0.4893927,0.4080428,0.5252692,1.1577598,1.2134124,1.8785251,0.4618167,0.06932363,1.4359668,-0.11327872,-2.5533621,-1.7463887,-0.34064788,-0.9703529,-0.2782855,1.2612587,0.02289769,1.5751476,0.3484766,0.5556261,-0.83720106,0.20917544,-1.2811724,0.48602033,-0.427957,-1.1048143,1.0306249,-0.07191361,2.4063616,-0.9741675,0.74779326,1.0347357,0.30499646,-1.0784794,-0.37065002,-0.3205968,-0.20887752,0.10770369,-0.7798312,-0.006978562,-1.0835685,-0.82329476,0.3803832,1.051296,0.40671617,-0.23142095,0.86460894,0.34759519,-0.7494001,-0.30191326,-0.71724284,0.6726746,-0.80796427,0.23023325,-1.2602793,-0.15411341,1.3105582,0.3835799,-2.5591023,-0.3127692,-0.6922877,-0.85194004,-0.7836094,0.90103436,-1.8544958,-1.3067166,-0.6451634,-1.3397783,0.3152434,-1.5030891,-0.40914884,0.77836215,0.69709957,0.31558007,-0.49778154,-0.19539014,-0.5344058,-0.09343163,0.34352437,-0.6120087,0.6486274,-0.60371953,-0.44387972,-0.6932973,-0.7559197,-0.2478465,-0.6739607,-0.6347589,0.16777743,-1.2788233,-0.51190937,1.3782548,-0.03988717,1.5603489,0.4895312,0.12685111,1.0241431,-0.050138067,1.4401015,-0.7126521,1.8799016,-1.0610527,-1.6623259,-0.2732738,0.9696241,-0.57443523,1.3656461,0.64082944,1.2364204,0.09076804,0.7009214,-0.7197592,-1.6610732,0.45855606,0.27135172,0.11898755,0.5957168,-1.7055758,-1.0694807,0.49341896,0.225745,-1.4637089,0.17898363,-1.0119138,0.048293658,-0.4401741,0.54304254,-0.008535816,-0.2393887,-0.18954341,-0.8786812,1.2970371,0.21808125,0.6244799,-0.42879626,-0.39014673,1.141541,-0.5264544,-0.20120521,0.1868892,1.0010535,-0.44573373,0.73649305,1.3859026,0.5527753,-0.88938934,-0.69663537,-0.540894,-0.22798306,-0.27687666,0.4765205,-1.8399376,-0.57309794,0.16945365,-0.32228863,1.025296,-0.47635198,-0.36133692,0.38937584,1.6384314,-1.032052,1.2421126,-0.58203137,0.21841446
113.jpg,1.0719721,-0.5022587,-0.62401754,-2.001859,-0.11402253,1.6789083,-0.23119053,-0.0823997,0.6550972,0.781929,-1.4545499,-0.48460302,0.4625257,0.024987737,1.0830631,0.4624721,0.08635057,-1.5311437,-0.7044041,-0.22182767,-0.052085947,-0.39940733,0.5998152,-0.870833,-2.145328,-0.16824086,1.4126415,0.76128995,0.53478676,0.39999807,1.277622,-0.2582427,0.53219813,-0.71306014,-1.8818505,0.049264815,0.1440451,0.23371635,-0.45074192,1.8495153,0.06103038,2.6706493,1.3285804,2.148029,0.92817724,-0.1383539,-1.1184942,2.0489702,0.9450079,-0.8093794,0.43903577,-0.2619022,-1.6969787,-0.27680597,-0.16757369,-0.61654305,-0.4180484,0.6099672,-0.9829263,0.7891771,0.3772585,0.96553093,0.4842917,-1.8513502,-1.7588072,-2.1502528,0.9049283,-1.0870334,-0.7935054,0.26462236,1.3897487,0.39728767,-0.34145266,-0.5446233,-2.3043225,-0.6607138,-0.28867015,-0.72474986,-1.5663062,0.57769275,-0.69308627,-1.4210008,0.4143915,0.6266362,0.6181735,0.9500243,0.9928067,-0.21019675,0.55715513,0.7911772,-0.15602317,0.9452688,0.074182905,0.4845322,-0.6808299,-0.8670658,-0.60524803,-0.9988786,-0.75203776,1.1094767,-0.5398954,-0.213475,1.4907045,0.3924016,0.7814991,-1.0607518,0.8752722,-0.685642,0.7273794,0.10154433,0.36951986,-1.2160169,-0.010485,0.61123973,-2.73133,1.6624979,0.7433905,-0.6439287,0.015425874,-1.1178803,-0.68783504,-0.90774673,-0.019798012,0.47636086,-0.07635649,-0.7815233,-1.2245836,1.3622268,0.21300489,-0.05413874,0.595438,-1.1856427,-0.108055115,-0.43098763,-0.5459206,-0.8593433,-1.4062012,0.58015484,-0.5521957,-0.1218099,0.9907242,-1.1563035,-0.3079436,0.52748734,-0.19083846,0.74144346,0.18839572,0.07459978,-1.3317456,2.4207227,0.7357217,-0.56558776,-0.92068315,-0.68426466,-0.5316349,1.654777,-0.24299406,0.22202134,-0.08729945,1.1002046,-0.6117839,-0.4982272,0.24425946,-0.2460063,1.2761503,-0.9683531,0.16093723,0.47763917,-0.29347062,1.9061265,0.60381305,0.057545032,-1.6803663,-0.917829,0.45120594,-0.39833218,-0.24892503,-0.74223346,0.36023813,-0.63968074,1.3865988,0.11684182,-0.18809362,-0.6517,1.1767875,-1.3484135,-0.692376,-0.15384765,-1.0722574,-0.14669906,0.47266862,-1.3449947,-0.73971605,-1.8392742,-0.80712783,-0.17455265,-0.16860272,0.3747876,0.13594991,-0.5139604,-0.4553228,0.37994856,-0.10262235,0.32012975,0.19408467,-0.3642067,1.1001426,-1.125729,0.1285631,-1.5313983,0.7813739,-0.22366868,0.37813848,-0.01569248,-1.2071383,0.41801047,0.27153537,1.4258679,1.7937006,-0.05390697,0.5185023,-0.4525772,0.45089966,0.6627834,-0.520292,-0.5840904,0.81322473,-0.64152277,-1.1548148,-0.22858343,1.0559932,-0.06510402,0.49090484,1.4403316,0.77705497,-1.3538615,0.8065586,-0.45133737,1.1461482,0.32033336,-1.8006244,-0.22047487,0.52048314,0.6660204,0.39442602,1.1709163,-1.2335935,-0.2739706,-0.035739545,1.4245627,1.070345,-0.43240216,-0.81220233,-0.30679318,0.11754088,0.6338416,-1.7964728,0.696126,-0.5213069,0.61408705,-1.3060229,-0.40025404,-1.7572035,-0.7569162,-0.9684412,0.9056523,-0.8960474,-1.7847803,0.8533987,1.1971812,1.0369658,-0.47664124,0.7208131,1.431284,-2.118468,1.5065776,0.70208013,-1.0511234,0.8876176,-0.058868755,-0.530032,-0.37622353,-1.2914579,-0.8995692,0.61861837,1.9070659,-0.51731694,-0.19159684,-0.7773016,-0.39243942,-0.06273872,1.7102747,-1.4441661,1.7045528,0.5087631,-2.6674361,0.30937228,-2.096731,0.0089303,0.6677487,-0.13750744,-0.12481497,-1.2379798,-0.3984237,0.12811883,0.6633042,1.0271448,1.3571626,0.54890937,0.4553608,-0.19832765,-0.23087576,-0.42693913,-0.024317259,1.4420443,1.1450204,0.14958498,-0.3060762,-1.7825669,0.1715787,1.4000632,-0.18994084,0.84622115,-0.21377507,0.16502038,-1.9236257,0.7087918,-1.5972692,0.7281366,-0.30746168,0.42267925,-0.0061610974,1.1135788,0.6390247,3.0283818,-1.3693311,0.8044947,-0.091602065,-0.7285106,-0.88963336,-0.71926945,-0.16225483,0.052699436,-0.4975932,-0.8243326,-1.3596858,-1.2826684,-0.17458275,-1.033654,-0.55745745,-1.0541794,-0.6349885,0.30683592,-1.0148388,-0.36123574,-0.06985105,0.9693346,0.29031518,-1.1925228,2.1458592,1.3082724,-1.0045456,0.5537747,1.1063001,-0.59837013,0.8594122,-0.2560218,-1.1617688,-0.44467008,-0.6148474,2.4736786,0.49334738,-0.53536993,-0.9475636,0.004263083,-1.2859391,0.8371991,0.46619934,-0.6098997,0.97702336,1.2056121,-0.55443823,-1.4089497,0.7030031,0.74176097,-0.3437423,-1.3233175,0.43504968,0.3937378,0.014382294,-0.22266981,-0.7179259,0.3407606,2.5503404,1.6608025,-0.58566153,-0.7349051,-0.9309921,0.49351138,0.059328802,-1.3314102,-1.1325834,0.73557395,0.03591064,0.31527454,0.4638523,-0.1701259,0.4179336,-0.039939072,-0.50755507,0.13169408,1.3877124,-0.3547623,0.040391214,0.099012785,0.6157344,0.19686703,0.46004587,0.6753617,-0.16885412,-0.29127744,1.3855275,0.75250816,0.09229657,-0.5955474,-0.097961,1.365059,-0.16742317,0.35518375,-0.24527475,0.59835285,1.1114887,0.5285236,0.88814926,1.1176608,1.1240964,-0.021485735,1.0274879,-0.71500677,-0.19983275,0.8479127,1.2349595,-1.0206208,-0.5127521,-0.4505733,-0.5968649,0.8198921,-0.6269539,1.1159407,-1.1086869,1.2512485,-2.1185048,-0.65331274,0.24314703,-1.4104081,-0.18171276,0.7466334,0.38044208,-0.83671564,0.41580957,-1.084216,-0.5018723,-1.5238594,0.7164318,0.41616532,-1.21793,-0.029778691,3.0556846,-2.3707008,-0.72428864,0.29584923,0.034662295,0.3401132,1.7946502,0.5011693,-0.7553271,0.2610871,-0.5434893,1.2146287,-0.38805062,-0.85676366,-1.4136308,-0.36782345,2.1185913,-0.6716348,-0.43063292,0.18792178,-0.66334546,-0.9932676,1.1952417,-0.8532701,-0.11224164,0.33983082,0.49716792,-0.7265927,-0.16284466,1.1013546,1.4309049,-0.48608208,0.47064808,-1.5247428,-0.59494984,0.8965806,-2.6089365,0.78452736,0.26722646,-0.15181461,0.78687024,0.15309253,-0.32146528,0.18795744,0.7703387
116.jpg,0.27207297,1.7573502,0.607447,0.03560922,0.5402142,-0.35778144,-0.9322344,1.522523,-0.78783053,0.82602113,2.3118567,-0.10997759,0.8876039,1.6478672,0.9305328,0.81633574,0.09685616,-0.2774979,0.052722197,0.6648423,-0.92226756,-0.14066371,-0.10721073,-0.84227836,-0.805047,0.58496046,-0.2712606,0.09995951,0.956481,2.2997618,-1.2773396,1.0142046,-0.046812125,-1.0192305,0.42315936,0.989467,-0.28296182,-0.22694495,0.09896739,-0.50086874,0.4807245,-0.12167824,-1.3659788,-0.15286726,-0.9012937,1.2609191,1.5079739,-1.1106557,-1.1962765,1.0268445,0.10011674,0.96302605,0.9685185,-0.24267624,0.04890014,1.0881755,1.2948738,-0.2685635,0.24536295,1.6147556,-0.08287102,-0.601271,1.1773721,-0.6738384,0.23313749,0.70650053,2.507353,-0.98547804,0.30515936,1.4575101,0.51720136,-0.123263,0.101851754,-1.5160886,-1.3552313,0.30552006,-1.0063452,-0.8627968,0.8612417,0.0057899323,-0.6864302,1.7421505,-0.84109414,-1.2058636,1.179328,0.3780945,-0.7049561,-0.05067192,-1.8085507,-1.0570811,2.0846667,0.113216676,-1.0023798,0.13415855,-0.8836027,-0.24163441,-1.3343959,-1.2096131,-1.3827214,0.3892898,0.7354819,-0.5727033,1.1743909,1.0212698,0.064212196,0.70229906,-0.25179327,-0.92522115,0.1265013,1.4119052,0.5347601,-1.3138354,-0.6195483,-1.793135,0.051190846,-2.4539073,2.7324061,1.5981771,1.2843559,-1.1220553,0.24775875,-0.28862944,0.848564,-1.9819673,0.6910944,1.3713719,0.22500357,0.14996968,0.65963876,0.077391274,-0.41121942,-0.39155084,-0.46821985,1.6920781,0.88645613,-0.80218774,0.85933787,-0.60967046,0.16714297,-0.264805,0.8228586,-1.8969398,1.6550041,0.86580443,0.08146356,-2.3563612,-0.05024526,-0.9014325,-0.7111654,0.35215667,0.090438396,-0.5151802,0.0073629166,-1.2760395,-0.058951013,0.585055,-1.547845,0.59806734,-1.7399765,0.31166187,-1.6122091,-0.5675913,-1.0370394,-0.17524783,-0.5398306,-0.1300107,-1.164368,0.8433158,1.4820796,-0.7198765,-0.24662293,0.11630478,-0.67800015,-0.35649893,-0.043762878,-0.16000605,-0.9795068,0.001580887,0.19496754,1.4012312,1.2797396,0.31855467,-2.3630133,-0.12478507,1.0892789,-1.6086723,0.48896328,0.1791356,-0.15973367,0.18521182,0.042930044,0.47522512,-0.62205094,0.866039,1.2503295,-0.09103407,-0.98446125,0.17727096,0.8517444,1.725767,0.9876463,-0.70034164,0.2090032,1.1329051,-1.4835306,-1.0295496,1.0221394,0.5574258,-1.9824426,0.49134603,0.37728378,0.03696083,0.54797715,0.41601965,-0.3026932,-1.5430377,0.1270131,0.48052025,0.29346704,0.30077848,0.057941034,1.6887066,-0.059615206,1.2253457,-3.1195545,-1.4396607,0.6617707,-1.5448766,0.48695934,0.39952347,1.2486228,-0.4489224,0.5042063,-0.5059309,-0.38707024,-1.0334829,-0.95612353,0.33268476,0.27371353,1.0579779,1.1661879,0.19934188,0.45728016,-1.7303168,-0.31943557,-0.7166238,1.572104,-2.5463693,1.4872729,0.11696245,1.7200722,-0.82893926,1.1828641,1.4484433,-0.76461107,0.6372038,-1.9856977,-1.1834999,-0.24406263,-0.7631611,-1.6947639,1.6243975,-0.13510269,-0.8673224,-1.1744338,1.4326283,-2.341758,1.1634749,0.3730969,-0.0011369236,0.8722955,-0.9446996,-0.43883193,-2.4732437,-0.62455374,-0.4577961,0.25254083,-1.6082209,-1.3593702,0.6699085,-0.15160093,-0.094131455,-2.4013538,-0.9979794,-1.0974727,-0.4263733,0.02584046,-1.3752546,-0.8433818,-2.4135497,-0.7803404,-0.4512661,1.1142923,-0.25934273,1.2497963,1.6938748,0.22028515,0.29983413,0.49207196,-0.33692366,-0.7868384,-0.6421219,-0.86853296,0.105394736,0.91789114,0.03614085,-0.6998454,0.9523365,0.16118433,-2.293273,0.43751043,0.27631426,1.7039043,-0.6979922,1.9220775,0.84815216,0.79410535,0.4667228,0.010646587,-1.4696704,-0.5043917,0.30057102,1.5649654,-1.008118,-0.758968,0.2248541,1.0810171,-0.46967056,-0.72309285,1.0830678,-1.8805249,-0.8189795,-1.104994,-2.1316922,-0.5313348,-0.80073583,-0.008539804,-0.9208769,0.92562705,-0.8785664,2.832053,-0.62116486,0.4924422,-0.51980925,0.7400655,0.30732355,-0.43984652,1.9162776,-0.40840885,1.94765,1.0896263,-0.61455476,0.26435968,-0.5385735,0.64885813,-1.5075305,1.6951241,1.1853124,0.6156227,-1.4013834,-0.081917316,-0.083095364,-0.058470376,-0.4666252,0.5717092,0.6565815,1.6500189,-0.7799907,-3.254434,0.038541935,-0.8696416,2.860627,0.5381132,-0.528231,-0.4983924,-0.9353481,-0.536425,0.21862236,-1.6490402,0.1873086,0.58214474,-1.6281692,0.04516199,-0.080557205,-0.28563443,0.38575375,0.48399478,-0.5728516,-0.009820061,-0.08352982,-0.15906812,-1.500054,0.796435,0.33912614,-0.47806874,0.8454683,1.2101341,1.5690887,1.0929695,-2.1262918,-2.0442798,-1.2037107,0.76246476,-0.8194754,0.70431244,-1.82012,0.7914574,-1.2610155,0.62535036,0.31874987,-0.6763991,-1.6910118,1.064198,-0.10039387,-0.5116149,0.82689637,-0.13698028,1.8154504,-0.6404073,0.1252764,-0.7773739,-1.4436228,1.6831963,1.5136722,-0.72781026,1.3475271,-0.0758713,-0.5087574,0.12458697,-0.22344598,-1.1656451,-1.1408396,-2.0511734,-1.0174176,0.5291495,0.36490834,-1.5193442,-0.5078626,0.76006216,1.2075213,-0.716991,0.41277665,0.7076429,1.9511981,-0.34245965,1.3992275,-0.26015478,-0.538304,-1.4613395,1.1901982,1.4100308,-0.9798373,1.1221772,-1.3753922,-0.09367827,-0.2641992,0.7335423,-0.28346524,-2.2865324,0.21430345,-1.4225298,2.8925858,-0.2820417,-0.34305868,0.18142633,-0.9069495,1.2967986,1.0161487,-1.8101522,-0.7051661,-1.0314897,1.5023451,-0.19622113,-0.013925246,2.6900826,-1.8661093,1.0235435,0.20377836,1.615333,-1.0565099,1.4824785,-0.7426158,0.57967234,-0.37574545,-0.10242088,0.88103396,0.9743555,2.0082777,1.0469579,-0.54281133,-2.2201726,0.11446771,0.6985896,-1.3114,-1.7408724,-0.76326257,-0.82196325,1.5810328,0.19874263,1.3234988,0.7831602,0.5076169,1.8112491,-0.5915382,0.845673,-0.65784645,1.2983661,0.19904757,0.6681676,0.37506732,1.8936597,0.30616504
12.jpg,-0.20033574,0.6005249,1.0268444,0.8349483,-0.740451,-1.5617085,-0.07099642,0.9237668,-2.8243876,0.31555593,0.7944261,0.4614829,1.7621759,1.735617,-0.55139786,0.74883544,-0.37421903,1.833916,0.15134671,0.04679182,-1.3746367,-2.4782906,-0.38002345,-0.31446728,-0.17892693,-0.8168462,-1.4827219,-0.03395359,-0.8548533,1.1303952,-0.062346373,-0.20585115,-0.901346,-1.739285,-0.4040287,-1.1896464,-1.9005612,-0.38173753,-0.70040816,-0.02420329,2.2588768,-0.44401354,0.88364744,-0.6937032,1.2749848,-1.0631953,-2.0483813,1.0745255,-1.0890579,1.7192373,-0.5443328,-0.16031818,-0.33161065,1.2113143,1.8215458,-1.0303836,-0.600043,0.18874514,-0.8511377,0.24197374,-0.087254,-1.6436343,0.14026634,-0.30492896,-0.7954118,0.6534765,0.41698197,-3.265246,-0.27175483,1.0115348,0.5317744,0.34028754,-2.3095405,-1.1579025,1.1760968,2.2748222,1.1495094,-1.9468386,-1.0457023,0.009878874,1.6976521,-0.5168096,0.5154321,0.4827651,-1.9387734,-0.019469477,-0.8076489,1.199436,-0.24283299,1.1354586,-1.4583658,2.5680654,-0.55626035,0.023415182,0.15100867,1.2382921,0.96801966,0.43391073,-0.13666601,-0.9815776,-1.5404931,-0.49512938,-0.9590052,-1.5271478,0.5131726,1.8008713,0.77746445,-1.0342807,0.9516983,0.88020116,0.6788978,-0.081970125,-1.544269,-1.1194172,0.3758187,-1.3105103,1.041189,2.1788604,-0.6270954,1.0504808,1.3431847,-0.44253442,0.44808787,1.5944579,-0.19203429,-0.7018613,0.83092564,-0.22315887,2.4437697,0.98003626,1.0232328,2.3767834,-1.9632565,0.43552768,0.32581237,-2.3991332,1.2383941,0.030422758,-0.19632171,0.37465808,2.8478284,-0.7912504,0.9815657,0.4034435,-0.44410786,-0.7059895,0.008217298,1.0522064,0.023407748,-0.34209955,1.5439799,0.46670753,-0.70544785,-1.0226744,-1.3688315,-0.27066734,2.705714,1.7897731,1.7532254,-1.1037478,-0.027425138,-1.0319753,0.020300077,-1.2115723,-0.50495154,1.025478,-0.766747,-1.9579698,0.8908939,-1.2589989,-0.39589298,0.7077549,-0.38573378,0.2769837,0.43044314,-1.2592883,-0.100703925,-0.41844815,1.3011339,2.5301878,-1.466612,0.0201871,-0.8730474,0.14332414,-0.8509695,1.30498,1.6807482,0.104000024,0.19613501,-0.59205526,0.14336514,0.44191295,-0.8400269,0.34950188,-0.30755448,-0.33186302,0.94660336,-1.8982255,1.3065907,-0.26747802,0.63212425,-1.4288571,-0.8347039,-1.6562923,-1.3072761,-0.6916001,-0.03637962,-1.6294395,-1.3879782,-0.08252799,0.58937204,-1.4129833,2.1031241,1.7520217,-0.2978324,-0.4357219,-0.65450007,-0.1662302,0.003954655,1.3517962,0.64044684,-0.677198,-1.027049,-0.7811798,-0.674015,1.0027956,1.9061402,-0.25752768,1.0676835,0.7431396,0.109567,-0.38274387,-1.2584071,-1.0927209,-1.1449059,1.4961149,-1.5219947,-2.1609175,0.16807747,-1.9572208,-0.2504048,-0.8894136,-0.90385735,1.7725012,0.9804705,-1.3170606,-0.6928214,-0.467827,0.19889055,0.6669321,0.19088608,-0.09317729,-0.55201495,0.21745291,-1.048998,-0.7255557,-0.19332826,0.49459815,-0.38778415,0.25290006,2.2472527,-0.9237684,-0.053379588,-1.4109303,-1.3401854,-0.3595524,-0.5220064,-0.45236865,0.6899353,0.96900964,1.2329302,-0.8178223,-0.32092628,-0.5232414,0.61729044,-0.7380421,0.81789106,-0.13330312,0.17679356,0.3651741,1.2616518,-0.6068638,0.92713284,-2.4645166,-0.6354243,-0.27862766,-0.25093144,0.414161,0.32799315,-1.4215753,-1.2076344,-0.14002717,0.051764835,-0.24035037,1.281189,0.77247185,-1.4028926,1.5687305,0.6599318,-0.7811115,1.7378321,1.8369712,-0.13681759,-0.88075686,-0.8508587,1.4549288,-1.0399892,-0.946464,1.6416781,-0.55689764,1.6862745,-0.007985358,0.42191404,1.1574398,-0.01819251,1.1791856,-0.31232655,-0.85941774,-2.5600665,-0.10917762,-1.4929047,0.33906308,-0.05304887,1.1868545,0.14731416,0.091130644,0.275417,-1.8007338,2.184815,1.2180083,0.39635968,0.9959128,-1.5121592,-1.9026427,1.5491709,-0.4010964,-1.9504349,-1.3835891,0.29624036,-1.4167356,-0.31747305,-0.6021474,0.20010632,0.85186255,-0.58917624,-0.38774508,-0.60574156,-0.42930353,0.64399195,1.642067,-1.5028552,0.99060893,0.77327245,-0.4834137,-0.15533492,0.0814392,0.07635537,1.8126272,-0.29317698,0.941168,-1.2096581,-0.26843485,1.8525653,-0.6234206,-2.8899903,-0.84091467,-1.5838197,1.0202931,-0.20881546,0.5060166,-0.53777,-0.8629517,-0.47832802,0.54137015,0.13278702,-1.4858292,-1.0713435,0.33396626,1.9496802,-2.7768438,0.22425316,-1.3176235,-1.235179,-0.12506306,0.49044073,0.55459106,2.2440038,0.28128576,1.1221197,2.0324965,0.12449648,0.44665596,0.42987055,-1.3515823,-0.44500628,-0.98198694,-0.93464035,0.0742997,-0.07021912,-0.2698398,-1.7466986,-0.20223916,0.6123105,-0.2755964,0.15398706,0.7126371,1.08676,-0.48407376,1.7631087,-1.0716162,-0.748233,-0.40612718,-0.37050235,0.147085,0.898972,-1.2760861,1.0196462,-1.7208211,0.0076667676,0.08425665,-0.5056454,1.0568218,1.0211743,0.0913422,-0.5720175,-1.5400194,1.0454725,0.43843138,0.22026865,0.44986403,-0.37874293,0.5129425,0.4494176,2.459046,-1.1119472,0.34240976,-1.1481925,0.36173004,0.6811878,-0.40811598,-1.3112961,-1.4344262,-0.7765019,-0.41129678,0.7729228,0.09446804,0.9414214,-1.2861465,0.5650589,1.362362,0.2542476,0.14072944,-0.9045529,-0.6261894,-0.6746699,-0.9376331,0.19188435,1.1394446,-0.17743976,-0.14536667,0.6932675,-0.4447513,-1.1919918,-0.49474522,1.563298,1.2221633,0.3006635,1.2160014,-1.2141594,-0.41195405,-0.86114866,0.5571763,1.1368127,0.63961214,0.5531741,2.033652,-0.20515195,2.0735583,-0.95428807,-0.3270977,-0.5452089,-1.9198606,0.11516059,2.0386946,-0.8966399,1.9658394,-0.84958535,0.7048752,-0.24615979,0.31195647,-0.17873949,1.5758989,-0.7192196,-0.5807271,-0.25401604,-0.1013257,0.30098525,0.85235924,-0.071283355,-0.6772296,-0.2757238,2.457464,0.25064236,1.3746412,1.5055653,-0.21351752,0.7626814,-0.8811994,-0.51010036,-0.40043035,0.13025133,-1.0957347
121.jpg,0.72605777,2.416407,1.2150602,-3.1081471,-2.5420775,-0.10513879,1.653104,2.0380385,0.007913063,1.0886943,0.75830024,0.27023825,-0.3660242,0.53254855,-0.9690913,1.4171395,-0.55885124,1.1996217,0.3950493,0.28113595,-1.9498152,0.3152871,1.9900366,-0.5659335,-1.5688713,0.3077675,-0.7947956,0.08803269,0.3098547,-0.44413185,0.47839203,-0.35071924,1.4740388,1.681712,0.46881518,-0.40587723,0.16224183,1.2480757,0.45657676,0.5543168,-0.6480734,0.20353192,0.48097244,1.2285118,-1.8100699,1.6386787,-0.29533726,-0.54158974,-1.2662042,1.2452941,-0.5567089,-1.5799271,0.71991694,0.52096796,0.88893515,0.42151102,-1.4128188,0.8612514,-1.3968823,-1.110597,0.23636714,-2.7923853,-1.0924288,-0.341522,-0.096872516,1.7406541,1.2159193,-0.8724035,-0.24109824,-0.19463256,-0.81942666,0.3357155,0.11802491,0.55499583,-0.2137919,0.72565633,-2.4242728,-1.0437458,0.15376611,1.3202282,0.5039234,1.3132561,-0.24090767,-0.65844744,-0.24897869,-1.0032972,1.0877376,1.6942736,0.7095465,-1.317254,-0.5498405,-0.56353015,-2.0014493,0.8198808,-0.20246616,-0.86247724,-0.86902505,0.12925874,-0.31033176,-0.75866693,-1.5719287,-0.004374782,0.43316248,-0.32621258,1.5906149,1.506246,0.48431748,-2.042388,-0.9343913,0.5316205,0.6107197,1.5903152,-0.16515921,0.8092143,-1.4647553,2.2226205,-0.37416893,0.20097023,-0.1469902,0.1359792,0.5274204,-0.07375652,-0.70869976,-1.5700113,-0.6437269,0.9321537,-0.3956304,-0.4543583,0.6362273,-0.8613969,-0.039474774,-1.4670149,0.66304857,1.9964256,0.06983343,0.8356389,-0.48539296,0.35660648,-0.69731843,0.013546628,1.443263,-1.7104502,0.770691,-0.0013375403,0.27052456,-1.0786929,-2.4934068,0.9626269,-0.14735033,-1.1942159,-2.0800545,-2.742162,0.7568105,-1.2897165,-0.9085184,-0.62997764,-2.5388267,-0.3325602,-0.42402032,1.1223751,-0.33941364,0.67758584,-1.1010789,-0.185395,-0.54801834,-1.7027081,-0.8175983,1.4756584,0.4498562,-0.69149876,1.0763813,-0.42597464,-1.6448544,1.7370969,2.4195533,0.64156,-0.37170714,-0.36097106,-1.7352244,0.6826399,0.2436665,-0.43951657,0.487458,-0.69317245,-1.0497974,-0.9966675,-0.9596422,0.30409446,-0.07865812,-1.6280518,-0.35071793,-0.64540553,1.7947503,-0.79956484,0.107377835,-1.781888,-0.13191433,0.5596107,0.86678994,-1.0555153,-0.5762477,0.5805602,0.7559034,-0.9403167,0.80118847,1.6428635,1.137595,0.8375103,-0.91532373,0.46840453,0.93142545,-1.4700282,0.5550701,-1.0415599,0.5627554,-0.21690431,-0.9442092,-1.3771194,0.11306109,-0.16549857,-1.1758114,1.8994015,1.2600175,-0.8214805,0.4521555,-0.8746259,-1.0784556,-1.5253918,-0.6770567,2.2550342,1.0690967,1.7443343,0.33192623,0.98010653,1.1029972,0.4181095,0.57494056,0.19357497,3.1454823,-0.008915205,0.869664,0.6365445,0.19730377,1.2024218,-1.4353893,0.76544166,-2.184091,0.22785324,-0.11550866,-0.58860606,-0.22314033,-0.11071989,-1.2573897,-0.64093953,0.5965804,0.6124959,-0.26827228,-0.43521535,0.38276923,-1.2198199,1.138846,0.5039894,1.4531109,0.24886961,-0.3768339,0.05605913,-0.9484689,0.9104878,0.9147734,-0.7812951,0.25514188,0.45623204,-1.7589282,1.8183733,1.5218121,0.8616205,-1.3330282,-0.15504354,0.35831392,0.6732142,0.03215302,1.0601583,-0.25782016,1.2410221,1.2571057,1.220558,-0.77146524,1.299659,-4.000319,0.44371557,-0.0116410535,-1.3930911,-0.49833786,-0.32494575,-0.14204173,0.62013245,0.5531763,1.6302683,-0.1467371,-0.47566223,0.20950879,1.5320655,1.7504989,-0.3257155,0.833209,-1.92651,-0.0060771788,-0.97111887,-0.84191495,-0.29775316,0.30569386,-1.0289739,1.9914507,0.061327707,1.13553,-1.1004399,1.9603921,0.7984931,1.8453202,0.33452678,0.89282084,0.34455436,0.4217838,-0.6432461,-0.38319555,0.8049407,0.2511551,0.9980849,-1.5106118,2.121487,-0.24256195,0.9581779,-0.45710328,-0.7276278,0.5635197,1.3283184,-0.7159623,-1.3685417,-0.9432874,-1.6872042,1.3195759,-0.6418503,-1.2498978,0.56564367,-2.6936882,1.3981826,-0.3129247,-0.7883232,-0.38696817,-1.9265823,-1.0209252,-0.42739716,1.7884833,-0.53507185,0.35016245,-1.5503869,-1.0782278,-0.40084717,-0.20431657,-1.6569536,-0.58232296,1.2711087,-0.8506747,-1.7213194,-0.43088484,0.66344094,0.001326594,-0.86301476,-1.1184852,0.23284987,0.18367031,-0.18183362,0.14318569,-1.5063183,1.0673797,-1.3773915,1.9193397,-0.7279988,0.53335017,0.8299371,0.6889489,0.1531173,1.7475325,-0.5480722,0.39444414,0.1875867,2.467873,-0.20013787,0.13970494,0.8386147,2.2205148,-2.1243267,1.253743,0.6954439,-1.5376471,0.8125251,1.0305285,1.3359891,-2.4127767,0.9127754,0.26315993,-0.071104296,1.2203188,1.3182946,1.3299673,-0.93038803,-0.44917876,-0.8277579,-1.766417,-0.602659,-0.17278515,-0.3585511,3.3708477,-0.8415758,-0.2670794,1.3489443,0.9712831,2.0115674,-0.43299252,0.38114405,1.0286976,0.9387807,0.5795579,0.4058247,-1.7046533,-0.5556377,-0.0010753652,1.0251907,-1.3116777,0.3120889,1.383672,-0.31898,-1.1341376,-0.62165475,-1.4831389,-0.983918,-0.69085014,1.0088,-0.038392913,0.8436256,3.5279617,1.7845157,-1.0484899,-0.6776702,0.9219292,-0.7866376,0.54174113,-0.25581446,1.5253074,-0.9642995,-0.069056705,-0.9359107,0.41698638,-0.652497,0.12526411,0.44369096,0.8158356,-0.2104837,0.24876738,-0.77521205,-0.8024716,-0.036942504,0.82481253,1.3482162,1.455931,-0.31642082,0.10003079,-0.6459305,-1.1388212,0.12889385,-1.5204376,0.9480154,-1.2795593,1.7321433,-1.0289887,-1.4923846,0.19864178,-0.8664259,0.04108707,-1.7419717,-1.3507146,0.07624584,-0.028815914,-1.3027807,-0.42024663,-0.08914124,0.5432053,0.39411283,1.2908672,0.5867663,-1.24935,0.2719765,-1.2116294,-0.12974282,-2.4160638,0.647552,-0.8808913,-2.0695639,0.2384945,-0.7751258,0.24529976,-0.17576204,1.1621122,1.0915774,-0.01933169,-0.9044878,0.50091696,0.11344602,-1.1601039,-0.3337917,0.0017140295,-0.3567942
125.jpg,1.0388186,-1.193711,-0.7573045,0.11236895,0.9369176,-1.170036,0.24831921,-0.43729246,-2.1963027,1.0195751,-0.8223914,1.4579345,0.051789004,2.333625,-0.6113851,-0.93642545,-0.5934269,0.11947919,-1.3679483,-1.068548,-0.40270543,0.7490563,-1.5663012,-0.6740752,0.19841348,0.853625,0.14911899,-0.49794635,-0.90025884,-1.1341237,-0.15204589,0.04162208,-1.9847597,-0.54857415,0.3562257,-0.9671616,-2.25281,-0.54700565,-0.43900633,1.2122475,1.0334743,0.25088605,0.88351387,0.50463104,0.490823,0.43433955,-0.6715264,1.5567076,-1.0524534,0.24004406,-0.55299723,0.14268278,1.257913,-0.99767995,0.033485536,0.1837761,0.16242124,0.7738489,-1.9210901,-0.30029792,-2.5324569,-0.07753421,-0.41147226,0.11032525,-0.122988895,-0.40046892,1.279633,0.89972883,-1.6132057,0.14623527,0.85987,1.9861689,0.7276265,-0.46343395,0.9245165,2.288686,1.3357674,-0.15950407,0.08721171,-0.86602,-1.7235037,-0.87425154,-0.2305981,1.6141902,0.17029755,-2.0418148,1.2795001,0.012083558,-0.55277467,-1.5257189,1.8986695,0.528816,0.9988813,-0.42253458,0.54191345,0.31881383,-1.304678,-0.9364818,2.1203532,-0.9454107,-1.3282912,-0.1341171,-0.91256595,-1.6129057,1.3652744,0.09412111,1.4307394,1.0876518,2.0726414,0.7734757,-0.024074232,-0.57917583,-1.4207258,0.49162543,0.47910893,0.21720101,-1.3675053,-0.29884717,-1.1602882,0.6899625,0.80436206,-1.0110521,0.07371517,1.7163174,0.99109066,-0.025253478,0.16408743,-1.2415034,-1.7983723,-0.0003109351,0.4916779,-0.10041393,-0.40215245,-1.5412388,-1.2455993,0.05209258,-0.4438446,0.05284976,1.4028276,0.98620963,-0.5902117,0.5900843,-0.4176486,0.36851916,1.1728727,-1.4737817,0.46856683,0.35709226,-0.96204895,1.4498101,-0.38018632,-1.7735718,2.2700167,-0.022432083,0.30096132,-0.5627866,-0.19906671,1.1737999,1.3052837,0.19001164,1.7081537,1.7254198,1.4697807,-0.9683936,-1.1154071,1.2553693,-0.56627923,-0.38034853,-1.7776116,-0.41999894,-0.71740323,-0.24448109,1.2994133,0.10651767,-0.81000054,0.6842373,0.6246754,0.95426023,1.4656622,-0.5729776,0.032263707,1.4308934,-1.4038659,1.1224117,-1.9501592,-1.1032466,0.2983662,0.8755559,-0.5692521,0.5525092,-0.5956693,1.0896244,-0.044778038,0.24851753,1.1052983,0.7086941,0.49160853,0.55201244,0.051335506,-0.9365675,-1.6243774,-0.26345354,0.21367317,2.688463,-1.3091326,0.70464706,0.11178109,1.6906035,1.1970062,0.8518786,1.1741294,-1.2022982,1.920279,-0.3296641,0.16050687,0.03838831,1.439727,0.21366937,1.5688889,0.5292206,-0.36964542,1.1045706,-1.0085787,0.7178432,0.72148305,1.2053422,1.1012156,1.6932594,-0.23693225,2.0581226,-1.252402,-0.5645884,-1.0461133,-1.7678026,0.30850598,-1.3575993,-1.9555401,0.39515275,0.20103277,-0.43045238,-0.10604664,-0.93690455,-1.8126228,-0.10474605,0.12816188,1.067972,1.0013157,0.6286096,0.37968865,0.21394035,-0.46249172,-0.9225077,-2.2114007,-0.94960487,-1.406192,-0.17281179,-0.4913313,0.74754375,-0.3464554,0.6530831,1.998062,0.13165411,-1.039854,1.7713891,-0.32193953,0.7011083,0.5976982,-3.2002332,-0.70264435,0.56083244,-1.077093,-0.76022184,1.0204743,-0.20831384,0.60158753,0.57610565,-0.31965554,1.5418099,-1.5360016,0.64104706,0.8605905,0.5197384,-1.0230218,0.6985326,-2.7233627,1.4057933,1.1272234,0.4423167,1.9705914,0.66620094,-1.340476,-0.6260403,0.5164532,-0.45583773,-0.9544925,1.1286582,0.4255763,-0.3905133,-1.529748,0.36130017,2.6656392,0.60102284,0.10216625,0.5159315,0.1265613,1.5011967,-0.23592395,-0.21509679,-1.2554572,0.3266339,0.9387528,-0.5702817,-1.5554467,-1.0120487,-0.88723034,-1.649024,0.4488543,-0.15654053,-1.2035468,3.090946,-0.70875275,0.33097604,1.8269002,1.4608606,-0.26302287,1.7381642,-0.46711522,0.42418614,-0.35234076,-1.1203544,0.6691789,2.9303987,-0.48183572,0.7648055,-1.1121886,-0.83987343,0.35695398,-1.5163718,-0.6669774,-0.021994678,-1.273861,0.43837896,-2.247609,-1.1035668,1.1553345,1.9966917,1.4089931,-0.80438906,0.007887581,0.6830241,-0.37874165,1.148646,0.96830213,-0.055949073,0.140576,2.3923223,0.54199415,0.31496707,-1.1170843,1.0050428,-0.709288,-0.19951767,2.3586378,0.44794014,1.3479304,-1.0225147,-0.6387315,1.6653088,0.5471785,0.3119355,0.42733476,-0.4427064,-1.1795336,0.5676628,0.24859445,-0.84334254,0.536787,0.17251365,-0.17996295,-2.1164715,-0.0026229525,0.26191428,-0.8988907,-0.32828695,0.118462525,-2.0664663,-1.9700931,1.6294239,1.5959742,1.5812838,0.76289827,-1.1104157,-1.3421409,-0.8293272,-0.826077,-0.6966044,-1.4051548,0.23115799,1.2989391,0.64810723,-0.107365,-0.8275552,0.2970221,-0.56732315,1.1012676,1.5878823,-0.45485914,-1.9831519,-1.298183,-0.6309155,-0.5944005,-1.4868399,-1.7145165,0.34055698,-0.38383728,-0.9840052,0.49271894,-1.2885222,1.6033243,2.095765,0.5283182,1.6605003,-1.0098549,-0.13725598,-1.02371,-0.66228396,1.0448565,0.42747417,0.77427244,-1.4257923,-0.32270718,0.57120055,0.26282507,1.0270609,-1.9448557,-0.91823524,-1.6673217,-1.2658788,0.7354576,0.3054229,0.20916042,-2.9516668,-0.45377073,0.29923156,-0.6930014,-0.21838999,0.49282274,0.56739116,0.48167586,0.63883775,-1.1738232,0.52407175,2.4931397,0.07555325,-0.93180054,-0.46287593,0.967525,2.1711152,-1.4611942,0.76146567,-1.0878669,-0.8353391,-0.8267594,0.79313827,-0.81829935,1.2588291,1.3564712,-0.7515591,0.3969873,-2.2404892,-0.23777646,-0.012715996,1.8924809,0.32699305,-1.0660509,1.9424917,-0.45348945,0.9222322,-0.015750049,-0.5455906,-0.112054124,0.12075512,-1.1897786,0.28896737,-1.2548008,-0.26854527,-1.3449981,-0.40238205,1.0912646,1.3160498,1.1217577,1.0106368,-0.28064984,0.7819553,0.8694305,1.4344761,0.9456436,-1.1505101,-0.8149986,-1.9722477,-2.1848497,1.5440967,0.5115393,0.19363892,-0.02656978,0.44172874,1.1469167,-1.0727743,0.517727,-1.2745612,2.9488008,1.5480564
137.jpg,-0.46804848,-0.4595469,2.8606153,0.19642133,1.596871,0.5615562,0.7456451,2.1083946,-0.87798995,-1.2021973,0.042571828,0.39599803,-1.1250983,0.28560448,0.36704966,0.70253706,-1.4408016,0.6336958,1.3967894,0.97932345,-1.4036707,-1.7590853,0.3706982,-0.9233379,-1.3256865,-0.84129477,-0.4689823,-1.0351384,0.08205382,1.0266159,0.51898116,-2.2637458,1.931674,2.383044,-0.6353085,-1.6172456,-0.42435786,0.44204056,2.981138,-2.3127372,0.30363467,0.29517668,0.714672,0.80705136,-1.6664411,-0.37584,0.965864,0.7703713,0.8943224,-0.4709319,-2.7290704,0.5573111,-0.48769394,1.9127139,2.397084,2.212465,1.8132721,0.57726777,-0.07397195,0.9995024,-0.35265282,0.7061504,0.16129057,-0.12487839,-1.9850436,-0.18569253,-1.1478432,0.23128788,1.5140572,0.557067,1.0058123,0.6208054,0.91854906,1.9182307,-0.34757707,-0.17071544,-2.250041,1.4980956,-1.4627894,-1.6960127,0.021935193,-0.3539376,-0.13692978,1.5226551,-0.6721931,0.37703168,0.5555139,1.8812883,2.005915,-0.6487206,-0.8182339,1.6272858,-1.7883006,2.8442943,1.5655987,-0.78847945,-0.5366165,-0.061685186,0.73443145,0.16265869,-1.1527165,-0.30244398,0.6973713,0.74618936,-0.9871006,-0.69059145,-1.1963321,1.03762,-0.6436866,0.8131785,0.8728338,-1.4454035,0.6958048,-1.2684339,-0.3853217,0.7485488,-1.5395912,0.45096236,1.2499956,0.634323,-0.6235013,-0.08531687,0.26329708,1.4143012,-1.656129,-0.5727117,-0.14081027,-0.7552383,2.3640122,-0.34032685,-0.41982952,-0.4138172,1.5140299,1.7695328,-0.88549125,1.3212779,1.1450337,-0.81994253,0.8583928,1.6936278,0.20135038,0.8897856,-0.03612452,-0.4659426,-1.0358844,0.32673123,-0.10899611,-1.1850796,-1.7661682,1.441565,0.60072374,-0.005413752,-1.0529126,-0.34197024,-2.6595368,1.3927583,2.3849332,-0.24271163,0.42422536,-1.6606344,1.0804179,0.87238693,1.2500317,-1.4272302,-1.0864463,0.52621603,-1.5348366,-0.4142957,0.13972959,-0.54270035,0.11657527,0.10502185,0.65412474,0.24204063,1.7807989,-0.13878529,-1.5164987,1.5953069,-1.8695098,1.3058326,-0.43854457,-1.3337779,-1.5457324,-0.6802497,-0.28720063,-0.8566418,1.2363605,1.105183,-0.34117123,1.2566475,-2.8962114,-0.4223793,1.054113,1.2732755,-1.230079,1.7590188,-0.59634805,0.5383457,-0.48449108,0.7647521,0.4291001,-1.0681639,1.8887932,0.45555577,-0.7202465,-1.069429,0.45659894,-0.3460865,-0.75217974,-0.5675979,-0.4901702,-0.14939873,1.3056239,0.8123749,0.46349534,-0.8246322,-1.6863959,0.5109936,1.3377717,-0.9074936,-1.3546278,-0.96190244,-0.65309244,0.7945191,2.0847445,-1.1432964,0.10576852,1.2326344,-1.6444087,-0.13658135,1.5994577,-0.82346064,-1.9555086,-0.17131059,0.63461834,0.49990028,-0.7756799,-0.37309828,-1.5342007,0.8712013,-0.4728175,1.099547,1.759088,0.8063911,0.76737773,-0.9595285,-0.35889098,0.48977563,3.2467802,0.1854027,0.72358847,0.06692171,-1.4559604,0.46766463,2.2587528,-1.6196162,0.3496965,-0.42547202,-0.9666107,0.9220161,0.66948617,0.4437283,0.19018461,-1.6042615,-1.3856188,0.17975047,1.7318801,-1.0909475,0.9806795,1.5083575,-1.0396657,-0.3174286,0.62428105,0.86461174,1.6855341,-1.4597415,-0.544591,-0.9547918,1.4764086,2.0608132,-0.28881365,-1.5217288,1.0617837,-1.3009923,1.256407,1.4537275,1.0566134,0.6457041,-1.3123163,1.3482871,-1.3933363,1.4495802,-0.6455372,-1.3036739,3.143246,1.6174495,0.060716197,1.4471384,-2.523975,-2.0438979,0.686407,0.40948108,1.3224285,-0.040530063,-0.65628964,0.807038,0.66615695,-1.3402522,-0.98999596,1.6763369,2.9152753,0.3406003,1.763334,2.540674,0.12495157,-0.45807815,-1.31519,0.43169594,-0.37029245,-0.101554945,-0.57351243,2.7621634,2.0861464,2.6562154,1.8567435,1.3667763,0.63180834,1.72675,0.89024127,1.5956057,-0.37375844,-0.57384235,-0.360215,-0.6380452,-0.95899755,0.5910247,-1.4196165,-1.1592526,-0.22879428,-0.4881306,-0.4306927,1.263099,0.20640962,-2.1512344,-1.3730816,0.626779,-0.14490142,-0.6802497,0.12465956,-0.7371503,0.6806251,0.73764247,-0.9571488,0.841858,1.2804703,-0.35707712,0.34186634,0.733679,1.2341886,1.0538725,-1.483508,1.6963887,-0.35766205,0.5395046,0.08461364,1.2505249,-0.51289415,1.0182841,-2.1300147,2.1751657,-0.5424817,-0.8661753,-1.0284326,-0.011570908,-0.3957697,0.7813209,-1.2633488,-0.35927102,0.911478,0.10331855,-1.1489205,-0.46683866,1.3286412,1.0574471,-0.58423084,0.6026873,-0.79712456,-0.4116629,1.1669585,0.3565122,-1.7147021,-0.93868583,1.038699,-0.86656815,0.54045844,0.11619079,-0.6251128,0.24395797,-2.0767019,1.7399838,-0.35771912,-0.9143893,1.2439321,0.9734781,0.617075,-1.5027713,0.09498653,-2.1456957,-0.27646407,-1.1933925,3.3400931,-1.4543228,0.4788472,-0.7322908,2.8146603,-0.26176134,0.3211618,-0.6411373,1.3543948,0.95135754,-1.275474,-1.5493332,-1.8906708,-1.3841883,1.1661727,-1.094079,-1.5933423,0.71503437,0.027073277,0.1527286,1.4074334,-1.1681458,0.24336424,-0.06363481,0.7371007,-0.7894539,0.6001522,-0.36771098,-0.63707036,0.015695026,0.96032476,0.94246054,0.58660686,-0.77342546,0.977764,-1.3991543,0.33617908,0.5683094,0.5639463,1.2581271,0.17729776,-2.0221596,0.21747123,-1.3962348,1.498083,0.657727,-0.45435804,0.6506145,-1.6123126,0.69992,1.5796281,0.08285808,-0.6927899,-0.65827435,-1.330918,0.8710912,-1.0083185,-1.8513263,1.3179113,0.26252288,0.9649924,0.978876,-0.1285649,0.049204443,-1.3315088,1.7337879,-1.7128303,0.76909536,-1.1996037,0.036480114,0.33428296,1.4649289,-0.11881571,0.32642218,-0.34483084,-1.8382057,1.8463916,-1.6091474,1.2290436,1.7469901,-1.288214,1.454133,1.7954519,-0.58596677,0.9732247,-1.0300071,-1.553871,0.1596314,1.3235576,-0.11966081,-0.029317217,1.3887395,0.28449848,1.1083298,0.36438036,-0.036365636,0.96643955,-0.10094916,-0.8215235,0.8502393,-0.006470498,-0.46597126
148.jpg,1.1459774,0.64525765,-0.7120008,2.0677896,-0.4300252,0.29323575,-1.2951585,2.466414,-0.42730984,-0.14433666,0.1538758,0.48026443,-0.3340598,0.36918095,-1.7743807,-0.3953302,-0.8112902,-0.45466372,-0.4080667,1.7308953,-1.6782328,0.5211755,-1.1124561,-0.614102,-1.3408092,0.5187521,0.83968383,-1.8039376,0.096669994,-0.7399119,-0.23843001,-1.2252315,0.7466317,0.10835043,-1.2591637,1.8777978,0.12333296,2.046728,-0.05419156,-1.3788518,0.3615469,1.0905348,0.5875144,-0.05194398,-1.0724266,0.07767039,1.1061517,0.522556,-1.1696608,-0.97961724,2.05527,0.90242136,0.5925952,-0.27981907,1.2392519,-0.8249364,1.4237221,0.07518422,0.07105355,-0.87959826,-3.265664,0.17019406,-0.876384,0.77115285,-2.0237796,-0.8226605,1.2998856,2.6496637,-0.42421997,1.2438922,0.4804655,0.036336184,0.3225619,0.5876864,0.27853203,-0.84008765,-0.81515455,0.76380247,-0.92509156,-0.863288,-1.6228576,-1.6901101,-1.0493928,0.90343887,2.0851877,-0.7882984,-0.3026522,0.26630512,-1.0241754,-0.5001956,-0.710521,1.4862245,-1.0225841,-0.9554753,0.0005625217,-0.12328175,-2.0749187,0.7529834,-1.3855999,-1.6995755,-1.246542,-1.1822387,2.5486088,-0.4159039,-0.44327706,0.17549522,0.59313154,1.1152496,1.7495196,-1.7457234,-0.59374505,0.94099665,-1.4574742,-0.55562085,-0.3510025,0.31552735,1.4365082,0.13665895,0.10750518,0.8017561,-1.520974,-1.146799,-0.3341335,1.1141491,0.3943083,0.73296875,-0.47290713,0.8617654,0.11032004,-0.40488935,-1.5952402,-1.8058412,-0.87585044,1.1003104,-0.6856204,-1.2938037,-0.22727787,1.2061439,1.7198517,-0.686827,-0.28668532,-1.3736358,1.3508527,-0.27733058,-2.4083796,-1.6464223,-1.5626546,-1.143384,0.7055441,0.44406438,0.6462063,0.9980942,0.38750595,-1.551621,-2.3580449,-0.66610706,0.8834773,2.5298996,-0.17961055,-0.5691153,1.9376631,-0.5435789,2.3458912,1.450106,1.0938683,1.4381832,-1.4730039,-0.7023591,-1.9592934,-1.4365913,1.1192604,0.71042216,-1.2190832,2.0899222,-0.9139908,2.0950823,-0.6159123,-0.010898437,-1.4269407,0.21898752,1.8482395,1.0731822,1.6413112,-1.0419692,-1.307933,0.17179722,-0.38216448,0.12953758,-0.58512515,-0.92690295,0.451657,-1.9048243,-0.4928615,-0.44657752,-2.1390455,1.2397838,-0.55094814,-0.9867308,-0.80250096,0.45089486,-0.99764353,1.1047734,1.1132331,-0.4357182,0.65501535,1.8519244,0.008349096,1.486459,0.5330313,-0.7855016,-0.8447537,-1.1828047,0.70663077,-1.0170157,-0.9373854,-2.135393,0.56880224,-0.20948452,1.0419899,0.33627465,0.89474314,-0.99250394,0.20232391,0.1288685,0.18623184,0.59657305,0.4608649,0.34054404,2.048671,-0.5344054,0.63193154,-0.6801258,0.22982278,2.6596818,-0.038823195,-1.7513033,1.610323,1.3876648,0.47522983,-0.18913242,0.42956978,0.85216737,0.38702667,1.2237059,1.7617813,-0.06030891,2.2592332,-2.4258919,0.32891598,1.1097015,-1.1863087,-2.5588708,-1.9831583,1.4138006,-1.2227042,-0.4415885,0.19539051,-0.3703767,-0.47734642,-0.78293186,-1.1677624,-0.13390842,0.048169125,-0.7288465,-2.0888746,1.1077857,0.7859852,-0.16981493,1.0142213,0.86427194,-0.028935505,-1.0141287,0.19066578,-0.4542249,-0.7399531,1.108672,0.69463646,0.5837936,0.8241043,0.8654636,1.6022465,-1.1431888,-0.56508934,-1.1586032,2.0481381,-1.0191363,-1.5998864,-0.27537397,0.6579542,1.0322733,-0.74734944,0.01733784,-0.4313069,0.71733296,-1.286978,0.2887517,0.065473996,0.2672828,-0.82945216,-1.283807,1.7413638,-1.604353,0.6967705,-1.0677586,0.16756457,0.2442909,0.15493497,0.19333577,-1.5419503,0.74510694,-0.338077,-0.21233967,1.1068305,-1.0138729,-0.73875266,-0.8579978,-0.64957947,0.9172715,1.0750241,-0.7743363,-1.9807857,-0.053811993,0.7129638,0.00048460043,0.17242563,0.71223646,0.80056596,-0.22988765,0.41716146,1.0781239,2.5659628,0.15626863,-1.2561884,-0.40507093,0.62368023,-0.26089653,1.0840671,-0.3598837,-1.7288182,-0.8885969,-0.4046517,-0.97126627,-2.9844444,-1.7125742,0.26683703,0.22456825,-1.0006601,-0.77439916,-0.33557627,-0.06415712,-0.9143048,0.6481527,0.706539,0.51835495,-0.091834135,-0.6216573,0.8144796,1.5318918,0.5885483,0.4154532,0.7215472,1.9301492,-0.2572982,0.23672493,0.46387625,-0.4475608,2.1635075,1.3727673,0.0744904,0.097153306,-0.024514882,0.89811015,-0.35826665,3.1619558,-0.15556863,0.4439087,0.16318361,-1.2715496,1.632596,0.84356284,0.1403038,2.5135996,-1.3280178,0.62789375,0.048885915,0.26384458,-0.15185426,1.420206,-0.14410454,0.3877746,-1.5532783,-1.4509484,-2.260242,2.4273632,1.3090084,-1.3030593,-1.7773197,-0.51137877,-1.8483005,0.58823323,-2.6923122,-2.775323,0.9670397,-0.22712317,0.4974572,-0.89461863,-1.7834094,-0.52972233,0.71049935,-0.46120328,1.239214,0.2611027,0.028318897,-1.4009418,-0.7541732,0.055572137,0.23125719,-1.2836229,1.8393471,-0.63010013,-2.1457064,1.0974352,-1.0497452,0.40835777,1.4658937,-1.570297,-0.66209525,1.1691175,1.5499737,-0.6047027,-0.8898265,-0.22217764,-1.423807,-0.23238052,0.09347553,1.7657112,-1.1628318,1.277748,-0.73833644,1.5027066,-0.6580926,-0.11847313,-0.54882187,-1.246147,-0.50669074,-1.6603574,1.4886781,-1.7105322,1.2744399,0.5210605,-0.006939787,-0.16547623,0.7935142,-0.23103829,0.20510976,0.9985852,2.7742596,-0.502422,-0.5055259,0.9133537,0.33759505,0.2215655,1.0185213,1.1666402,-0.5049277,0.7425534,-0.7872158,0.5390546,0.047066975,0.72681034,-0.95547014,-0.73371464,-0.34559497,-1.2113897,0.8389568,-0.19819856,0.1442925,0.81172734,0.105126224,0.57702535,1.7523263,-1.3190638,-0.59342074,0.57407796,-0.9918404,0.9690581,-0.6321019,0.07436498,0.6486772,1.5467829,0.5674879,0.16827439,0.7474746,-0.014016306,-1.5487988,-1.4015594,-0.24933632,1.5229541,1.3759645,0.7612983,-1.8859614,1.167805,0.64461476,-1.026376,-1.1475496,-0.55971444,0.926603,1.0723845,1.3203535,0.5105489,-2.3432047,1.0825909
151.jpg,1.3445455,-1.2691919,0.105130926,-0.37350535,-0.57848334,-0.11457548,2.6488407,0.27026427,-1.2135565,0.34276757,-1.7250909,1.3890175,-0.960687,1.054877,0.48222157,0.54580426,0.019613203,-0.9573872,1.0637738,-1.24661,0.61917526,-1.2159837,-1.0946647,-0.75570375,-0.31260365,0.72606087,-0.8125067,0.72261703,-0.15948547,-1.6432744,0.83994764,1.6942204,-1.7265387,-0.8241438,1.2528836,-0.09829368,-1.2475655,-0.57704145,0.13728751,2.3641722,1.9517586,0.9124805,0.076129064,0.7348195,-0.50421077,-0.3979641,-1.8749776,1.0564038,-0.42977485,-1.1350499,0.28365403,-0.47966146,-1.4159381,0.45179912,0.24851948,-0.037040174,0.35273913,0.2295723,-0.4447328,-0.43157193,0.41971692,-1.0411052,-1.2676183,-1.7046658,0.3702002,0.19955826,0.20901792,0.11648894,0.5820537,0.44084015,0.6778254,1.3424814,-0.9426211,-0.74693096,-0.39171568,0.521109,0.97473854,-0.85007286,0.9650189,1.2915258,-0.13738474,0.85313165,-0.0017357883,-1.0470123,0.41476357,-2.1566126,1.6754395,-1.2220407,0.98725444,-0.6604224,0.6890629,1.052277,0.5104394,-1.3942343,0.41356695,0.34126252,-0.8093136,0.015306807,0.9345694,-0.09571534,0.72856283,1.9508373,-0.1268794,-0.668122,0.6060625,0.8101404,1.6701839,1.7854991,0.9168885,1.1031423,-0.9831345,-0.20218901,-1.2177104,-0.20386524,0.2538007,0.75315267,-0.4675837,1.1006249,-0.90327895,-0.37573394,0.6193821,-0.70307136,0.8312515,0.69887996,1.3305221,0.32191047,1.1499833,-1.008966,-1.0612105,0.67681587,0.48395732,1.403367,-1.7965618,-1.3575957,-1.8579069,-0.71721566,0.21830279,0.8474539,0.56386846,-0.20747903,0.50550896,1.6452124,-1.6329829,-0.032351993,2.0415487,-1.7517493,0.047041822,0.5184896,-0.4058378,0.36483073,0.17646453,0.056487028,0.63662976,0.14839296,0.16669568,0.025141072,0.5573783,0.65252066,0.012600991,-0.40241817,1.3065292,0.19140863,0.7496544,-0.808056,-1.8519045,-0.09181903,-1.4486738,-0.6364406,-1.5516926,-0.23636608,0.27892032,1.1557356,0.06253448,0.57195264,0.7045279,-0.65962833,0.31329954,2.778569,1.39049,0.52876335,-0.42826128,-0.5154465,-1.2656114,-0.4961415,-1.277583,-1.1893308,0.85305196,-0.75621927,0.33963847,-0.4660085,1.8829037,0.15977342,-0.11600585,-0.68691295,0.47525248,2.0276003,2.146485,0.40677515,0.7378366,-2.0669997,0.8959729,-1.0700482,-0.39952752,0.29772976,-1.5549632,0.6548455,0.23775822,0.7166835,0.19911817,1.2437335,1.3998845,-1.8309108,1.0400411,-0.048731543,1.3057566,0.5430834,1.558704,-2.1807616,1.8197141,1.3982947,-0.34666535,0.60594225,0.25311798,1.2933294,-0.47122,-0.16566771,-0.35407433,1.0681287,0.32684073,0.84486306,-2.5788045,0.64142275,-1.0108474,-1.8492585,-0.18232436,-0.47314772,-2.8101525,-1.197094,0.45482865,-0.85155207,-0.5620312,-1.2812864,0.12437564,0.4060079,1.1898695,-0.3127482,1.4038392,-0.5777777,0.5883657,-0.16411968,2.1692603,-1.6467929,-0.779998,-1.3580172,0.5487686,0.06063757,-0.9369376,1.8849366,-1.42671,-1.0836713,1.5080907,-1.3579323,0.94543666,0.39529216,-0.8395409,1.5716293,-0.43627077,0.1149789,-2.7935693,-0.91125953,-0.15153278,0.57449967,0.60687613,0.7410566,0.90454787,-0.5491159,0.24224272,0.7299597,-0.982436,0.06472103,0.44766787,-1.8756789,1.9394602,2.2943208,0.3510546,0.7704361,-0.8756184,1.059748,-0.27387428,-0.3521508,-1.699084,-0.07331078,1.815317,0.18400863,-0.8042998,1.2706767,-2.5238802,-0.6750745,-0.3943286,0.0053176875,3.0784218,1.2624296,-0.9870515,-0.18850458,1.1714857,2.2207284,0.21878244,-0.21278991,-0.10245596,0.58855736,0.71245563,-1.5632825,-1.3641988,1.5587506,-1.1373668,0.0053956965,0.77056605,-1.3759426,-0.751981,0.42002615,-0.56434417,0.76611763,1.7529272,1.215563,-0.620321,0.42702198,0.7594482,-1.4475915,0.0349417,-0.8092537,0.6390986,1.6825747,-0.11090546,0.62109256,0.033439852,-1.1214211,-0.72554237,0.27003708,-0.39936444,-1.74069,0.16091093,-0.5004175,-0.73111475,0.7272343,-0.4755381,1.2685004,0.8223949,-2.6762788,-0.7187408,-0.20640486,-0.25238472,1.4496258,1.5373449,-1.1039095,1.8540481,1.3808597,-0.8105489,0.96329075,-0.46667126,1.129522,-0.5231784,0.25610164,0.98960316,0.40565336,-2.1020172,-0.94034916,-0.10205141,-0.121295474,-1.319346,-1.391493,-0.66368407,-0.4581653,-1.6497968,0.27861077,-1.7167069,-0.7462414,0.4723739,1.0693489,0.4208958,0.22095384,1.3357384,1.6836369,0.84434193,2.7011938,0.121577784,-1.0036881,-0.22675778,-0.067447774,1.3737583,2.2046113,0.0017412183,-1.4459615,-0.7556521,-0.9583659,0.5733851,0.36071396,-0.36629662,0.23384392,0.2391879,-1.321112,-0.23538564,1.0445347,-0.5859073,-0.2909416,0.5080767,-0.207707,-1.0562471,-2.0286171,-0.24737448,-0.3233436,-0.12079313,-0.86580956,-1.4445219,-0.027471963,-0.31363395,-0.68827283,-1.0211445,-1.3977193,0.41327062,2.0927322,-0.40013906,1.0497352,-0.53882784,-0.36238983,0.2647716,-0.281529,0.22734787,0.0015329934,-0.5834507,-0.9639491,0.28601575,-0.51659125,1.0621817,0.5000216,0.22586569,-0.97343713,-0.97657347,-2.0897365,1.4482406,-0.65769565,-0.15656288,-1.4592475,-0.84155244,-0.3522575,-0.9605289,2.3026202,0.984811,0.8397921,-0.43467793,1.181439,0.29243332,-2.6612957,0.4940618,0.15974878,0.77044183,0.001920706,0.15676117,2.254796,0.91095275,0.23489146,-1.2147361,0.32568917,0.601343,-0.5479767,0.37228245,-0.11608095,2.746788,0.53066665,0.20056032,-2.4124212,-0.3050127,-1.0461466,-0.45138377,0.55200195,-0.26624933,2.4441168,-0.016990526,0.9436002,-0.44475976,-0.26519296,0.0030397587,-0.010405328,-0.46988174,0.8374133,-1.2139453,-0.22322191,-0.21708906,1.2284812,0.85173935,1.2768834,-0.0729625,1.4802169,-1.5224838,1.1210241,0.96836984,1.4453117,1.0310112,-1.1211139,-0.72534466,-2.002112,0.4967522,2.1022,0.8704338,0.6526955,0.016435565,0.9316824,1.7293793,-1.9263515,1.446138,-1.7323735,1.2289557,1.4334373
162.jpg,0.20545109,0.4039902,0.2852415,2.1521764,-0.041049086,-0.2779077,1.6935041,1.1237885,1.2552637,2.3068378,0.43701094,1.3549792,-1.8460133,0.65271556,-1.1815901,1.0910165,-1.3779224,-0.07452527,-0.6159632,-0.018837383,0.21958496,0.9706734,-0.3332001,-0.67139,0.88664144,-1.1685671,-0.20826428,-1.764523,-0.37073374,0.54160094,1.1585821,-0.7043151,0.1846677,-0.009479257,0.07230271,-1.13245,-0.46789864,-0.16640827,0.8725048,0.79096705,-0.4452931,-0.4898028,1.7644348,-0.5505073,1.2431972,-2.0420182,-0.5521299,1.8704735,-0.41285485,-1.8830681,-1.104742,1.7383419,-1.0249774,0.34510276,0.66155046,-2.6258423,1.344704,2.054458,0.5814746,2.0288813,-1.1174271,-0.58412814,2.0112617,1.1678653,-0.8445082,0.46484578,0.009019461,1.6509258,-1.3629738,1.8906122,-0.38056868,-0.9970854,-1.2294616,2.5056393,0.06267294,0.7571576,-1.2014678,-0.27139822,-1.28074,-0.7311788,0.52708805,-1.1947678,-1.2722087,0.46689007,0.41134536,-0.24501954,-0.67120486,0.34583968,0.5567191,0.53044087,0.5699412,0.123871244,-0.58136046,1.0246608,0.93532217,-1.2016656,-0.5937059,1.9627078,-0.27560467,-0.7888379,0.5421379,1.1556671,1.4136882,-1.7351114,0.22635314,-1.7773272,0.47796538,0.080355845,-0.25294846,2.2912304,-0.58557135,-0.46188104,-1.2255169,-0.2965225,0.6287413,0.93974996,-0.86278194,-1.0538121,-0.53328675,1.8902584,-0.065830484,-1.7084072,-0.6896546,0.79054546,0.44622543,-0.7307793,-1.8067766,0.47309542,-1.0982354,0.62329894,-0.8440101,-0.45215914,-0.61555934,0.2681102,-1.8240933,-0.8678488,0.98538464,-0.635071,-0.015956882,1.4559023,-0.88778025,1.388805,1.3183527,-2.7097166,-1.4708636,-0.16127464,0.72138226,-1.0384238,-0.5891552,1.4675387,-0.61440325,-0.6632702,2.0617452,-1.3753927,-1.8366653,1.5643914,-0.33116314,1.0604007,0.94617283,-1.369768,1.2629539,2.6017318,1.3267088,-0.8675264,-0.78314304,1.4131161,0.51756257,-0.09895083,-1.5671369,0.53825665,-1.0926503,-0.5476468,0.31594586,1.1621356,0.0087162955,-0.34211713,0.3959484,1.6306287,-1.0544509,1.1020373,-1.033405,0.40774888,-0.8132941,-1.8648076,-1.8746995,0.40910667,-0.6880867,1.601206,-0.6113703,-1.047273,0.5796016,0.84283465,1.9545971,0.62125546,-0.5235496,-0.35601467,0.4467339,0.9308817,0.7186367,-0.6083478,-0.7912341,-1.2026572,0.013373949,0.80888885,-0.17712867,1.3282483,-0.6569625,-0.42025515,-0.56329757,0.29570055,-0.033977423,-1.0035938,0.8939827,-1.4689974,0.5161148,-0.4967389,0.08910692,0.5085287,1.6557224,-1.4680551,0.3242075,-0.5508799,-1.1414695,0.09667301,0.27796653,2.6272764,0.15533459,0.18609096,-0.20407988,0.18555534,-0.4408113,-2.5634062,-0.49566275,-0.13390726,-1.3607317,0.22852705,-1.5010636,0.7495033,1.6582241,-0.3369654,-1.5127876,0.1282665,0.30178407,0.43246952,0.63346434,-0.2908022,1.305724,0.79758763,1.584535,0.57843107,-0.89955634,-0.3314928,-0.6655712,-1.3410105,0.82292855,-0.774104,0.9768813,-0.38023782,0.5437906,0.037738364,0.006119192,0.8349605,-2.9266858,0.34015414,-1.1939542,0.43912482,0.14757474,0.29165977,-0.9079279,0.78371555,0.657755,0.5920469,2.310396,-0.9103999,-0.16261609,1.1839207,0.8435528,1.7002472,-1.3188679,-0.11504629,1.4894747,0.72360575,1.6115056,-2.022988,0.6876106,0.5010987,-0.46266824,0.2600992,-0.56973046,-0.059197295,-2.2008336,-0.0005293756,-1.035608,0.18769482,0.7848028,0.21578479,0.16098668,-0.1464085,0.33925128,-1.6662893,0.64493,0.5605951,0.61594087,-1.7100871,-0.5251445,1.499146,0.16044363,-0.9126012,-0.18882129,2.218002,0.52442837,0.0140667055,0.27486458,0.6677528,0.77219707,0.28784347,0.45470744,0.48738703,0.750944,1.7807287,-1.6150132,0.63175464,-0.86813647,1.7747303,-0.29901615,2.2517219,0.036067147,0.68769896,0.8382079,0.73545843,0.7497528,-0.87940025,1.2075849,-0.6823465,0.87067074,-2.40043,-1.8723515,-0.2859559,-2.758787,-1.5667471,-0.7267046,-0.8320849,-0.3766974,-1.0536164,0.11426524,0.9761807,0.58914953,0.16523997,-0.48489192,-0.1767483,-1.2283201,2.3322315,1.5545278,2.236588,0.9134194,1.3095508,1.4845631,2.3772788,-0.11876085,0.38416123,-1.9115087,0.5029145,0.30825952,-1.2870047,-1.829605,-0.7624352,-1.6975585,1.730348,1.5451454,-0.10724314,-0.009739402,-0.57591283,-1.0250821,-0.25700638,-0.3946147,-0.0060393806,0.4151954,-0.13652065,1.7250108,0.31840932,0.11466171,1.7247925,-0.6176496,1.8741059,0.39938906,-1.1648602,0.8214435,1.6817716,-0.6153577,0.04545558,-1.2043898,-0.0111904405,0.44176286,-0.6630629,0.6545598,0.1724331,-0.29531324,0.07170377,0.9784428,0.6161715,-1.3713747,-1.0039359,-2.267448,-0.18006642,-0.0041707414,-0.63883317,-1.0665507,-1.4126271,0.9411591,-0.29422376,0.45886964,-0.11611513,-2.1094842,-0.66487,-0.35800007,-0.88472885,1.034168,-0.5897484,2.6256013,0.79864883,1.1401818,1.3783851,-2.7034051,-2.186246,0.26694596,-1.3058445,0.13680252,0.32529113,1.4804692,0.53904486,1.4221373,-0.6642089,1.2476745,1.0793427,0.5629088,-1.685836,-1.6305507,1.2040313,0.39301866,-1.6045841,0.13310425,-0.8338142,-1.2496619,-0.72161907,-0.4494197,-1.7292368,0.66272455,0.59246206,0.17842866,0.63056755,-1.6698524,-0.42440376,-0.8644101,0.08559325,1.3755398,-1.1244093,1.2169636,0.034024622,-1.61954,0.9034059,-0.79556507,0.41002378,-0.89258176,-0.24407297,0.9251915,-0.98552215,-0.16385522,-1.6546619,0.07207526,-0.1648049,1.2578987,0.22005688,1.0728072,0.9803074,1.5969714,1.9501151,-1.4403764,-1.0322238,-1.5632646,0.3492244,-0.52227366,1.0539335,-0.42820916,2.303541,-0.0065116594,0.48747057,-1.2550615,0.2183661,1.6690494,1.0945182,-0.20605601,1.4184885,0.22399612,-1.3743873,1.7168736,-0.8441882,1.8682042,0.95315063,-0.8995924,-0.4954914,-0.10074241,0.71700245,-0.0058969273,-0.20706135,0.9025399,0.47010726,0.8681157,0.003912051,-1.1984391,0.032280568,-0.62237805,2.4618633
170.jpg,1.0756143,-0.5845837,1.81716,-0.4614662,0.46118203,-1.2528745,0.66955715,1.2934847,-0.10618234,0.20854911,-2.6888056,2.1442163,-1.9279667,0.2801587,-0.9478577,0.24703704,-0.74134153,-0.7207789,0.42525503,-0.17575435,-1.8439258,-1.2121843,1.9162222,1.0461345,0.45404902,-0.60804826,-0.03569911,0.34801367,-0.09528475,1.1272788,-0.14254236,-0.47433677,-1.1317096,1.0646324,-0.006889634,-1.1342293,-0.27372897,0.41270342,0.30285764,0.89691675,1.2223603,-0.03620401,0.366957,1.8519803,0.19976683,0.8252257,-0.87086487,-0.22970562,-1.2384418,-0.68718195,1.5961305,0.12435312,0.5128688,2.3361099,0.47319773,-0.52691615,1.1506015,0.55874383,-1.5740069,-0.16193792,-2.3670537,-1.0400299,-1.7658768,0.67363846,0.33751082,1.487555,1.2171711,1.1907641,-0.61928916,1.0673757,1.5317599,0.6247348,-0.0057566212,1.4786025,0.62779635,0.092351966,-1.4708775,0.5225566,0.29161873,1.075408,-0.66603243,-1.9631907,-0.42017877,-0.5031677,0.23804489,-1.5014925,0.45688862,1.1391798,0.8710989,0.6816808,0.78594416,0.602111,-0.9172251,0.5512141,0.07500601,-0.14167194,-1.5121541,-0.27085525,-1.2608823,-2.0150423,-1.1654251,1.4607444,1.7450945,-2.2113762,1.048832,1.3037839,0.5293486,1.0755154,0.121640496,1.305588,0.5648989,0.6136333,-0.6981713,0.66189796,0.36130014,1.024283,0.49385488,0.2270561,-1.1238195,1.0962628,-1.6148635,-2.265023,-0.23949139,0.28131104,-0.27792895,0.17260133,-0.60234517,-1.1245557,1.0426582,0.53344554,-1.6368641,0.31716722,-1.1905916,0.08404335,-3.2499673,-0.5878703,1.3908746,1.4519376,0.8506444,2.1740453,-1.2073871,0.9194818,-0.25554815,-0.34051627,-0.38070318,0.3925498,0.23811476,-0.04957509,-1.2145747,1.074044,-1.3032013,-1.2692432,0.7270292,-0.2035591,0.08308299,0.39275277,0.22528939,0.050251395,1.2059742,-1.7105219,0.5669838,1.4274877,1.0987942,-1.0524325,0.3037918,-1.1417745,-1.1314979,0.14865582,-0.8967741,-0.47881663,-1.0377654,-0.13915549,0.1622625,1.3550801,1.283949,-0.15722379,0.06769614,-0.9638716,0.95417035,-1.1945522,-0.26851848,-0.58617157,-0.5617615,-1.8243879,0.7142344,0.6464537,0.08217844,0.8642687,-1.1835691,0.11981621,0.92151594,-0.27088964,0.14680767,-0.37568232,-0.18810152,1.4931172,-1.243646,0.2578291,1.5108194,-1.443157,-0.6628141,-1.3918099,-0.2646836,0.45710078,-0.4586178,1.7742691,0.5560567,-0.94202214,-0.25405943,1.3523129,1.3079783,-0.63927436,1.5984282,0.33525935,0.84962445,-0.56211424,-0.07539084,-2.2448187,-0.27347562,-0.48992783,-2.0499637,0.5763878,-1.2380338,-0.24341878,0.5994726,-0.2100662,0.28876767,-0.17741704,0.36671874,1.0524862,0.5076475,-0.62464863,-1.6309841,0.36916798,1.4122618,-1.140546,-0.21436363,0.13879094,0.4983686,0.28744474,-0.31286418,0.30240384,-0.56928,0.2240565,1.6474491,-1.8000051,-0.22935452,-0.063274145,0.57572955,-1.6598235,1.5518758,0.48652855,-0.56301624,-0.09579485,-0.026416099,-2.1061778,0.93436456,-1.9446058,-1.2035761,-1.5604458,0.613305,0.75337106,0.2482093,0.06555576,-1.5811193,-0.39328918,-0.14977565,1.4538388,0.86234987,-2.0197175,-0.03982758,1.2513666,-0.24346353,0.60200804,1.5715536,-0.11807607,-0.686124,1.3347646,-1.3303626,0.63411987,1.1657904,-0.6623503,2.305278,0.10009914,0.72509104,-1.0113703,-0.194451,0.77495426,-1.2586745,1.02369,-1.8211842,2.005191,1.1951526,-1.1324803,0.17624503,1.1241933,0.9093546,0.43850762,-0.0094965715,-1.7347339,0.77755666,-0.033823088,-0.48740295,-0.9174983,0.10956991,0.27948928,-0.96419024,-0.4144787,-1.2649918,0.30715448,0.33460748,-0.6423029,0.07948849,0.16946517,-1.4420068,0.9752032,-2.0812132,-0.7916038,1.2255751,-0.4390715,-3.089567,1.119383,0.83024246,0.28105563,-1.7308413,0.49019307,-0.60646594,-0.7796523,0.06281501,0.5773128,0.5273196,-1.1740744,-1.7626189,0.36156884,0.5599937,0.5680293,-1.1965016,-0.7566354,-2.6878936,-1.6397357,-0.7123476,0.5887275,-0.7002415,-1.0908002,0.19093479,0.71726644,1.1569498,-1.635324,0.88082045,0.24134551,0.5386364,1.3336064,1.5736262,-0.28329146,2.914808,0.24857478,0.2002258,1.2225581,0.301239,-0.30982548,-1.0472386,1.3919418,-0.27085546,0.44901803,-0.032601792,0.472674,0.59496194,0.89126605,0.9894487,0.32573512,0.7509081,-0.45275733,-2.061877,1.0749147,-1.2901702,1.5217102,0.2560774,0.54318255,0.10474603,-0.70350474,-0.7377113,1.5904156,0.86375684,2.1430724,-0.07063683,-0.2981544,0.12429426,0.04411803,0.70473874,2.3878415,-0.74948204,-0.52841467,-0.32597405,-0.25272086,-0.0132004535,0.121809535,1.4364575,-2.3642316,-1.5277634,0.4700875,0.44187802,-0.9133484,0.26650816,-0.92852485,0.71010196,0.33137128,-0.24039507,0.3735534,1.0212307,-2.704749,1.0825506,-0.6566436,-0.5989517,0.28273672,2.2418952,-2.4521568,-1.243277,-1.214375,1.8148148,1.2967398,-0.39060998,1.851721,-0.25304356,-0.4278262,-0.4396282,2.0809116,-0.6478374,2.1202638,-0.7362279,1.6486623,-0.34015766,-0.7519167,-1.0405493,0.27437812,-0.17023854,0.80044615,0.9127844,-1.0153086,0.40910006,1.3451835,-2.2106867,0.30243167,-0.23298812,-1.5533777,-1.0707667,2.362056,2.7854874,-0.16253859,0.12834986,-0.7386175,1.6230783,-1.54497,1.561651,0.056726787,0.11923081,1.3138812,-0.77710295,0.59291166,-0.4948487,-1.1147454,-0.6694254,1.3809879,1.1288081,2.4107182,0.20895383,0.9996756,-0.6136586,-1.960752,0.58276874,-0.2237986,0.42285225,1.7360331,1.109347,0.120422706,-1.8399838,0.036772717,-1.3165674,0.46234107,0.435055,-0.82586527,1.5187392,0.49419907,0.40526208,0.7505052,-1.3611952,-0.8503914,0.57900304,0.15908891,-0.0601658,1.7254262,-0.23469861,0.589369,0.18462643,0.46656618,-1.1104308,-0.814828,0.6307019,-0.57731515,1.0795417,-0.17394471,0.16628313,1.8070159,0.28495157,0.43041116,-1.1696726,0.67309105,1.3022721,-0.40617472,1.1210812,-0.51781607,0.2926462,0.22611204
171.jpg,1.9765539,0.10167579,0.30889142,0.6212344,1.4082377,-2.0089502,-0.08475261,0.46798614,-0.2636233,1.1702309,-0.9323617,2.0346003,-0.3731634,0.5436192,-0.057487372,0.8984767,0.18729797,-0.50189203,0.8823539,-0.05169369,0.9466543,-1.2210023,-0.7689009,-0.87068975,1.2911235,0.46071035,0.092842855,2.095547,0.76197624,1.0377959,1.1297828,-0.79623157,-3.0117507,-0.16742806,1.5118101,-1.8520504,0.068874344,-1.1470039,0.73701185,0.7686179,1.522861,0.44740662,-1.5809667,1.4350653,-0.84958065,-0.060438655,-0.5063714,-0.12621306,-1.9416507,-0.90461934,0.31768212,0.58062625,-1.1252751,1.3186247,-1.5533171,-1.240877,2.0860455,1.4674904,-0.7121514,0.45515087,0.1154935,0.56546146,0.6340458,0.21889877,-0.43112394,1.0728782,-0.6209141,-1.5007219,0.004361103,1.3604393,1.2586986,2.0483625,2.2723095,0.083052196,0.02789185,-0.20067585,-0.40606984,1.0760945,2.3672068,-0.122277185,-1.5773691,-0.33454067,0.765881,-0.3364406,0.3315922,-2.2980843,1.6219045,0.28705364,-0.13323887,-1.495452,-0.1744281,0.66474843,-0.006886751,-0.14301232,2.5968502,-1.09625,-0.9769537,-0.1259353,1.0375843,0.12846735,-1.2139429,1.3757372,-1.3907619,-1.8678608,0.057901934,-0.12333357,-0.20274264,2.2964811,-0.30816278,1.2163346,0.6393989,-1.8224634,-0.54539007,2.531935,0.49681905,0.45399305,-0.26029912,1.0330528,-1.148526,-0.9992356,0.095821284,-1.5650061,1.3545716,-0.13372178,1.9001664,0.472305,-0.90359807,-1.0723487,0.06253297,0.68322,-0.9066488,0.36374673,-3.0361784,-1.0588186,-1.1556776,-1.4343996,-0.124081545,1.5197488,0.4680647,2.2617273,0.31290004,0.7227682,0.34570318,-0.6949016,1.442669,-1.0308111,-0.34734535,-0.5219166,-1.5381368,-0.4887636,-1.0908681,0.14582214,-0.6844962,0.31635368,-0.14391541,1.2227526,-0.17590152,0.97029966,-0.94636774,0.32543403,0.4248537,1.5135424,1.032813,-0.7660188,-2.5555553,0.39748514,-1.3361305,-0.06688754,0.65164363,0.5617401,-0.43918744,-0.8150442,1.9309598,0.5874028,-0.48763913,-1.6972022,1.7585267,0.5749765,0.44658947,0.36461982,1.5503855,1.1518805,-1.4727633,-0.12584434,-0.59517026,-1.2473575,0.019723056,0.9298194,1.1482744,-1.2728924,0.29559025,0.762412,-1.0327021,-0.30732858,1.5494273,1.5798589,-1.4532132,0.8569167,-0.25887018,-0.8137472,-1.2540194,-1.3514769,0.47075337,0.43461096,-3.2784956,-1.4048897,0.43878576,1.0016551,-1.0228627,0.42166543,0.97748977,-1.1937709,0.9296684,-1.6416217,0.931051,1.4712288,-0.60080755,-0.77335006,0.1182496,0.16657045,-1.3747302,-0.27972606,-1.0962294,2.865757,-0.89634717,0.099037714,-1.0016253,-0.5965635,-1.3208705,1.1698451,-1.3472191,-1.5310711,-1.7635425,-0.611342,-0.6436421,-0.84674543,-1.9777354,0.13206299,-0.6021119,1.1384743,-0.44674155,0.69566256,-0.6858988,2.365624,0.095960446,-2.352438,-0.5495817,-2.512454,0.7817036,-1.7280024,2.5604768,-0.43218824,-0.8825673,-0.9031168,2.0404756,-1.6298327,0.9358881,-0.44487807,-1.3506975,-1.2944369,2.4751503,-0.91294676,-1.5183481,-0.13344374,-1.9280782,-1.4444733,-0.09952819,0.66534215,0.20085211,-1.4572694,0.0015268831,0.88490856,2.184655,-0.6233423,0.13203515,0.18775448,0.8667297,2.1660037,-1.7136455,1.711234,-0.1358942,-0.98120445,-1.9305831,-0.77250415,0.2474262,-0.0030728583,-0.81862235,0.9455799,0.6246944,-0.45842,-1.5310357,1.7608385,0.9882011,-1.4521977,1.3379576,2.0079184,-0.4067602,-0.14468928,-0.68620527,-0.4158096,1.1928141,1.186237,-0.054962024,0.19109534,0.46469265,0.8336114,0.5465916,0.8457126,0.17454837,0.041547086,0.79692614,0.12885657,-1.0495604,-1.9314611,-0.28732976,0.108653605,-0.023478106,-1.1478655,0.02136118,-0.89490706,-1.8012236,0.8284954,0.24785653,1.1274437,-0.79916507,1.6593499,0.60622597,-1.2235205,-0.6828756,-0.3814549,-0.47555664,1.9692237,-1.4543273,-0.3850346,-0.84597963,-1.011425,-2.099296,-1.1394808,-1.0743643,-1.3061327,1.0423582,-2.7211704,-0.88493806,0.95545644,1.4934096,-0.16799697,0.36269763,-0.40589452,-0.67896837,-0.8912626,0.2669095,0.46914214,1.0587964,-1.0235707,1.0981042,2.3951821,1.3973217,0.7566448,0.4234608,-0.28682396,0.20222108,1.7968404,0.45953467,0.79617405,0.654664,-2.032183,-0.36977077,-0.04448803,0.12592843,-0.16829908,-0.20709276,-0.013577443,-1.610692,0.42104545,-3.0227497,1.055128,-0.005883516,0.5124466,-0.61859643,-0.46057308,0.75141656,2.116335,0.6068354,0.8403152,0.15411249,0.14091441,-1.0261927,-0.26812994,-0.15855034,2.8339157,-0.70769376,-1.4270697,-0.96157324,-1.1369743,0.53817225,0.3979236,0.9545856,-1.326588,1.7112173,1.7578306,-0.387206,0.03638141,-1.6475611,-0.58790404,1.4286705,-1.3667456,0.044320982,-1.420574,0.43018937,-0.8887289,0.23999977,-0.9363579,0.37124267,-0.99043053,-0.31141818,0.9596651,-2.011182,-1.4928821,1.0294564,1.5582448,0.39242634,-0.12742512,-0.34682685,0.955135,-1.5002621,0.2787569,0.26780403,1.41932,0.7323866,-0.6079325,-0.8166516,-1.341004,-0.27150312,1.0375477,-0.1658946,0.58765835,-0.2917367,-0.39868554,0.24997857,-1.4973867,-0.97375613,-1.2344403,-0.25757247,-0.4043963,0.06499719,1.0287056,0.89149475,1.30519,0.5336379,1.435291,-0.055947077,-0.4682021,0.42150512,-1.4305422,-0.7701459,-0.16627897,-0.8336747,1.274955,-1.3457686,0.59766155,-1.103085,1.2765679,-0.46189985,-2.4408758,0.7927244,0.22318225,0.7010375,-0.38246822,-0.01644243,-1.681064,0.91359484,-0.02470542,0.35714477,0.8980561,-1.11668,0.80245256,0.8184766,0.21227665,-0.99566287,0.27072042,0.4891357,-0.83527166,-1.800451,-1.5463074,0.48978963,-0.022936074,1.0887276,1.077544,-0.77588207,1.2383237,-1.0224739,-0.36546966,-0.6493615,-0.05587721,-0.6784196,1.1049917,0.5697726,-0.13467725,0.15310952,0.27903846,0.7126355,0.9137126,-0.97239596,1.4697053,1.0216688,1.2714382,2.2595656,-0.6026247,1.3695439,-1.1579618,1.0588447,1.8129843
187.jpg,0.9928945,0.35178146,0.3775956,0.105873086,-0.13938914,-0.5523927,0.1185998,1.3290133,-0.5900371,2.1342418,-0.10458045,-0.13124327,-0.20367847,1.1104242,-0.6959384,2.2440338,0.80233264,-0.6466294,0.5846445,-0.5263919,0.34392267,-0.49108768,-0.9445327,-0.6737245,-0.28364626,-0.1463246,-0.024943242,0.32794297,0.5622215,1.3763324,0.66264594,-1.5239197,0.4225483,1.6456536,1.1349164,-2.802677,0.5140054,-1.1272165,1.5853306,1.4067129,1.0870283,0.4117269,-0.22161768,1.9172292,-1.6709696,2.287559,-0.5144604,1.3620846,-0.2091592,-1.5850857,0.35399157,0.05800856,-0.21683991,-0.43929586,1.5520551,-1.3553048,3.1992962,1.0137249,1.0046244,0.9664772,0.34741127,0.17380407,1.0284984,0.47972277,-0.4257577,-0.5430877,0.11478721,2.452029,0.6991624,1.5673624,0.72073233,0.7742851,1.3549085,-0.15464206,0.6261586,-1.4125803,0.257777,1.2885346,-0.68152094,0.6602424,-0.30830076,-1.772968,0.6130607,-1.6687046,0.15561467,-1.757623,0.9687573,-0.07613589,-1.1250229,0.66146314,-0.4684552,0.7400634,-0.31543002,-0.59797,-0.84089094,-0.86722577,-1.5769231,-0.7750368,-0.56091917,0.87101257,-1.3405333,1.4763027,0.31240883,-1.8675946,-0.78377867,-0.50423884,0.10545669,2.1770742,0.85176826,0.735148,0.61794853,1.4635415,-0.1798586,2.6236825,0.20349383,0.820781,0.16900656,0.40838173,0.114092976,-0.7207008,-0.42010295,0.6412972,-0.4504881,-1.4194905,0.49424404,-0.13284872,-0.14262961,-3.3436165,0.65996826,-0.52207035,-0.8007651,1.0196661,-0.5444805,-0.08693053,-0.12340514,-0.82021064,0.18214755,2.2017975,-0.09924723,1.8459733,-0.23605749,0.23683023,1.0239304,-1.6014436,2.0993633,-0.0337365,1.0923826,0.09662791,-0.47332335,0.77141476,-0.13111895,-1.0970075,-0.23666579,0.022997506,-0.18380922,1.2095202,-0.85891324,0.77799636,-2.0057962,-1.3907315,0.65239704,0.553546,1.1134609,-1.2430664,-1.2346973,0.16282307,0.11289263,0.06057127,-1.2401279,0.8797396,-1.0307173,-1.0659572,1.2688522,1.6548442,0.9466538,-0.557418,-0.02518798,0.71844715,0.27481705,0.9876978,0.88858694,-0.16204232,0.2519781,-0.698588,-0.84804827,-0.78242964,-0.7199482,1.0182704,0.29613313,1.7664403,-0.4426198,0.19909506,0.6432851,0.120509826,2.295102,0.6926544,-0.6082102,2.1769507,-0.2991998,-0.8393604,-2.4000783,-0.54699653,-0.022222592,0.8248696,-1.2702814,-0.21680592,0.40202278,0.39740604,0.048078347,0.6204941,-0.10790648,-1.524542,1.1978807,-0.5542151,-1.6258953,-0.005107048,-0.09943125,-0.44544205,0.44375008,-0.54536355,-0.3149872,0.89272535,-1.0153824,0.7076654,-2.1811378,0.785591,-1.9424003,-0.15110007,-0.9554077,0.5235438,-0.60082185,-1.2754683,-1.4518402,0.061849304,1.7581218,-1.0800894,-1.6984333,-0.022722108,0.6913822,2.5788827,-0.16361232,-0.24748638,-0.6034118,1.8403884,-0.5866881,-0.59250313,1.5835048,-1.6952428,1.650404,-0.8176376,1.4762487,-0.96517116,0.5851225,0.7145608,0.65808135,-1.5836487,0.5259035,-1.7540352,-1.4688619,-2.107183,1.4196737,-0.30693278,-1.0890267,0.4235548,-1.7599638,-0.2843369,-0.024171442,1.2942106,0.16548973,-1.0214387,-0.7222423,0.19257516,-0.016482785,-0.8305668,-0.25754166,0.45469552,0.26245087,1.1501793,-1.722469,0.24067765,0.17345299,-1.2660127,-1.1364675,-0.3134939,-1.3372949,0.51748616,1.0100765,1.9872366,-1.0965059,-0.39401057,-1.3083901,0.14315131,1.8339033,-1.7685986,1.3900101,0.40326834,0.50252855,0.5693569,0.907055,-0.27330709,1.2169906,1.513576,-0.7588907,-1.6246238,1.2323363,0.706383,0.036745187,-1.0007157,-0.5968325,-1.1778785,2.032681,-0.8072097,-0.06998451,-0.21177293,0.026464982,2.188168,-1.0493324,0.087100655,-0.08938863,-0.7302688,-1.4136884,0.63911873,0.30137935,1.0714275,-1.6920457,0.6941049,0.03542717,-1.0945855,0.08327222,0.6724718,0.06229065,-0.51863056,-0.65772796,-1.124845,0.88172287,0.95081234,-2.2983484,-0.9429801,-0.8877109,-1.1824479,-1.5393236,-1.1685433,-0.27030307,-1.9638689,0.4122678,-0.2932969,0.9965322,-1.4943361,-0.8508002,-0.8140998,0.56731784,0.36628562,0.88459516,-1.2534378,0.70372695,1.173742,1.386338,-0.00056765205,0.81780803,-1.0679576,-0.13342923,-0.3000319,-0.049343072,1.5003146,0.5418369,-1.1853092,0.3016664,0.53778815,-1.0971133,0.49357322,1.0088558,1.0727365,-0.1254694,0.4356433,-1.8543674,1.0466145,-0.6806188,0.7898108,0.33863854,-0.42851415,-0.81592417,1.2550108,0.44611683,2.192225,-0.9654128,-0.015359233,-0.6958762,0.45359832,-0.20173016,1.9450327,-0.7209423,-0.8893904,0.17332228,-1.4279318,0.7077615,1.1035553,0.47361758,1.6039762,1.8112229,1.3227502,-0.48695987,-0.5024903,-1.1164579,-0.47969463,0.57208896,-0.8977827,0.60485685,-0.7905273,0.24466492,-1.0852915,1.2400646,0.3772807,1.5550319,-0.9777665,0.5464022,0.9119066,0.34219453,-1.2028465,-0.605459,0.2792838,0.1307246,0.72454274,-0.37247586,0.46262097,-2.1200836,1.8751218,0.5228971,1.2260617,-1.7837334,0.4997703,-0.23623389,1.0348501,0.7860374,0.5572479,0.1954139,0.73448867,0.67817825,-0.25690025,-1.1213543,-0.7742118,0.4673396,-1.3759842,0.41483396,0.23560607,-0.8727385,1.0492195,0.38681233,0.12522252,0.5908674,0.9919841,0.5135233,-0.50683993,-0.30246934,-1.1309501,0.5457908,1.1043824,-0.3422459,-0.066507846,-1.5154891,-2.1258273,-1.1759695,1.9997187,-0.09397382,-0.6343157,-0.5949282,0.24785218,1.0508691,-0.21292596,0.32953864,-0.39655447,0.114896365,2.0364873,1.6365678,0.48784068,-0.5543448,-0.29402196,-0.8183544,2.2291603,-0.19009137,-1.5453486,-0.074948065,-0.81675684,-0.9540584,0.15473942,-0.5831899,-0.16369693,-0.54065496,0.68980795,-1.5687044,1.356952,-0.44284144,1.0493516,-0.08391415,1.0991834,0.46823543,0.64342964,-0.60922873,1.3178353,2.6969748,2.9958065,-0.23524961,0.11807593,-1.2755644,-1.2870067,0.13115168,0.5665089,2.2094069,1.2092166,-1.102549,-0.5892471,1.4129199,-0.5814297
193.jpg,0.92368233,0.831719,-2.128086,0.5081795,-0.36070278,0.7642655,-1.1308894,-0.44108355,0.9677562,1.3842429,-1.5302705,1.4095453,-1.197221,0.80502063,0.88668567,-0.21560942,0.09504408,-1.1570581,0.5767599,0.5211153,-0.36288247,-0.29939708,-0.19748454,-0.012363203,0.6540021,-0.2872331,0.71897614,-0.7370868,-0.17972824,0.22013445,0.12920466,0.6246099,-0.57707876,-1.2091104,1.0475681,-0.008125767,-0.2067279,-0.39088494,-1.4912022,0.9991337,1.1178575,0.86695695,0.5862415,-0.2670042,0.5436256,0.012223233,-1.2953274,-0.68656737,-0.10213666,0.16028301,1.0689269,-2.8325486,-1.8718451,-0.42748094,1.6455408,0.039129008,0.36239615,0.19621041,-0.640607,-1.3765919,-0.55666447,-0.022581842,-0.041803636,-2.0187013,0.35370064,0.0033781615,-0.013748081,1.3327224,-0.3463508,-1.4387796,1.0230949,-0.36203286,0.096847,-0.91020197,-0.70428205,-1.1416248,-0.14030647,-1.0232893,0.7755154,-1.1911986,0.22736172,0.3721114,0.54961073,-0.34332022,1.4723958,-0.6892299,1.006392,0.15723567,1.290761,-1.1772573,2.337024,1.4147874,0.20071349,-1.4040852,-0.95205826,-1.3497326,-1.3610492,0.39845392,-0.42819118,1.202581,2.3422081,1.4353986,0.7875022,-1.2628407,-1.1046656,0.2952328,0.7992437,0.6076781,1.0077277,-0.57210606,-0.94598156,-1.1812336,-0.5595763,0.19986117,0.71468717,0.60999817,0.37367472,0.5688653,-1.1545919,-2.0907035,0.8511722,-0.41055045,0.86099124,-2.35004,1.7918792,-0.19186065,1.5973316,0.11870241,1.2089896,0.7415941,1.8687509,-0.1477584,0.51244015,-0.44810173,-1.5241982,-1.5293934,-0.90799034,0.3756661,2.2297926,-0.11506782,0.22929871,-0.91446984,1.5348094,-0.103503846,1.624495,-0.3803504,-0.36697218,0.16306853,-0.44018754,-1.1221911,0.84479636,-0.5871442,0.18681186,0.0034937207,0.82948875,-0.01982451,-0.8718371,-0.12025095,-1.6062331,-0.098925725,0.6170837,0.086219326,-0.895517,0.139307,-0.586889,0.45754004,-0.13731721,-0.3244912,-0.80772704,-1.0237169,1.8287463,0.4442052,-0.8757977,-0.70173013,1.017278,0.39039046,-0.6760518,0.9219338,2.2075293,0.7022748,0.6304697,-2.242258,0.8714549,1.1233004,0.8148278,-1.794109,-2.0572405,1.0209204,0.33123323,0.16200173,0.2278798,-0.40441456,1.3490455,0.12697566,-0.9383669,-0.45434457,-1.9061867,1.2450204,0.84005165,0.837346,-1.1265482,-1.2049911,1.4320227,-0.43149254,0.50957495,0.21437865,-0.13699551,-0.48888758,-0.6140178,-0.0515278,2.225154,0.17751564,-0.7814148,0.15273385,0.49461964,0.16047597,-1.7861915,-1.4836314,1.1665406,2.618481,0.09121051,1.436965,1.1108454,-0.49030295,-0.5882146,0.8040174,-2.1362917,0.8801042,-0.3885664,-1.0297369,-0.078634545,-0.36548668,-0.4394638,-3.7275877,-0.8931828,-0.22031274,-0.30899253,1.7684317,1.4181287,-0.38510305,0.25939813,-0.9005191,0.002364669,0.021054197,-0.5194828,-0.97026587,-0.04616766,0.010415637,0.71317923,-1.9615908,-0.21069391,-1.8250383,-0.33438656,-0.0374065,0.30441043,-0.46536338,-1.650551,-0.5487281,0.26326904,0.5488362,-1.3338057,0.8519629,0.1438208,0.28259146,0.47715953,1.592199,-1.087368,0.24381493,0.1739992,0.01075631,1.5946716,-0.111882955,-2.3288505,-2.1141682,-0.19811484,1.6837225,-0.6619474,-1.5315946,-1.2648786,0.36139888,1.6906366,-0.86356866,0.577754,1.7151666,-0.44349918,0.9338155,-0.7743551,-1.2169684,-0.267569,-0.7168424,-0.4058646,1.0065712,1.2399136,0.45476165,-1.2325838,0.43258888,-0.38871488,-0.011979203,0.8858624,-0.24472515,-0.60018575,0.9385218,-0.66189456,-0.26540485,0.73976284,0.6465311,0.52757126,0.5953137,1.0725589,-0.8302942,-0.31974924,0.027548693,-0.4449065,-0.6541932,-1.6474336,1.2665724,-0.09785646,0.54946816,1.4005262,0.6748123,0.08606343,1.1846036,1.0104415,-0.35632765,-0.6734603,0.24402553,0.9142844,-1.42563,-1.1404972,-0.51794004,1.329042,0.6866763,-1.3358749,1.476914,0.10642243,0.008274582,0.8614808,-1.3264706,-1.0032814,0.3548926,0.59061134,-0.93836457,0.05254044,0.38474497,-0.032894842,0.51856965,0.82796985,0.7952146,1.0574476,0.22754708,2.0434604,-1.3852677,0.7747625,-1.7053957,0.22183278,0.5685801,-1.9091697,0.24095117,0.41075128,0.45641685,-0.38720533,-0.4136353,0.3666705,1.802897,0.036810257,0.76770717,-0.93448275,0.87075895,-0.85256886,-1.0703694,0.14313567,0.2713929,-0.95474035,-0.4884329,-0.5845247,0.6061944,0.9234542,-0.22711557,-1.3356056,0.14362647,0.7657285,-1.6278641,0.92096823,-0.1779299,0.17033081,-0.2720649,-0.6127096,-0.3167309,-0.06833007,0.46197817,0.083199546,-1.1305641,-0.016655797,0.6076053,0.13176969,2.9455206,-0.0009199009,1.5883032,0.50064015,-0.27487883,0.855855,-0.6391322,-0.5346746,2.1397498,-0.65952474,-0.2137003,-1.8475783,-0.07381446,-0.8022948,-0.84731007,-2.1300607,1.5028015,0.060702506,-1.9202698,-1.4273285,0.6772201,-0.7259883,-1.3043677,0.07351468,0.2684793,-0.99056256,-0.80800563,-1.0039918,0.24465986,-1.2120984,0.639322,0.57238287,-0.17651662,-1.1836553,0.17730169,-0.85477275,0.054935183,2.275998,-0.85158587,-0.17235087,-0.80559486,-2.4804833,-0.9383384,-1.0731913,-0.23725234,-0.26730186,0.029774088,-0.29397073,0.34489933,0.52454984,-0.5377535,-0.22896788,-0.25804782,0.37520224,1.1901318,-0.49685016,-2.19452,-0.8495283,-0.3584589,-1.1076565,0.15848054,-0.5277841,-0.43795392,-0.63856876,-0.39141852,-1.8946353,-1.6403811,-0.9427555,0.1844731,1.856261,-0.025716549,2.5136485,0.5224177,-1.9455351,-0.8432021,0.023937447,-0.09256784,0.4293128,0.1068316,0.097354226,0.13262701,-1.2620219,-0.062576145,1.5238316,1.0345616,0.4371673,-0.027976476,-0.42074147,0.01923466,-0.8603364,0.49786216,-1.7049845,0.25075445,1.0103792,-0.12971033,0.1464632,0.34036562,-0.02194293,0.5345433,0.8088822,1.1930678,1.7148639,0.997416,1.6893661,0.65886074,0.24764411,-1.2271695,1.2945526,-1.4253966,0.007233903,0.22163326,0.639064,1.0529971,1.1317909,-0.8089294,0.2969596,-0.6150124
2.jpg,1.3353981,0.1692782,1.1097771,-1.0975966,0.14119302,-3.0677025,1.8091546,0.12683433,-0.9796939,-0.6016844,-0.40900436,1.5305681,0.24195416,0.0035544704,-0.40707743,0.38269573,-1.5112761,0.37004188,-0.26970664,0.9291898,-1.6691508,0.032544103,-0.6122383,-0.34760132,-0.60956675,1.3980476,-0.4648462,-1.1997013,0.75775176,-0.6905617,-1.3772991,-0.40840545,-1.1081126,0.37959763,0.9812341,0.17510922,-1.3806797,-0.51180434,0.8414937,-0.22879645,0.9265178,-0.17332035,0.29177633,-0.28176618,-1.7309389,1.3377308,0.18315192,0.41021082,-1.9788437,-1.0681478,0.62024254,-0.42570615,0.4946707,0.9909068,0.5336016,-0.07802723,-0.37229687,0.471751,-1.8325655,-0.95173407,-0.6574912,-1.0148976,-1.0249816,1.3443033,0.33398703,1.6051549,1.4218823,0.93570846,1.5812985,1.3825663,-0.9954973,2.3371286,0.39807016,2.7663577,1.7226746,-0.47468993,0.24009942,-0.17045689,1.1112006,0.06785158,-0.33015525,-1.9337434,-0.5604256,0.97249687,-0.43871373,-1.2654246,1.9183351,0.8068236,0.97050416,-1.1132817,-0.20192675,1.0434163,-0.01130811,0.40467435,0.6957374,0.71277636,1.1311482,-0.03988206,0.94393116,-1.1066685,-0.625136,1.055051,-0.44808835,-0.42237598,1.0651312,0.80614,1.7593569,0.7398304,1.3104563,1.026221,-0.4007479,-1.1623827,-2.4299827,-0.75664586,0.91040474,0.5582738,-1.0607115,1.6691194,0.6843967,0.100175545,0.94205767,-0.51512957,1.8936402,0.8851201,-0.33829054,0.84667164,-0.90406287,-1.5195946,-0.85845643,0.9387317,0.22908622,0.60667765,-0.23477891,-0.215293,-1.4056411,-0.64367384,0.5778801,0.6665784,-0.932132,1.3734062,-0.85547656,0.26780656,0.15937892,1.9399526,0.7716258,-0.15110275,0.21567649,-1.2104115,-0.3007275,-0.272656,0.45049152,-1.5682832,1.0046531,-0.11515578,0.35167173,-0.44911367,0.9940455,0.6437344,1.7085187,-0.2743125,1.8027571,0.56887805,0.9823555,-0.8622141,-2.3702528,-0.61084,-2.1699176,-1.2828419,-1.6467922,-1.1995565,1.1108804,-0.29576626,1.2600123,1.0028589,0.13629413,-0.3117916,0.93033296,0.24818867,-0.21851276,-0.66363037,-0.49523744,0.1163486,0.33314753,-2.0880513,-2.2209778,0.36513454,0.30334255,0.45916864,-0.29529154,-0.74182385,2.322272,-0.8655381,0.3083086,-0.48177794,0.0017757078,0.51993346,1.2760558,-0.09804964,1.2871976,-2.7281919,-1.7701426,-0.50699484,-0.70561534,0.42014405,-1.6132389,1.1092429,-0.5384559,2.3473177,-0.04292112,1.3271992,0.30711877,-0.54447794,0.8030843,-0.52799255,0.936802,-0.6390969,0.94327515,-1.617478,1.6853615,-0.8673383,-2.258193,1.8348546,-0.7288973,1.349847,-0.23989268,1.089073,-0.23843873,-1.6177769,0.68402237,0.8888256,-1.8995198,1.1952966,-1.7818702,0.85626394,1.0016348,0.15050758,-1.152246,-0.252917,1.1264765,0.33958647,0.6832003,-1.6358646,-0.3553847,0.86241144,1.4572353,-1.616611,1.9190134,-0.33494282,-0.09453922,-2.117578,1.7191418,-0.54010385,-0.41038346,-0.47378847,2.1681714,-2.0411127,0.08529813,-0.9913043,-0.79529923,-0.84405226,0.35485077,-0.037244406,1.3738256,1.5757753,-2.1836178,-0.9228337,-0.4005331,-0.9764795,-0.4029394,-1.8681625,-0.26090613,0.0026052748,0.6538473,-0.6885161,1.2451354,-0.1281701,-0.44162145,0.96380293,0.03959086,0.56936854,0.7456046,-1.1877729,1.2430047,-0.27983913,2.01709,0.8034414,-1.0064694,2.1970687,-0.89660287,1.5575614,-2.5266078,0.82973856,0.6068051,-0.44085175,0.26289788,1.2557081,-0.955436,0.13150299,-0.9523567,-1.243155,1.8001312,1.3748661,0.536242,0.2995499,0.9584624,0.25492293,0.76097953,1.23432,-3.39011,-1.1736475,-0.100079,-0.0545523,-0.22045065,1.480408,-0.040640358,-1.540623,-0.45464534,1.6264988,1.2166675,1.4222947,-1.2544934,1.5513455,0.7321111,-0.22947721,-0.027498968,-0.3083357,1.1989031,-0.4289513,-0.34407732,-0.4830558,0.5642606,1.5716137,-2.4018157,-0.20089756,-1.2981108,0.47910243,-2.112026,-1.1568482,-2.5414197,-0.99964434,0.59015864,0.37359008,0.9986684,0.6275133,-1.6497496,1.0746167,0.011789827,-1.2488065,-0.11375658,-1.253383,1.8935801,0.87738514,1.1861972,0.4398004,0.93084985,1.2524602,-0.71678996,0.6167299,-0.18915647,-1.3953909,-1.0570501,1.7100556,-0.4479094,-0.9558008,-0.52089643,-0.6275261,1.3252138,0.32251284,-0.051581778,-0.06943477,-1.0158894,-0.78216285,-0.84603274,0.08172792,1.4722791,0.73644,2.368324,0.8369691,-0.14677013,-1.4711,-1.011973,0.91423666,1.7884345,0.47693977,0.59237283,-0.23369479,0.8759686,-0.034351304,0.67879194,1.9511387,2.409309,-1.018839,-1.6158792,-0.66250443,-0.6707533,1.1613095,0.52894706,-0.4920759,-0.8189045,1.291106,-0.2950321,-0.47076163,-1.1042156,-0.18056127,1.0410154,-1.2074394,-0.39555678,-0.042068716,-1.030213,-1.2725306,1.0887027,0.44519922,-1.6063617,-0.26165718,0.3389004,0.9729474,-1.1059382,-0.95831156,-0.77428144,0.53510374,1.5406307,0.91510206,0.20665415,0.20614567,0.12850378,-1.2647667,-0.6812633,0.021847595,-0.94062006,-0.86790437,-0.72069913,0.42226708,-1.408259,-1.0649847,-0.010018239,-0.6737974,-0.6764421,-0.14227788,1.3182187,1.5970848,-0.4425663,-1.27521,-1.6668005,-0.28321028,-1.2485309,0.6603093,-0.060818374,1.175068,1.1804897,1.2487077,-0.41938972,-0.894999,1.5262074,0.39215353,-0.6810547,1.3171791,0.3911707,0.6221604,1.3676829,1.5018308,-1.048434,0.17333919,0.64464766,1.0049862,-0.39126068,1.2500185,0.029282095,-1.9876261,0.720591,-0.71707934,1.2192332,-1.3728791,0.4467613,1.5728062,-1.2454741,-0.20229931,-1.0386486,1.437675,-1.6147742,-1.0936389,0.05126112,-0.5888996,-1.5493776,0.9384926,0.093036406,1.1456177,1.4725857,0.7504875,2.1051903,1.807446,-0.21646962,0.9489711,-1.427919,0.79009104,-0.05608728,0.70666814,1.1106613,-0.42601362,-0.5293677,-1.2173567,-1.6524838,1.206543,0.80973285,0.5101531,-0.67541456,1.9837087,0.6831846,-0.1718528,0.1666949,0.33371377,-0.22604728,-0.074855275
201.jpg,1.4774452,-1.4117943,-0.21207301,-1.1366823,1.3745427,-0.8458164,-0.12086776,2.1974678,-0.348679,0.036725216,0.25688764,1.0793874,-2.0202978,-0.70384717,-0.77639073,0.9862569,-0.6249397,0.48108473,-1.6993152,0.8859237,-0.21152273,-2.8477027,0.75411403,0.2468336,-0.87029344,-1.3490444,-1.1321659,1.4230056,0.5963262,1.6061912,1.1908131,-1.3914073,1.0878793,1.5433652,-0.16599175,-1.7625185,-0.57594174,0.17901437,0.09884009,-0.8100846,1.1562594,-2.2009368,-0.55977535,0.8944238,-2.368947,-1.4080395,-0.061976667,-1.2754079,-2.0669863,0.46093842,-0.7600732,-2.8368251,-0.18008289,-0.45014414,0.16967565,0.816946,0.8955167,-0.30673754,0.025867961,-0.43227386,-0.4341265,1.4365557,-1.7138404,-0.8702155,-1.4716313,0.5717073,1.6928116,-0.9179587,-0.54211104,0.39759347,0.21823274,0.9507695,1.1391009,0.051044047,2.432513,0.8791705,-1.033191,0.41478914,-2.5985875,-1.2300158,0.29437932,-1.4036964,-1.7397033,0.6612611,1.1652604,0.5177149,1.9162757,0.88136965,2.1100218,-0.5371592,-0.34953204,1.4902921,-2.5407257,0.030909138,-0.6288974,0.7831609,-0.7290909,-1.4424769,0.46579233,-1.7789087,-1.6964873,-1.2624625,1.1435807,-1.3115388,-0.8170068,-0.42921615,-1.2016248,-0.33099374,1.0157545,-0.28012395,0.40126473,-1.495845,1.2801071,-1.0247554,-3.7570956,0.9806273,1.3200625,-0.4973236,-4.213215,1.2391256,-0.80399483,1.5721339,0.79108787,1.417363,0.13383487,0.29794258,1.1090866,-1.4915987,0.5055676,0.43374664,-1.114223,2.1768265,2.4441092,2.1592758,0.6172295,-0.33820948,0.4023276,-1.2135718,-0.95730877,2.1336856,-1.7411497,1.7396424,1.1116879,0.7756539,-0.14556754,-0.048266966,-0.21352096,-0.45684144,-0.68100715,-1.2504379,-1.1361043,-1.9262149,1.7386811,-1.3178942,0.7991291,0.09618925,2.2746015,0.123816386,0.21945828,0.25210744,1.6126534,0.42728955,-0.74749756,-1.942472,-0.27329528,2.1556354,-0.2855262,-1.3360206,1.0201769,1.2254884,-0.3287931,-1.011906,0.39872393,-0.21851304,2.2322598,-0.6093806,1.5507745,0.5517732,-0.6066836,2.4011323,-2.2434978,0.663306,-1.607573,0.6592292,0.315232,-0.29038996,-0.81938607,1.905151,0.94165367,0.43892708,-1.1782906,0.1505676,-1.4587784,2.3295557,0.5528307,0.2380122,-0.33141524,-1.3233149,-0.5608993,-1.0380327,-2.293227,-0.97418606,0.24145538,0.27985847,-1.5921396,-0.636926,0.021647142,-0.3683445,1.0469549,-1.2265528,-0.8861416,-1.1628023,0.77697515,0.27312443,0.08114132,-0.948032,-1.2607489,1.3256859,-2.572174,-1.4254918,0.5283245,-2.0502565,-1.3510565,-0.79345024,1.5664078,1.433906,1.3429323,-0.10939269,-1.174038,0.6269923,1.310246,-0.12154732,-2.1747189,0.71893734,-0.68446827,-0.4387619,0.26840195,-2.297367,-0.8036307,0.89135796,-1.9945786,-1.1443427,-0.26507995,0.5074219,-1.5873245,-0.33017838,-0.637746,0.92255384,0.10443694,-2.279202,-1.2190917,0.44600296,-0.88716906,-1.206416,-2.1198123,-2.4127593,2.9893954,-1.5811906,-1.4801829,0.78235,-0.19927345,-0.41345036,-0.3462763,0.9436405,0.1749586,0.5069962,-0.56260896,0.78079706,-1.0993181,0.76479435,-0.38154948,-1.0864265,-0.98954475,-1.3701739,-1.383721,1.6942409,0.3599725,0.6528247,-0.5507226,0.34996602,1.0971951,0.8784784,0.06266821,-1.2459868,-0.4115034,-0.11533867,1.343566,1.2621009,0.5203695,0.046300706,-1.1164573,-1.551869,-2.3620384,-1.6614949,-1.4363035,1.3901817,-1.397315,0.14729713,1.0088773,-0.77534515,0.79794466,0.69806415,-0.2393535,1.5076054,0.21412298,-0.5711813,-1.0267835,-1.0570593,-0.54570055,0.24850072,1.5744873,0.47452396,2.1588771,-1.4045734,-1.0581795,0.07555527,-1.5158745,-1.1296908,-1.0484121,-1.0646228,-0.5962807,1.3762655,-0.36945477,1.8316445,-2.1790352,0.33289933,0.45746037,-0.50221115,-0.8098813,2.6607647,-2.1992507,0.97063637,-1.0710738,-0.39177087,0.22320881,-0.85251576,0.8926583,-1.0813397,0.34967777,0.4920519,0.14147237,-1.5051647,-0.7604639,-0.55535704,0.57801676,-0.24573821,1.8528129,-1.4484223,0.7702597,-0.6481597,0.41780847,0.479479,-1.0579466,-0.56987697,0.58492,-0.21760331,1.0805898,2.2836514,-0.06767362,0.613621,-2.2627718,-0.042677768,0.076754995,-0.08749284,-0.44538516,-2.001186,0.9946203,2.5455675,-0.29174536,0.9695048,-0.24470605,1.4488024,0.5410624,0.19500785,-0.14579968,0.017113836,-0.39621094,1.0359126,0.94225484,1.069076,-1.1739157,1.6923728,0.94492245,1.4304273,-0.6715689,-0.6984076,-0.7685899,0.43523207,1.7506739,1.3181323,-1.112125,-0.5605465,0.12193634,-0.23584552,-1.2550608,1.7650824,0.10944027,-0.06482636,-0.10289929,2.2505367,0.5678722,-0.86200494,-0.5251739,-0.3714819,-0.3469091,0.6521092,1.1986006,-1.0776938,1.1528168,-1.7182989,2.3461792,-1.3602427,1.4908775,1.5677927,2.6444428,0.51521313,0.4513348,-0.21647696,3.2294326,1.9711473,0.49446794,-0.07570791,-1.0697267,-1.1615993,-0.59395194,-0.47427526,1.2440931,2.4528465,-2.2225645,0.13128725,-0.9821943,-3.162624,-0.09388667,1.0447195,1.4885087,-2.048224,1.0317904,-1.199197,0.5578721,1.2082819,0.21729909,-0.95852315,-0.23863529,-2.5882773,0.34944457,1.049166,1.7779561,0.15773694,1.3291813,-1.1153315,2.4019914,-0.8920094,-1.2002491,-2.1627154,1.0534753,1.0435158,-1.4435542,-0.12977415,0.21407907,0.23326993,0.50002253,0.8053624,-0.41103202,0.83157325,-2.0984352,-1.8143201,1.187388,0.14513646,-0.027228871,0.1984587,1.5281668,0.006968558,1.1711806,-0.16355553,0.32633016,0.9310066,-0.022586072,-1.0262997,0.18685581,-1.2432015,2.123914,2.0991805,-0.308402,2.231048,-1.667283,0.29590908,0.1336025,0.13619864,-1.206413,1.688585,0.6332844,-0.39020532,0.9064827,-0.118903264,-0.23450203,-0.35650158,-0.6171442,-2.1414423,0.8346149,-1.6537929,0.6303053,1.8731208,-0.39684352,-0.24927475,1.8058507,-0.22408228,1.6474626,-2.1334515,-2.1939623,-0.4382266,1.2373512,-2.3296013
23.jpg,1.1667691,-1.36323,0.5803765,-1.5542432,-1.025663,-0.7073481,-0.19455059,0.57054824,-0.718218,0.6616483,0.33906958,1.3376073,-0.44585654,1.2385902,-1.8463664,0.26360613,-0.6139018,-0.7281557,-0.77799225,0.49254638,-1.0978882,-1.5942032,0.39862406,-1.0106356,0.32143185,-0.074099176,-1.6827842,-0.12853958,0.51585454,0.36425284,0.87974364,0.36426252,-0.29963243,-0.4956078,-0.30103746,-2.6816275,-0.36069515,-0.88895464,-0.80800885,2.2963543,0.057066806,-0.7091279,0.56536776,-0.10169618,1.0814939,-0.82489866,-2.591352,1.1133137,-0.9129193,-0.51161826,-1.0736219,-0.70705134,-1.9979959,1.4413835,-0.314324,1.6298324,1.312638,-0.27588847,-1.6496164,-0.024619143,-0.018006904,-0.10892864,-1.436451,-0.42625275,-0.4336872,0.050679073,0.16649602,-0.9386954,-0.45878536,-0.87817264,-0.5735295,1.8371168,-0.54928136,0.1294135,0.43515155,0.96117526,0.031699635,-1.4393784,0.86623913,1.2705364,-1.4374155,-0.51734537,-0.91308594,1.3582495,-0.06434876,-1.9268612,1.7514104,-1.1210666,-0.280952,-1.5490185,-1.0955198,0.7884038,-0.109524876,0.36937633,-0.056771852,1.0454409,0.21685591,0.6799574,-0.032206282,-0.8618029,0.3716155,-1.3533522,-0.21373597,-1.1058995,1.3183722,1.1785806,0.6777032,0.09627632,0.5050823,-0.91303927,-0.68964857,0.27823946,-1.2368962,1.2773061,0.32906377,-0.08827253,0.117151186,1.5690745,-0.7178086,-0.6900172,0.61366767,-1.8295009,1.7607609,-0.3509559,-0.4787385,-1.4351488,0.2001837,-0.05915741,-0.4463018,0.9195904,-0.094955154,0.8034379,-1.1283488,-1.4789089,-1.4279405,-1.0084083,1.1031382,1.6029656,0.90669733,-0.17857848,0.42938483,1.926572,-0.60820407,-1.3853997,1.0874441,-1.4932675,-1.2462673,0.7067656,-0.6589956,1.4600657,1.5042744,-0.44140485,0.06573443,0.47103423,0.018625341,1.018826,0.4101788,2.4148002,-0.87788284,-0.17683697,1.1954247,0.048365317,2.0335817,0.004900132,-2.033332,0.21836524,-2.3155441,-0.6578626,1.290843,0.84871393,0.85665447,0.64684737,-0.70854837,1.0816404,1.0654505,0.36772114,2.2922468,1.4946924,0.7806787,0.5506621,0.2219738,1.0076652,-1.4614409,-0.2171993,-1.663251,0.5854271,-0.16532552,0.332815,-0.22447185,-1.066814,0.8270349,-0.76942354,-0.6484215,-1.0427654,-0.5024633,2.1194773,1.4236981,-0.90776974,0.41662794,-1.9339489,0.05854341,0.2505908,0.13837674,-1.582651,-0.72761387,-0.11344942,-0.53253984,0.95037365,-1.0889788,0.309766,2.4151933,-0.6816306,1.1401122,-0.6077501,0.6112242,1.984535,1.9340211,-0.20898129,0.88148284,1.2173414,-1.1242268,-0.5170132,-0.99364746,-0.10876705,-0.68334854,-0.0826734,-0.3053953,-0.10275229,-1.8063076,1.2378912,-2.0989702,-0.7559253,-1.696245,-3.060722,0.66968346,-1.1329578,-0.11530505,-0.6900682,-0.19591725,0.42521268,0.19830522,-1.2651292,-0.2671797,-0.13072757,0.17030518,-1.4951228,2.767447,-1.3756131,0.96609986,-0.055461727,-0.17758375,-1.448775,-1.3060396,0.20113568,0.19726698,-0.14382975,0.12418268,0.82456255,-1.0370339,-2.4573925,2.4027243,-0.11061899,-0.063294955,-0.50660115,0.7458829,-0.50874597,0.32015502,0.24252963,-1.0248804,0.9852818,0.2432527,-0.69710755,1.3611957,-2.5852547,0.5690349,0.50293505,1.0940107,0.0054218518,-1.0056661,0.4389789,-1.1238278,-1.4418149,0.3245225,0.22251417,-0.27697057,0.2881217,-1.3183255,1.0311114,0.35299176,0.2967411,-0.33380067,1.4856092,0.33848628,-0.90091723,-0.7175439,1.2884444,-0.6888209,-0.42740086,-0.21218881,-0.0022763459,1.4931408,2.0450976,-0.46151713,-0.9993555,2.1490006,1.6517185,1.2129345,2.0986059,-0.5471197,0.7307684,0.738849,-1.6438427,-1.4912838,2.2442806,-1.3598363,-2.2593625,0.21015581,-1.9503906,0.581992,-0.37466612,-1.151258,0.057519443,0.31452647,2.5183053,-0.8836885,1.448567,-0.28022113,-1.3942461,-0.95630497,-0.370355,-0.48494214,0.45333996,-0.46788064,-1.022322,0.38475606,-1.5043626,-2.0823865,-1.7313178,0.4870175,-1.6704175,-1.2298329,0.4219419,1.109127,-0.48442537,0.27117977,1.6335301,1.4057208,-2.2273593,-0.62885153,0.2225248,1.6759633,1.1161629,0.8965172,-0.96493864,2.4487593,0.77720344,-0.8085845,1.0414345,-1.3970549,-0.9969725,0.8105143,1.935888,0.95528203,-1.9886528,-0.3564517,-0.5539578,-1.4851675,0.25404388,-0.7491994,1.5534232,0.66733354,0.26199943,-1.8323818,0.99113494,0.47723803,0.45895225,1.0181587,1.5097241,1.1068861,-0.75430745,-0.42350394,0.7042939,-0.22067012,1.6770208,-1.4654948,-0.9120563,-1.5164663,-1.2399096,1.2622879,3.1162372,0.22802627,-1.3682626,-0.64462733,-0.13681926,-0.13294645,0.78679013,-0.1647068,-0.42540038,1.2648916,1.0743618,-1.5048051,0.95917076,0.19400759,-0.77308047,1.4905096,-1.72174,-1.5556633,-2.1186383,0.43279287,0.046591293,-0.0675431,0.52352804,-1.2074754,-0.6254868,-0.091654666,-0.13084193,-0.39166433,-0.39782012,-0.15931852,0.9050736,-0.37500158,0.52893966,1.2775811,-0.09969931,-0.3372479,0.054752577,1.0234251,0.1356433,0.23300596,-0.30580792,-0.5476739,-0.72136706,0.5277103,0.392951,-0.3099224,-0.82949257,-0.49776646,-2.2004175,0.37195858,0.67276603,1.2014233,1.3520044,-1.0491881,1.2522401,-0.077453606,0.49224052,-0.8410641,0.085397914,1.7083305,0.5681237,-0.57021725,0.52517444,1.2715999,1.214077,-0.64996266,1.7126609,-0.66240865,2.392581,-0.629238,1.1502638,-0.65008444,0.59943825,0.4503843,-0.81389564,0.26539877,-0.97810334,0.79441786,-0.5897849,-0.31625196,-1.6802897,-1.6353309,-0.76885694,-1.5446904,0.1485408,-0.3879458,0.8541691,-0.5506675,0.26090977,-1.8039727,-0.9269,-0.089230046,-0.49458647,-1.1278392,-1.8219594,-1.8038974,0.4454052,-0.0036480927,1.4048417,-0.6220997,2.0464125,0.12893555,1.2556188,-1.17766,0.7368079,-0.88920206,-0.5837257,0.25459242,-0.7657567,-1.2909505,0.916014,-1.6117568,1.184055,1.5421604,0.48659143,0.7218335,1.0849268,1.876231,-1.7586467,0.5311397,-1.0594597,1.0881759,0.16527227
