filename,0,1,2,3,4,5,6,7,8,9,10,11,12,13,14,15,16,17,18,19,20,21,22,23,24,25,26,27,28,29,30,31,32,33,34,35,36,37,38,39,40,41,42,43,44,45,46,47,48,49,50,51,52,53,54,55,56,57,58,59,60,61,62,63,64,65,66,67,68,69,70,71,72,73,74,75,76,77,78,79,80,81,82,83,84,85,86,87,88,89,90,91,92,93,94,95,96,97,98,99,100,101,102,103,104,105,106,107,108,109,110,111,112,113,114,115,116,117,118,119,120,121,122,123,124,125,126,127,128,129,130,131,132,133,134,135,136,137,138,139,140,141,142,143,144,145,146,147,148,149,150,151,152,153,154,155,156,157,158,159,160,161,162,163,164,165,166,167,168,169,170,171,172,173,174,175,176,177,178,179,180,181,182,183,184,185,186,187,188,189,190,191,192,193,194,195,196,197,198,199,200,201,202,203,204,205,206,207,208,209,210,211,212,213,214,215,216,217,218,219,220,221,222,223,224,225,226,227,228,229,230,231,232,233,234,235,236,237,238,239,240,241,242,243,244,245,246,247,248,249,250,251,252,253,254,255,256,257,258,259,260,261,262,263,264,265,266,267,268,269,270,271,272,273,274,275,276,277,278,279,280,281,282,283,284,285,286,287,288,289,290,291,292,293,294,295,296,297,298,299,300,301,302,303,304,305,306,307,308,309,310,311,312,313,314,315,316,317,318,319,320,321,322,323,324,325,326,327,328,329,330,331,332,333,334,335,336,337,338,339,340,341,342,343,344,345,346,347,348,349,350,351,352,353,354,355,356,357,358,359,360,361,362,363,364,365,366,367,368,369,370,371,372,373,374,375,376,377,378,379,380,381,382,383,384,385,386,387,388,389,390,391,392,393,394,395,396,397,398,399,400,401,402,403,404,405,406,407,408,409,410,411,412,413,414,415,416,417,418,419,420,421,422,423,424,425,426,427,428,429,430,431,432,433,434,435,436,437,438,439,440,441,442,443,444,445,446,447,448,449,450,451,452,453,454,455,456,457,458,459,460,461,462,463,464,465,466,467,468,469,470,471,472,473,474,475,476,477,478,479,480,481,482,483,484,485,486,487,488,489,490,491,492,493,494,495,496,497,498,499,500,501,502,503,504,505,506,507,508,509,510,511,512,513,514,515,516,517,518,519,520,521,522,523,524,525,526,527,528,529,530,531,532,533,534,535,536,537,538,539,540,541,542,543,544,545,546,547,548,549,550,551,552,553,554,555,556,557,558,559,560,561,562,563,564,565,566,567,568,569,570,571,572,573,574,575,576,577,578,579,580,581,582,583,584,585,586,587,588,589,590,591,592,593,594,595,596,597,598,599,600,601,602,603,604,605,606,607,608,609,610,611,612,613,614,615,616,617,618,619,620,621,622,623,624,625,626,627,628,629,630,631,632,633,634,635,636,637,638,639,640,641,642,643,644,645,646,647,648,649,650,651,652,653,654,655,656,657,658,659,660,661,662,663,664,665,666,667,668,669,670,671,672,673,674,675,676,677,678,679,680,681,682,683,684,685,686,687,688,689,690,691,692,693,694,695,696,697,698,699,700,701,702,703,704,705,706,707,708,709,710,711,712,713,714,715,716,717,718,719,720,721,722,723,724,725,726,727,728,729,730,731,732,733,734,735,736,737,738,739,740,741,742,743,744,745,746,747,748,749,750,751,752,753,754,755,756,757,758,759,760,761,762,763,764,765,766,767
11.jpg,-2.2302847,0.531821,-0.18361153,2.0610027,-0.6825466,-1.5041541,0.228863,0.5485205,-0.8442758,-1.9725283,-1.0268469,-0.93850774,0.81632113,0.096936665,-0.8602521,1.081754,0.76364714,1.8546752,-0.34458262,1.5738292,0.9832666,-0.2838619,-1.5652143,-2.3415225,0.2025641,0.28446957,-1.9032512,1.0839425,0.1363465,-2.438474,-0.055877082,0.72733825,-1.3693603,-1.9862248,-0.03619854,-0.9926527,0.5098427,-1.3008276,-0.29020637,-0.5329414,0.047942787,1.277602,1.8174006,0.8709404,1.4126474,0.91399753,0.8672113,1.153056,2.812252,-0.5923718,-0.21606474,2.5071218,-0.13786602,-1.163873,0.22482905,0.40277964,0.9481306,-0.34884,0.75048286,1.139182,0.4806516,-1.2363983,0.45144233,0.43074566,-0.87016547,0.6810167,-0.672772,-1.2936546,1.5085826,-0.6426343,0.018854838,1.4544224,0.22412293,-0.45346174,0.022238053,1.2885673,-1.431213,0.18587904,-0.03744235,0.11846698,-2.1923566,0.90919274,1.0111147,0.6311227,-2.0196545,1.167135,0.09129118,1.1653471,1.3256903,0.19875766,-0.38105613,0.1496807,-0.021689061,2.0296235,0.3464126,0.5455038,1.2289467,0.20001593,0.82684886,0.8947804,0.49778068,0.9147387,-0.39341113,-0.43563882,-0.45640653,-0.31786203,-0.7226417,1.5185665,0.42548674,-0.4092271,-1.9586998,0.2147251,0.12962034,0.035682913,-1.0383922,-0.5422418,-0.9495994,0.7503513,0.43233216,0.08551113,-1.3630056,-0.48758003,1.3513021,0.055275213,-0.9422217,0.89667606,-1.0886332,2.3684444,0.0496367,-0.58481055,-1.0248994,-0.8865165,-1.0637633,-0.11734936,-0.800608,1.3763846,-1.0089607,1.041933,-0.06703162,0.6335345,1.0558321,-0.5635287,0.7793935,-1.5042431,-0.25726658,0.91998863,0.008164957,0.3971177,0.75116074,-0.33120224,1.3350767,-0.66317415,2.341331,1.0296545,0.19387697,-2.1251721,0.746694,-1.1507897,-0.28770065,1.777233,0.72715753,-0.27595034,-0.46698055,1.0022254,-0.23107424,0.24124226,-2.6420324,0.14268823,-0.97750187,-0.39842084,1.8949019,-0.8551116,0.2620136,0.1677049,-1.7281286,0.67455,0.99079156,-1.1127187,1.1874532,0.30175442,-0.09817723,-0.875312,0.3964503,1.4626157,-1.3935266,-1.2925187,-0.25225356,-0.06088171,1.8035784,1.3959688,-1.1255329,-0.02690427,-0.5660161,0.5913698,0.027190685,0.22406362,0.5626336,0.66700584,1.3342671,0.23500834,0.02116779,-0.05389193,0.9507098,-0.04688191,1.0949895,0.02154764,-0.33806747,1.033251,-1.7110368,-0.5132685,0.9892988,0.6608647,1.0779864,0.23916268,-0.10116374,-0.9323405,0.59192693,1.115023,1.484522,0.08894484,-0.55845165,-1.5544035,0.9351359,1.4253289,-0.7326155,-0.71712476,1.3834906,-1.1647055,-0.9240197,0.4721955,0.7537278,-0.56585604,0.702855,-1.4492283,0.08710291,-1.8080643,0.027591081,2.3551023,-1.5311478,-0.78775454,-1.1941878,-1.263726,0.5561916,1.2705067,-1.5255814,-1.2865182,-0.105056755,-0.9731438,0.11926855,-1.0940177,-1.1285218,0.2094743,-0.040961564,-2.5468252,-0.5667882,-1.7935432,-0.86177874,-1.0275421,0.9827056,-0.16596736,0.5943703,0.9338961,-0.49561274,0.5644836,-0.15424202,0.21831754,-2.4280179,0.48576763,-0.43815273,-1.483288,-0.8272241,-0.6776518,0.2723486,0.8631288,-0.58395576,-0.549253,-0.5623659,0.2715574,0.029738422,0.3278766,-0.6665329,0.701611,-0.54915977,0.8521817,0.14642514,0.35442284,1.0849154,0.017996524,0.37937906,0.6814863,-0.7839949,-1.4148835,-0.25182143,0.4086356,1.234159,0.2716556,-0.21128012,-0.72805834,-0.22047776,0.5316891,0.069617696,1.8716797,-0.36879772,-1.5205835,1.0738467,-0.9723179,-1.2890774,-0.37656608,-1.3061055,1.602162,-0.6734678,-0.0081442315,-0.32597706,-0.23116906,0.85283405,0.05377149,-1.5404013,1.1661409,1.4193643,0.099026695,1.400938,-1.8535572,0.5822878,0.13911897,0.9870957,0.45615032,-1.0105203,-1.2277528,-1.365046,2.276863,0.98457116,-0.721259,0.2380368,-1.2825321,-0.28579253,-0.5399312,-1.1310016,-0.59338784,-0.3833838,-1.9652077,0.31674695,-1.0407977,-1.1312156,0.8806672,-0.18425182,1.9871941,-1.1519893,0.002584903,-0.6864887,0.70941967,-2.5889058,-0.41132027,0.32938725,-0.72292113,-0.5591145,-1.1425127,-1.5929983,0.21463324,0.4332754,-0.579761,-0.55906534,0.95982075,-0.69028294,-1.0712203,0.4668105,-1.6612532,2.5682766,1.2605661,-0.80235255,2.1521397,1.0597626,0.015120327,-0.58929837,0.8816418,-0.76693296,0.8996843,0.81439775,1.3932846,1.0936401,-1.5131354,-0.9144738,-0.4265694,0.3052434,0.27776882,-1.1068928,-0.85333866,-0.8377321,-0.06635024,-1.2940176,-1.3777905,1.0130447,0.12169408,0.5586619,0.16197206,-0.17872807,-2.3501184,-1.603487,1.3616846,-0.07469553,0.6158086,-0.9293625,-1.3281713,0.26878422,-0.26699486,1.1026856,-0.46503448,-2.436519,1.1523699,-2.011688,1.0739722,-1.092767,-2.090714,0.8301548,0.4550883,0.9614467,-0.34745973,0.33848423,0.94099766,-0.47336966,0.8315772,1.8238509,1.2439069,-0.85855186,-0.7784644,0.7488751,1.4497292,-0.011536488,1.3781005,1.1017693,-0.5666432,-1.2239157,-0.59437037,0.3798839,-0.79866403,0.27133885,0.33639297,0.62213653,1.3696786,0.21309865,-1.4632015,-0.25524205,1.0330462,0.19695775,-1.2921325,-1.2967743,0.9318576,1.4042443,0.927364,-1.0529102,0.96345717,1.3022987,2.4907193,0.7224559,2.0682714,0.019187449,-0.7738748,-0.32163057,-0.01868325,-1.5885303,-2.1252084,1.3293223,1.1133302,0.7600272,0.27599177,-1.1532478,-1.7296653,-1.2633709,0.4861359,-2.04006,-1.4642562,0.6501293,-1.4367219,0.54271185,0.90112585,1.3485577,0.2773178,0.4184095,0.21753253,-0.46876293,0.28591406,-2.0437872,1.1756089,-0.02473373,-0.6204652,0.68564034,-0.71204543,0.15009212,0.15207054,-1.096386,0.78574586,-1.9709227,-0.6964536,1.4046407,-0.0187059,0.4791683,-1.2264259,-1.6492124,0.8839221,0.9747107,1.1524122,-1.1163306,-0.75656986,0.58397317,-0.40680972,0.56964076,1.4144111,-1.2436215,-0.6758283,0.7648752,-0.44895494,0.7860248,-1.0470115,-0.6254366,-1.3585426,-0.43987322,-0.598225,0.46680817,-0.7288006,-0.89899236,0.86478174,0.77140343,-0.060597148,0.43504184,-0.81601626,-0.11648966,-0.86516124,2.3524566,0.28212532,0.20917682,-1.055177,-0.23439533,-1.1191711,0.23188397,-0.28562504,-0.50441635,2.0681124,1.2740123,-1.951792,1.2051682,-0.07366764,0.50741124,-0.98097265,-0.041855864,1.0800675,-1.621728,-0.37383613,-0.32369915,1.0746688,-0.8130694,-0.51435274,-1.9586273,-1.5132082,-0.28450465,1.1688123,0.10866032,-0.38357577,-0.1101027,-0.67166924,-1.0416484,2.494509,-0.14383233,-0.9802436,0.27596155,-0.03607643,0.9932876,-0.83223057,-1.6618022,-0.26771393,-0.15470827,-2.1539915,-0.21378735,0.56343627,0.9191197,-0.00248068,0.9821754,-1.6029037,-0.11155982,-0.10084095,-1.0643132,-0.3476581,0.8499132,-0.3300255,-0.7460036,-0.23801504,0.26128066,-1.5020916,-1.7915822,-1.0589045,1.4452688,-1.6590713,-0.03459679,0.014686773,0.53445244,0.23976225,-0.68305206,0.73616,-1.8475761,2.4523232,0.046432648,0.6948131,-0.20043167,-1.0183177,-0.2715704,1.1553066,2.1990428,-0.5742764,0.38580835,0.4732145,-0.011614403,-2.2967954,-1.6353514,0.10083816,0.025074245,0.24586822,-1.8322803,0.76267415,0.58832604,2.2012937,0.050624438,0.9982228,0.67459923,-0.38149205,1.2780857,-1.8004302,-0.96909475,-0.59077644,1.1649082,0.0028299263,0.3777576,0.48934203,0.9114007,1.632221,-0.66634446,-1.1376905,-0.24794148,1.2178123,-0.98609143,0.8629402,-0.019651432,0.7898882,-0.5271216,-1.1550305,-0.030522814,-0.3341953,0.09872412,0.5253071,-1.4974035,0.81120175,-0.8489943,0.35869136,0.5942774,0.38218805,0.14760813,-0.2294119,1.852489,-0.27341098,0.19460273,-0.70847666,0.20080577,-0.017986454,-0.4983242,0.30167422,-0.35684785,-0.9058247,1.0908926,-0.5225241,-0.16914652,1.8192525,-1.0537484,2.1807866,0.079234146,0.46447346,1.0732278,-0.751784,1.5443544,0.13272853,1.241579,0.42427754,-1.5240691,-1.5017349,0.13296469,0.0017316029,1.273692,0.47394758,-0.4905968,1.6427368,-0.64917535,0.36816353,0.876737,-0.27691612,-1.1114564,1.1996824,-1.1050773,-0.29451847,-0.24204813,-0.75368834,-0.15678303,-0.17987715,0.24522176,-0.63783556,-0.4401216,-0.36975235,-0.4398262,-0.32989165,-0.42210314,-0.63910294,0.036582872,-1.3132328,-0.11388901,-0.11706608,0.01177933,0.10441892,1.7788061,0.49368793,0.18814415,-2.1757214,-0.20874462,0.87363225,-0.8702697,0.7701482,-1.0184915,0.18742362,1.347124,-0.0484341,0.14279824,-0.17584522,1.329958,0.99737793,-0.8517743,0.7890846,1.8274056,-1.3612224,1.1768663,0.65219796,0.39468637,0.7445214,0.7040209,-0.91579205,1.1598347,1.7528986,-0.9030401,-0.89222836,0.606114,0.24376588,1.1964761,1.61642,1.1553192,-0.7868902,2.67003,0.92057526,0.35344926,0.08196202,-0.70031184,-0.12649678,0.86685675,-1.0879816,-0.21805154,0.80612403,-1.3325112,1.2295349,-0.39188907,-0.44095674,-0.31644514,2.5658221,2.3044903,0.46338952,-0.13019066,2.8360236
113.jpg,0.3799699,-1.2768655,0.5200443,-0.073423214,0.5569547,-0.33727822,-2.0791914,0.86325425,1.123231,-0.58585036,-0.9402789,0.62289804,-0.5601046,-1.1899225,1.8312093,0.63014865,-0.33304816,-0.79391545,1.0332623,0.12569936,-1.468499,-1.2374134,1.9084358,2.145154,0.81698245,-0.5135461,-0.4817373,0.76035345,-1.3668067,0.78761023,0.8794342,-0.9879668,1.0508444,-0.95457405,1.21736,-0.83294564,0.571836,0.55599695,-0.8715991,1.1490514,0.833829,-1.4184686,0.9675747,-1.7903941,1.2558424,1.8125656,-0.17425351,1.5509044,-0.44088462,1.5291861,0.14102924,0.12223786,0.5693876,0.23398569,-0.16938542,1.7351667,-2.431633,-0.13223708,1.0971723,-0.86470604,1.7412616,-0.19583414,-0.033958565,-2.795925,0.3695788,-1.2766008,1.3233167,-1.008679,-0.51804024,-0.47599474,0.10505023,0.6673843,0.5229804,-1.1926918,-0.65106773,1.2321539,-0.9074245,0.55796194,0.68911004,1.2152454,1.6002563,-0.12784556,-0.02863309,0.50751895,1.2691201,0.5217458,-0.46648294,-1.3577453,-0.53183764,-1.6301103,-1.0074587,0.11213462,-0.53917193,-0.75135565,-0.5086477,-0.7361357,1.2004954,2.1089988,0.5006469,-1.1078703,-0.27542692,-0.2700678,-1.2786193,-1.7929214,-0.35796607,-2.0117376,0.87645286,-0.92047393,1.1098487,0.8457789,-0.51824415,0.87040293,-0.9703484,-0.2442225,-0.7094851,0.8143566,1.0525197,-0.13519798,-2.7034354,-1.2051134,-0.33318865,0.5937471,-1.191932,1.5803531,0.054985836,-0.22751756,0.5834311,-0.92976123,-0.6051322,0.46970302,-0.82790875,0.6620849,-0.3801877,-1.3853779,0.012009089,-1.8940469,0.2719032,-0.3720251,0.16283076,0.6478577,0.48782495,-0.9071457,1.6313576,-0.7735652,-1.1280777,-0.26091108,-2.007459,-0.3038869,2.1488867,0.718255,-1.1262271,-1.2292945,0.5837312,-0.058828864,-1.1051784,0.39181542,0.2198099,0.909789,-0.048750173,-0.6608033,-0.48182887,-0.5304622,-1.6659461,-0.27320293,-0.23187044,1.1743306,0.06843247,0.6531077,0.6682383,-0.802272,-1.7198061,0.16426729,0.363143,0.863107,0.025734028,1.4238658,0.090200245,0.3139861,-1.1806734,0.034031056,0.44287407,0.29671702,-2.3609784,1.9566388,2.2372,0.20009579,-0.64885986,-0.65766156,0.49339926,-0.55505025,0.8928864,0.6583762,1.0085566,-1.4105117,0.4708156,-2.4000304,0.09075182,-0.7747255,-0.70054406,-0.5368904,-0.5122683,-0.9754708,0.21460094,0.7090937,0.65469795,0.7199228,1.0055252,-0.46043998,-0.13380371,1.3176382,0.045511346,-1.4417436,-0.39120778,1.3608627,-0.068712644,-0.05970625,-0.06671372,1.0083598,-0.22509672,-1.5549314,0.90849745,-1.57717,-0.27584806,-1.5191131,-2.4047878,-0.26292345,0.66371375,0.62340856,-0.46637392,-0.7774733,-0.7609173,0.4983162,0.81343514,-1.1076277,-1.5252109,-1.0218047,-1.4094703,0.13195759,-1.1507974,0.5190011,-0.48213214,-0.91377056,0.76621425,-0.4282017,0.83025414,0.69014466,0.34756756,0.8250131,1.5599363,0.56208974,-0.5142083,0.1553086,-1.057907,0.1276463,0.027641797,-0.43113244,0.86301696,0.46499664,-0.2031674,0.49698207,-0.033199426,1.77068,-0.31097344,0.5992552,-0.46200415,-0.76682085,1.544389,0.28393164,-0.9895918,0.9758558,1.8596624,-0.5190334,-0.4032786,1.7270458,0.17317946,-0.5528298,-1.2857908,0.63875425,-0.30188304,1.2610141,0.15408573,0.8212535,1.4089267,0.087428816,-0.60755265,-1.683422,0.6101389,1.336222,1.4611582,-1.9472057,-0.819122,1.5185333,0.5013607,1.9370372,-0.7608271,-1.2957038,-0.65487695,1.8526263,0.16993196,0.42886037,0.8846441,-0.5061571,0.24159423,-1.4082091,0.35823852,0.5512553,-1.456477,-0.6672223,0.25930488,-0.22775392,0.31564158,1.1417717,1.2836815,0.09908375,-0.8321744,-0.56956685,-0.25157616,0.7744761,-1.9636264,-0.49327955,-0.28856987,-1.652826,-1.9923635,0.14636195,-0.52197754,1.078174,-1.2662368,0.99785405,0.9254894,-0.64984816,-0.5205879,-0.6579911,0.6014499,-1.1542583,1.3001295,-0.55188966,0.7534714,1.6738415,-0.5964547,1.2820792,0.44527707,-0.7436267,-0.65634984,0.12037628,-0.91532946,-0.22489257,0.8575657,1.1424979,1.4320505,0.41502354,0.5506578,0.04839411,0.10808266,-0.38399735,0.029249808,1.4600091,0.1926146,0.119561814,0.34191358,-0.5567108,-0.76101565,-0.41333058,-0.64499,0.5508893,-1.9490817,1.074037,-1.7821019,0.5686819,-0.12118701,0.73365426,1.9382172,-1.3593075,0.46640712,-1.2762138,0.34894696,-1.5480558,-0.557724,0.7964207,-0.31271523,0.51701677,-0.97628856,-0.16317344,-0.23190004,-0.7585608,1.7942371,-1.182899,-0.8331269,-0.75628436,0.4998496,-1.2525455,-0.43800634,-0.18494695,-1.3585826,0.9949949,0.25893864,0.7924449,0.83001685,1.047693,0.8991564,-1.8763705,-0.2638518,0.08470105,-0.033161044,-0.79803634,0.10106791,-1.257469,0.16587818,-1.730316,-1.4421487,-0.6357611,-0.17171153,-0.53806293,-1.5111752,0.18965666,-0.39789817,0.48026174,0.5314467,0.6233312,-1.0047196,1.9654601,0.503848,2.012228,0.34774375,-0.34968367,-0.37658963,1.825244,-1.209424,1.2996163,-1.243197,-0.614397,0.27602497,2.8300042,-1.2989317,1.9165252,1.2718276,1.0493102,0.5247108,-0.21488991,-1.0116441,0.37266955,1.7999897,0.40941945,1.1232996,1.3192242,0.98998296,-0.6591116,-0.13155065,-0.34341478,1.1393518,0.99482745,1.2440797,-0.56210613,0.24184144,-0.2842998,2.4459767,1.802051,0.5301026,-1.2474816,0.02673531,-0.71047986,0.07697082,-0.33314693,1.1608183,1.8894328,0.14820816,0.21990769,0.8850004,0.9017438,-1.4075146,-0.36248416,-0.57783866,0.4692752,0.83906215,1.4859774,-0.748192,0.9614206,-0.5336964,1.3001368,1.7694927,0.77760726,-0.3148821,1.3630333,-1.8572539,-0.5041247,0.28612643,-2.3788164,-0.16217494,-0.6213852,-0.3308872,-0.70846504,0.032062,-0.54972214,0.7296954,-0.90980124,1.1524415,1.5195515,-1.0973954,-0.93071157,0.8207374,1.2268126,1.0163599,-0.13151671,-1.8228579,-0.014312829,-0.5413648,-0.9575817,-0.78392965,-1.3746164,0.29168013,1.4577055,-1.1879516,-1.3652459,1.0608964,1.4234015,-0.7195905,-0.64972186,0.8750013,-1.0743338,-1.2866714,1.9237411,1.2439123,0.7518735,-1.2110701,-0.20243743,2.2763605,-0.6273166,0.23814996,0.5879246,-0.76544696,-0.22303963,0.28278464,-0.8284725,2.6528096,-2.171112,-0.3907042,1.3533618,-0.32247505,0.67263263,-0.4025696,1.0708205,-0.39689893,1.4280111,-1.4749405,1.0360711,-0.1088185,0.11962532,-1.4357368,1.4890774,-0.9092847,-1.7403821,1.3767788,1.1698426,-1.6267964,-0.92204565,-1.581421,1.4345647,-0.7781493,-0.2934063,-0.62710655,-0.65661216,-0.6232427,0.84821844,-0.9447083,0.3939471,-0.1385572,-1.3477656,0.8523029,-1.1104978,-1.4355454,1.9643356,-0.35326156,0.8779776,-1.1856443,-0.28155473,-0.53101265,-0.881974,-0.7879586,0.33441448,0.37605807,0.5461884,-1.0952092,-0.5515148,0.33595234,-1.1167277,2.3938706,1.0921971,-0.16319405,0.74111193,0.21575814,1.440238,0.61329997,0.05228746,-0.25767246,-0.22288953,1.5338283,1.090967,0.5887816,0.11356363,-1.6693139,-0.6546047,-0.5632869,0.73670185,-1.6378592,0.7646449,0.64923877,0.014681754,0.09340208,0.33835718,-1.2638322,1.7523984,1.4356707,1.0830259,0.35050827,1.0778179,0.8241188,1.5037144,-0.92872506,1.1451137,1.2135432,1.9363518,-0.25017133,-0.7197223,-0.29697832,-0.8102903,0.1098862,1.5345339,-0.33876815,-0.25219083,-1.6810682,-2.1822119,-0.075870454,-0.14084464,-0.07565616,-0.6858229,0.8431967,0.698985,1.0859044,-0.8952328,-0.015093808,0.5366285,-0.42911157,0.45362815,0.62422943,-1.128149,0.16644259,-0.38692257,-0.08902238,-0.62415147,-0.09654297,-0.57061607,0.008843881,-1.2099836,0.44172207,0.5730278,-0.8968267,-0.46062222,0.15980642,-1.2152214,-0.8721367,0.21284676,1.3093852,-0.04980575,1.1060607,0.14307812,2.2078776,-0.4973794,-0.05334621,-0.5750676,-0.5263287,-0.5729806,-1.2395605,-1.0507418,-0.49757537,-0.48951724,-0.9912354,-1.5411465,0.4977592,0.6181166,-0.3794358,-0.3035457,-0.81726295,-0.7073069,-1.4557233,0.72609377,1.0243539,0.16746657,1.7122551,-1.0788796,1.0960944,2.0206773,-1.4400759,0.32904786,-0.69849163,0.20097083,-1.0741715,0.2188942,0.662719,0.35227162,0.6119879,0.9205876,-0.13915968,0.71696895,0.2707759,-0.24165954,0.5766591,-2.0783877,-0.39651477,-0.17306139,0.7948802,-0.80965465,0.8704838,-1.35163,1.2987807,1.9466275,0.55611235,0.2382162,-1.2646242,-0.68094003,-0.21618281,-1.0943378,1.1227877,0.62271136,0.77813447,0.48791707,0.584255,-0.5537344,-1.1703182,-1.3857281,0.5568961,-0.57073504,-0.23755857,1.6437211,-0.14357153,0.47709292,0.78006196,-0.081159115,0.046926618,-0.76476234,1.25005,1.3608699,-1.1785985,0.050783914,-0.2249084,0.46677127,-1.0176373,-1.2638489,0.7609091,-0.75944227,0.33252245,-0.0022356792,-1.2110958,-0.73767513,-0.7803702,0.29084513,0.8948871,0.30319574,0.20014045,0.11065596,-0.95469403,-1.4248708,-0.09615502,1.8301181,0.60881525,-0.41917792,-0.59963465,0.11379965,-0.4639926,-0.09937038
116.jpg,-0.6490659,-0.28724316,-0.50385904,0.15075508,-1.572236,0.95478743,-1.2061815,-0.3864722,1.6869363,0.51309043,-0.6791196,-0.2083789,0.7603891,-1.04637,-0.19105375,-0.6747938,-0.3006952,-2.1808712,1.2985283,-0.97003245,0.75305176,-0.4225746,1.0734726,-0.35393885,-0.029140921,1.253036,0.22366118,-0.2636103,1.1655232,0.37756917,0.47111344,1.3000389,-2.1070344,-1.3179063,0.639166,-0.041995186,-0.026078578,0.8252398,0.8237732,0.96312356,1.1509042,0.15123053,-1.2111462,1.6536679,0.42044824,0.28626212,0.9475236,2.2132988,-0.48163834,-1.1674702,0.64734596,-0.0626611,-1.6225909,-0.75123864,-0.24356033,-1.3889352,-1.1678581,-1.392108,0.6968615,-0.15590982,0.56544524,-1.9204254,-0.9886845,0.55780274,0.32967785,-0.0514727,0.99107635,0.329824,0.47302145,1.0969039,-0.47829413,-1.4127482,-0.48105425,-1.9745241,0.07449584,0.74989015,-0.84461486,-0.080020696,-0.8845696,-1.7712781,0.2551756,1.0718987,1.3596878,1.4113052,1.8929719,-0.84489095,1.6591449,-0.82737076,-0.23266415,-0.73190635,0.7626037,-0.2989585,0.12855871,1.0975269,-0.5390857,0.28740087,0.999894,-1.0230832,-0.5201357,1.8031547,0.59102184,-1.8601474,-0.15438761,2.0025604,-0.3929776,-1.3300743,-1.4585681,1.4133836,-1.361219,-1.4422982,-0.5500422,-0.06129362,-2.6756735,-0.17450044,0.881942,1.4457642,0.59693736,-0.15520537,-0.683714,0.6599687,0.88999355,-0.7832438,-0.49495646,-1.0092766,0.16869909,-0.37773758,-0.20272642,-0.6942658,-0.66845965,-0.023259932,1.0032803,-0.7863997,-0.038050447,-0.59193915,0.20683885,-1.1276088,0.7543377,-1.5582955,-1.4255586,0.47846732,0.93570596,-0.70039135,-0.37394604,1.608416,-0.6796019,0.05412302,0.22690503,-2.8636026,-2.4777582,0.6122718,0.77498394,0.78304386,1.1187693,0.3982372,-1.9676933,0.53542477,0.7898499,-1.422154,1.0207877,0.94915146,1.6269686,0.27507997,-2.3809953,-0.71907634,0.17328154,0.5256425,0.66108316,0.97327393,-1.344302,-0.40412334,0.50217783,1.4344049,0.97441995,-1.0706022,1.0343165,-0.07682017,0.13276593,-0.26878944,1.3965958,-0.24213016,0.30627114,1.1648924,3.034062,0.2661885,0.53826714,0.4540395,-0.22672066,-0.28450346,0.55623823,-0.9420137,0.043826103,1.0765003,-0.49638864,-0.6857871,-0.066432066,-0.40118945,0.9839266,-0.86917263,-0.36943725,-0.0036701611,-0.15911128,-0.9088452,-2.0916214,0.529814,0.30060425,1.488555,-1.1309003,-0.14563751,0.5525795,-0.5478867,-0.289079,-1.109618,1.060465,-0.6170771,1.8409837,0.23378165,1.5327408,-1.757629,-0.6675403,0.18261564,-1.7592429,0.7860791,-0.18515953,-0.1426572,0.43430108,0.9488353,0.58899593,0.7762903,-0.87903494,1.2197276,-1.4264803,1.2411257,1.2163105,-1.289495,-0.22404458,-1.6944231,-1.1728278,-0.8157911,-3.4830537,0.58533007,-1.8582824,-0.44827357,0.6674306,0.11000658,-0.8618537,-0.91783816,1.6818925,0.49780416,-1.8713797,0.0033284533,0.089801915,0.12624279,-0.7024788,1.49674,1.579637,1.1903119,0.83068806,0.14887261,0.6400653,0.68402517,-0.10459544,-0.6373735,0.76067364,0.5756137,1.174281,-0.36542872,-0.53088343,1.0719081,-0.09146745,2.007177,-0.72388244,1.8820113,1.3732808,-0.29702434,-1.0058792,1.041406,-0.3347116,-0.8588649,1.2604811,-0.63892716,0.5661542,-0.9154585,1.8390973,-0.8360098,1.3806345,-0.10669312,-0.7881669,0.23926923,-0.06962748,-1.4286671,-0.2991157,0.65362287,1.3915296,-0.92094994,-1.6497226,-0.01829936,-1.417246,0.18243037,0.06737092,-0.03752544,1.0191536,-1.5289373,-0.117309965,0.5211508,0.9489296,0.23245572,2.3912468,-0.7620197,0.96583456,-0.1181317,1.2308185,-0.80556536,-2.4867778,-1.5576098,0.40202507,-0.24429302,0.5789914,2.1228526,1.7381428,-0.6188006,0.1756916,-1.1256186,1.4364783,1.9036669,1.19189,1.1022656,-0.6785436,-0.7673218,-2.6889656,-0.68483555,-0.5984522,0.7596816,-1.7595013,0.2627792,-1.7794824,-0.78923887,-2.0753882,0.6207416,-2.2865372,1.3544307,0.9416543,0.4987515,-0.4956861,-0.2341494,-2.0706186,-0.15297335,-2.3198028,1.2925498,0.46829697,0.6637082,0.08311899,1.1408035,-1.1047994,0.4072383,0.6724493,-0.45326573,-0.6329644,-1.0945952,-0.59756005,1.2878667,-0.41045684,0.87076485,-0.4514919,0.7319265,-1.580018,-1.7340254,-0.8284635,-1.6129977,0.92143184,0.058831062,0.78646326,-1.5525366,-0.2160414,-0.76254827,-0.550871,0.4147022,0.83833814,0.20965087,0.17824219,-0.896665,-0.4977394,-1.4998775,0.45438534,1.3810499,0.20149517,-0.4557633,-0.46020558,-0.6233017,0.6444735,-1.0987266,-0.50302774,0.2212302,0.51435584,0.7459682,0.22641869,0.1607063,-0.28133154,-0.9605788,1.3563486,2.6024432,-1.3564051,-0.80577487,2.2110198,0.7341135,1.9591963,-1.0547411,-0.37550354,-1.650239,0.45078716,-0.8826854,0.41733447,0.83022654,-1.3123999,1.2231606,-0.74577874,-1.3245336,1.4565606,0.76715195,1.244942,-0.5341252,2.2312307,0.045455378,0.33235657,-0.6162729,-0.7640071,2.9076054,-0.3194198,-1.6840678,-2.2187564,0.3406551,1.0336562,1.0804685,0.8837333,-0.72257435,0.20976658,-0.26131254,0.56618786,-0.46725324,1.3492678,0.27765545,-0.3040164,2.0566585,-0.68468785,1.2905861,-0.08741255,-0.9270855,0.023946898,-0.87032604,1.2547543,1.8735895,0.9558571,-1.6450568,1.1143587,-0.71078634,2.2762656,0.19414663,1.1705654,0.78481925,1.0093073,-0.8717329,-2.1957872,0.79725945,1.2796788,0.12762572,-0.79019177,-0.7604689,1.5325768,0.348835,0.30192685,-0.76482475,0.55610013,0.6695656,2.1687756,-0.96625763,0.9155088,0.54050314,-0.0024315827,-0.52133346,-0.17870727,2.4992776,-0.598275,-0.43957424,-0.9369461,1.1169937,1.2784743,1.8216606,-0.06647115,1.711822,0.47145486,-0.5146623,0.6475597,0.0646416,-1.543861,0.49306843,0.14585489,-0.7780398,0.59700793,0.6514028,0.18753529,-1.1804334,1.1902363,2.8651829,-1.522935,0.24528232,0.35966018,0.05095811,-1.0143081,-1.5271807,2.0953526,1.1895173,-0.8636178,-1.9054716,-1.7083217,1.9881232,0.55233824,-0.40697825,-0.013957601,3.350546,2.2052486,0.21192463,-1.5000662,0.14779244,-0.036115993,-0.7309621,0.22738637,0.9706068,0.8649341,-0.9592588,0.39601034,-0.5994808,-0.9464287,-0.46769318,-0.055815373,0.2642275,1.5059384,-0.9755842,0.7213175,0.36170578,0.44183975,-1.303355,1.0732948,1.8934398,-1.0455365,0.004979568,-0.4270444,-0.5374052,-0.6967957,0.72174215,0.11392705,-0.03182829,-0.798532,-1.9508078,1.2796164,-1.9242175,0.23985516,0.604058,1.1087561,-0.7371752,0.6455044,-0.8348189,-1.3807846,-0.39933845,0.79673314,0.13712746,-1.033889,-0.53603333,-0.04280266,-1.4364861,0.5419278,-0.01990482,1.5865451,-0.6973179,0.054130167,0.76948357,0.56998414,-0.6887642,-0.14929481,-1.5701259,0.036818687,1.1750093,-0.7390933,0.6491387,0.27901873,-0.07179974,-0.38285595,-0.011863561,-1.3450739,1.1882505,-0.8170006,-0.15670648,0.63359416,-0.16707268,-0.5233082,0.05056131,-0.8943768,0.6450162,0.89792204,-0.6264879,-1.6782889,-1.559141,0.7804467,0.6539054,0.64237976,-1.1832266,0.69982475,0.7771545,1.3006196,0.6461302,-1.0792133,0.43981132,-1.0797503,0.25723115,-1.2377336,-0.17109562,1.607457,-1.6767226,-0.09355904,-0.15643913,-1.1528233,-2.1732187,0.65766144,0.55092126,-1.7514249,-1.6047848,1.1692779,0.91871935,0.11226598,1.5840513,-1.4827998,0.25979257,0.48337007,-0.20857914,-1.3468318,-0.32819614,-0.9243876,0.21577701,0.8977796,-0.28612673,-0.2738558,1.7747678,-2.3932269,-0.95304024,1.8131838,-1.0014902,0.1997964,-0.66791654,-2.2051954,0.06414014,-0.89235985,-0.9476189,1.3041443,1.3126363,-0.36805043,0.72561264,-0.67175794,1.6279142,0.53779143,0.42310458,-1.0197885,0.10195087,0.25918463,-0.17599706,-0.16343355,-1.158784,0.42099056,-0.15879215,-0.80099994,-0.26231885,0.384152,-0.92044955,0.2621477,0.92981094,1.7488433,-0.75842935,-0.2468339,0.16674912,-1.060144,-2.0148823,0.104308486,0.1281434,-2.177779,0.3755098,0.34263065,0.055567097,1.0248593,-1.6597087,-0.889502,0.38481426,-1.2326373,-0.63461226,-1.2661748,-0.5281808,0.035810877,1.1008108,-2.209378,0.097155616,-0.17582174,0.6409774,0.9011014,0.44346243,-0.83696103,0.3537872,0.9399335,-0.29641813,0.2269409,1.9780753,-0.13745977,-0.1706297,1.9318166,0.75762916,-1.8156167,-0.39774716,-0.288617,-0.25109157,-0.36305863,-0.8627672,-1.2976722,-1.098079,-0.07100839,-1.0304544,1.0124351,-0.12032211,0.8038338,0.73956394,-0.22707924,-1.4954778,0.3992867,0.6487623,0.85075337,-0.0773877,0.9246303,0.4190693,0.41196543,-0.86659735,-0.19743095,-0.580063,2.6401548,1.1099805,0.12241327,-0.020077087,-0.79636097,-0.90349245,0.27506867,0.58074546,-1.4873135,-1.424101,-1.3673639,-0.21628892,-0.80032814,2.1004598,0.02199356,0.9867478,1.7866777,-0.48019898,0.9771265,1.8022343,-0.8854776,1.4804133,0.9444241,-0.50874954,-0.27159488,0.44372532,-1.3564013,0.60518116,-0.68213564,1.6474414,-0.25454104,-2.6109202
12.jpg,-0.084908314,-1.9959122,1.0086166,-0.027413419,0.92572683,-0.9894525,1.0073346,-0.07360825,0.27065632,-1.0271219,-0.5809313,1.7387048,0.3477088,-0.851407,-1.3344525,-1.409404,-1.3057894,-0.4353048,-0.42792457,2.128832,0.76128125,-0.193069,0.84532,1.3499814,-0.6496938,-1.5808543,-0.63151544,0.89805794,-1.3969259,0.88810223,2.4319007,-0.16181466,-0.8483458,-0.20392634,1.7596383,0.9118606,-0.43644172,0.69759136,-0.12803324,1.777634,0.61613226,0.25542593,-0.44900388,-0.66351485,0.51284605,0.29726514,-0.98758906,-0.019667422,1.333023,-1.0579,-1.1799566,-0.8924934,-0.20501484,-0.7953857,1.4767793,-0.84549755,1.2421207,-0.76484674,-0.9392354,1.0247753,0.43824518,0.2917756,0.4447072,0.25010026,-0.9888417,-2.8910494,0.77393174,0.005012729,0.14750557,0.1497321,1.4517422,-0.95080996,-0.5566074,-0.76685476,-1.4420809,2.075891,-0.5531029,-0.6370868,-1.0882494,-0.7712474,0.68004453,1.0700265,0.48883387,-1.0995414,-0.47715148,1.6816143,-1.2396339,-0.5822461,-0.6382282,-0.37896878,0.08578096,-1.0941542,-1.2069938,0.059431244,0.24976103,-0.020926263,-0.6264179,-0.06212742,0.16340607,-1.1226474,-0.44918594,-1.5482429,0.10112164,-0.69085443,1.8425528,0.24332622,1.1143901,-0.21701476,-1.2329917,1.1342828,-0.8611379,1.1560284,0.7227139,0.90846455,-0.074507624,1.8373548,0.8152962,2.7443488,1.7435993,-0.723762,-0.37722322,-1.1848676,0.18272696,1.1892716,-0.057016697,0.15911034,-0.99379015,-0.92016965,-1.5133748,0.80521095,-1.3511075,1.3695409,1.1280941,1.5720354,0.91172004,-0.11252534,0.06766652,-0.6912865,-1.1542611,-1.1705697,1.614865,-0.44773644,1.4561139,0.6604852,0.3065451,1.6420131,-0.0494455,-1.438229,-0.29191762,0.18792967,1.257205,-0.7808768,0.782547,0.54276377,1.0129088,0.13721292,1.293666,-0.71179783,-0.24566828,0.9701554,0.24009314,-0.86418116,2.2643855,1.3050257,-0.3407421,-2.0003364,-0.8170268,0.662213,-0.27176914,0.11797844,-1.1408374,-1.3385127,2.0595162,0.71378434,-1.3433211,-1.6395487,1.4134532,0.7180995,0.71789914,-0.5866947,1.5496899,0.12526707,-1.3806702,0.93330634,1.6839218,-0.031974185,0.39667222,-1.5535812,-0.27881458,-0.42228487,0.8916423,-0.7375578,-0.07955273,-0.28982216,-0.63229007,0.62063503,1.9914176,0.19126856,0.86348414,1.5621881,-1.514341,1.2522736,2.1045876,0.12513852,0.65888935,0.9845487,-0.797239,0.8252893,0.021784492,0.033786897,0.2085914,-0.21311696,-0.5047642,-1.5205133,-0.508115,2.3541853,-1.1155189,-0.50279766,0.924104,0.12029326,-1.7116029,0.6192452,-1.9473734,0.24318634,-0.1114358,-1.0584066,2.788099,-1.0068341,-1.977258,-0.6539099,0.16026853,1.4503676,-0.433872,-1.6716489,0.18363453,0.11722088,1.084883,0.8647504,0.2830191,-0.5169927,-1.1439801,-1.0292264,-1.0043827,0.41623303,-2.3863976,-1.5327656,0.48272017,0.105171025,0.86740535,-1.6914797,1.1213149,-1.0871034,1.217953,1.427072,-0.43573967,-1.3274683,1.9945438,0.642534,0.9897559,0.38984734,0.623369,2.4398968,0.8704592,-0.28737015,0.6379041,0.2157295,-1.4812117,-0.8499134,-0.40154725,0.9007402,-0.80531454,-0.10919849,1.2269007,0.98753685,-0.92410004,-0.7187051,-1.0176677,-0.24725658,0.9712753,-0.4939893,0.31559387,0.43309167,0.50575596,-1.7308776,1.475555,-0.87516904,2.1886764,1.3646142,1.6602113,0.14147937,-0.94731134,1.3879983,0.09070346,0.14134918,-1.1993951,-1.2764099,0.52881587,-1.2072694,0.8581187,1.2098613,-0.22215089,1.0308299,0.08989685,-1.6083884,1.9176432,-0.58607244,-0.5458503,0.71480864,1.3446981,0.66853565,-0.1716273,1.5564058,-1.1911005,-0.66464424,-0.20497984,-1.4437833,-0.7625419,0.55504674,1.2783537,-0.6359628,1.4064198,-0.10043476,-0.015176578,0.45456102,0.73927295,3.1599748,-1.4273163,-1.2287366,0.121328,0.29594362,-1.0255983,-1.4357905,-1.2487841,0.7523843,-1.9208508,-0.33430666,0.32983193,1.0419133,0.38617027,0.80354536,-0.1365237,0.31549057,0.74973905,-0.18516593,-0.80760896,-0.7717237,-1.7496231,0.93121487,0.7059705,-2.8835492,0.3559839,0.6672887,0.6327228,0.2868631,-0.39350754,0.89511865,0.36715817,0.43961778,0.18300886,-1.4400153,0.6613081,1.3737167,-0.0823338,0.07993711,-1.5021626,-0.432338,1.3574325,-1.1393458,0.4858549,0.16626644,-0.6325432,-0.36003235,2.6368885,1.469901,0.5663807,-0.21685313,-0.58760244,-1.4887238,0.49323857,-0.41096747,2.1524458,-1.2699,2.9177175,-0.32217568,1.3983445,1.068917,0.7203221,0.4472663,-0.7135271,-0.9615967,0.76868707,-0.25042242,-0.7088894,0.92872727,-0.7500778,-1.0627922,0.25843444,-0.2681139,-0.32602715,0.2009731,0.64115804,1.5980028,0.9268185,-1.4825482,-1.4988937,1.8945284,-0.08825327,1.7913325,-1.1032032,1.2624344,0.3879249,1.0554874,0.36606634,1.4695011,-1.6010078,0.083695315,-0.11841989,-1.2658924,-0.052390736,0.7577851,-1.2707213,0.27881604,-0.5049583,-0.7091986,0.045637846,2.0673294,-0.6684123,-0.75441575,0.4152364,2.434909,-0.7977807,0.19249216,0.4951405,0.9284742,-0.6894188,-0.76609653,-0.048166137,-1.4115963,-0.5366048,0.41583985,0.47348922,-0.73070675,0.13642856,-0.15336221,0.56602156,0.039433803,1.463962,-0.122229755,-0.6420796,-0.35787317,0.99012625,-1.3070638,-0.64504546,-2.8325856,1.5281802,1.5839574,-0.23589116,-1.1751599,-0.17199482,1.2069504,0.82424706,1.6549278,-1.8947091,0.2629188,0.3309855,1.625154,1.5457021,-0.0017103648,0.8025457,0.68112266,1.0945809,-0.12235299,-0.96637696,0.49406812,0.1645737,-0.42410642,-0.6396437,1.0956359,-0.71361375,1.1927321,-1.1550198,0.49814507,0.7485308,-0.79945225,0.044759084,0.03654863,0.036568113,1.9554684,-1.6336371,-0.8131589,-0.7994055,0.5179264,0.8985985,-0.5360414,0.82111585,-0.35334104,0.6360501,-0.69433075,-0.058673624,0.7857283,0.32571208,-1.4250798,-2.4338033,1.1318825,0.66487974,-0.20450242,0.65095365,-0.56240153,2.703393,-1.5918441,-0.045669276,0.5919471,-1.0394667,0.11743987,1.0531877,-0.22503269,-2.4035416,-0.763248,1.2785232,1.1759167,0.58189493,-1.9958273,-0.99386984,0.33266562,-1.2309858,-0.22915395,0.64803314,-0.6449072,-1.8907576,-1.7477411,0.110414125,-0.54750854,0.19743146,0.20360814,-0.94001234,1.1686916,-0.8467239,0.53141564,1.4409778,-1.736646,-0.15999074,-0.86899817,-0.4256428,-0.8235993,3.1068115,-1.464317,1.22683,0.62966675,-1.5110433,-0.29731154,2.6248474,-1.501037,0.35056835,0.49800032,-0.7788737,1.0763171,-1.0903764,-0.14578547,-1.0562356,-1.5661751,1.6810964,1.1752928,0.09604817,1.7544153,-1.4041883,-0.55006456,-0.6100323,-0.34281722,0.16493364,1.2915721,0.37900278,0.57005256,0.8017841,1.6449775,-0.56793356,-0.78272027,-1.3095446,-0.28514564,-1.0916935,-0.9529638,1.5770259,-0.14673264,1.3005645,-0.025954084,-1.4181906,-2.004591,-0.548376,0.64606124,1.1549381,1.7605433,1.0765973,1.7783607,-1.8358651,-1.0685703,-0.59487367,-0.10182596,0.9882469,-0.69005114,-0.22554347,0.5981713,0.58632404,1.6583235,0.25038368,-0.21760656,0.64489335,-0.15004551,1.7622246,-0.5093672,-0.5011703,-0.9684166,-0.0979201,-0.039319787,-0.2071302,-0.39695972,1.2903987,1.1570252,-1.3057024,0.52754974,2.4187362,-1.2160947,-1.3308127,-0.47243026,-0.83396703,-1.6128534,-1.5801262,1.6432387,-0.31204423,2.145119,0.040050045,-0.30996117,0.48862526,0.89345723,-1.1952121,-0.49362487,-0.87382895,0.9096274,-0.086848855,1.1654186,0.35389015,1.3003253,1.4459726,-1.36423,-1.3468806,0.17609349,-1.7564349,-0.6710445,0.5939269,-0.49459684,-0.654756,0.85816884,1.3515892,-0.06428361,0.72997785,-0.69585156,-1.0606241,0.19321021,0.23191968,0.41178024,0.064896405,0.4477222,-0.24050674,-0.20995836,3.389074,-0.6376774,-0.8324706,-1.5425501,0.40765992,-2.6496642,-0.62032694,-2.5216415,-2.0466688,-0.41074407,0.38807613,-0.981143,-1.7536777,0.19139129,0.6508302,-0.10979925,1.279413,-0.5442305,0.5241235,-1.0709659,1.551192,2.557416,-0.35421583,0.5484277,0.6321424,1.7282516,1.3389351,1.0139236,1.35564,0.7177021,1.693528,-1.0838861,-1.5864254,-0.16706195,1.9977262,0.9467446,0.8491042,0.25190023,-0.09040967,0.38870218,0.9906173,-1.0217907,-2.0827668,0.1198449,-1.7554861,0.85773027,-1.044559,-1.1987333,1.4884924,-0.22679351,0.55656993,-0.43606615,0.025132442,-0.12504591,-0.28077927,0.24473464,-0.47307473,-1.0489461,-0.12011356,-0.55367297,0.9117635,1.0094411,-1.6906797,-0.27151436,0.39668474,-0.20368445,1.3333972,-0.0037212,0.16574918,2.0384624,-0.47220403,-1.3386391,-2.1556993,-0.44611502,-0.26610708,0.20248766,1.0576867,-1.3165114,-0.2554132,-1.3134344,-0.05926474,0.011394633,-0.1458339,0.8352344,0.09818925,2.4805691,0.4101615,-0.704806,-0.36497906,-0.25909606,-0.03403957,-1.2448405,-0.29227674,0.4950095,-0.47587967,-0.21701948,-0.18755494,-1.296962,0.61869293,1.6810132,0.04398242,-0.70881176,-1.5640297,0.41160613,0.79443324,-1.3746951
121.jpg,1.6328222,-0.48672277,2.257984,0.9868447,-2.591952,1.4492928,0.104100406,0.23662166,0.7640232,-0.306563,0.4928298,-0.36210084,0.44984025,-1.806583,-1.8832519,0.39786372,-0.946836,-0.6226749,1.8722776,0.21448655,1.1873316,-0.4795754,0.79707164,-1.1892332,0.4470626,0.03429732,1.2169936,1.0239327,0.4214149,-0.8656508,1.3986216,0.92101616,-0.60723805,-1.305695,0.9802807,0.483414,-0.26617128,-0.62823707,0.8683991,-0.21125412,0.65662247,-1.053778,0.22462237,-0.033237685,-0.7068484,-1.0435257,1.250545,0.73831886,1.4715087,-1.2275467,-1.0498896,-0.8222056,-2.907189,0.8390246,1.2582952,-0.13277607,0.94948643,-2.6762774,-1.0662955,-0.81418765,0.89542115,0.043386996,0.72270525,0.7534961,-0.15894905,0.32502648,0.789348,-1.0029179,0.50088143,-0.6912287,-0.64611465,0.33328527,-1.2900116,-1.4667677,-1.4179646,0.45224193,-0.41990745,0.22513357,0.03541514,0.5363489,-0.49510646,0.63088566,-0.22111735,-0.25313616,-0.07355559,-1.0608861,0.883455,-2.2056963,-1.0412314,-0.071593665,-1.0565258,0.52503926,0.7091951,-0.09685018,2.930546,-0.09100678,2.0018108,-1.7786741,-0.20065597,0.36784282,1.1481774,-0.0407308,-0.9011642,2.0989437,1.0298508,0.8074713,0.88343126,1.8690351,0.008726128,-1.4767238,-0.53069407,-0.0769487,0.20078889,-0.9808916,-0.8810835,-2.5713615,1.6150335,-1.0322311,0.48374528,1.1303053,0.62200093,1.1137037,1.0794799,-1.3376963,1.947398,1.1352875,-0.18414314,0.7869872,-0.643764,-1.4068391,-1.480864,1.2215147,-0.078992225,-0.3660435,0.48381466,-1.1911986,-1.226091,-1.0934333,-0.07916318,1.0505923,1.1386987,-0.46217823,0.17854987,-0.6729155,0.57055676,-0.5755284,1.059416,-0.1187049,0.8207222,0.87610495,-0.20592219,1.3876082,1.850837,0.28129986,-1.1718756,-0.43777174,0.7925303,-2.1434677,1.2980971,0.5453471,2.2064033,-3.0331314,0.5365196,-0.59133196,0.92000186,-0.5930796,-0.19222769,1.4468057,1.2668561,1.8865463,-0.70425195,0.94615203,-1.4625773,0.96445227,-0.9273082,1.629502,1.1782831,-0.21778451,0.03854814,-1.7488776,0.779784,0.21295011,-0.5467365,0.7180399,-0.34323162,1.1089594,-0.62038016,-0.8610664,0.74003845,1.0849187,-1.7325616,-0.9218428,0.9331201,0.68656206,-0.95884824,-1.4316381,-0.26399934,-0.76245105,2.4248817,1.3079559,1.278486,0.0257612,-0.87106407,-0.29983947,-1.1210618,-0.5896571,-1.0440838,1.5065523,-1.6203542,-0.09814552,1.1630669,-0.3639068,0.48052332,-0.96335053,0.40787435,-0.8611875,1.560341,0.54107517,-0.74569196,1.1403097,0.41707072,-0.4784998,1.8825171,-1.0348213,-1.4487824,0.03346447,0.46890286,-0.727915,-1.6012471,0.0149941,1.8862784,-1.6760064,-0.23816474,-0.24536581,-0.7871751,-1.5019629,0.59417075,0.74129766,-0.16498224,0.29365313,-0.99587727,-0.9579589,0.39840913,1.682395,-0.06469211,-0.72593796,0.25665072,-0.012443719,-1.6559715,-1.4019892,2.0900593,-0.58937234,0.4375608,-0.7652293,0.8629297,2.6319187,-0.5860469,-2.2143908,-1.1426735,-0.8670259,-1.4347987,-0.83301175,0.70361257,0.64215577,0.5528434,-0.80110323,-0.64820856,0.50717056,-1.6992625,0.5480655,-0.69177026,0.3517472,-0.3366856,-0.07691742,-0.21994358,0.26997146,2.743202,-0.97935086,-0.78780687,-0.96597844,-0.49267957,0.36605796,1.8941457,-0.12436205,0.46942243,-0.20065503,1.2263772,1.8853546,1.3575708,-0.59396523,0.41961044,0.5947789,-0.44530544,1.6365683,-0.7429155,1.47233,-1.7376212,0.39235562,-1.8033689,0.101471126,1.4731189,-3.0042422,-0.99482334,2.3444903,-1.0166329,-1.3611838,-1.0505775,1.3711424,-1.0902692,-0.12489287,-0.44011325,0.18459177,-0.58366215,-0.2147733,1.1298276,0.754465,-1.961443,-0.31500512,0.011184949,0.33566567,0.10147654,-1.8214912,0.5677055,0.639162,0.56685823,1.4583745,0.2878694,-0.6074791,0.05559501,0.010890635,-0.49252483,2.2330391,1.3282456,-3.5665753,-0.28219593,-1.5652835,0.9581396,1.3022511,-0.9017719,0.12667823,-0.6976566,-0.7656245,-0.97570086,0.511175,0.66716653,0.6738239,-1.2429879,0.35193512,-0.72165185,-0.84632343,-1.9082863,0.35681784,-1.1436604,1.6328201,0.2828997,-1.5275002,-1.9543136,-0.97038394,1.7171971,0.7461489,2.0780823,0.2793711,1.6278257,0.7102447,0.709543,-0.094511166,1.5711159,-0.033200104,1.969212,1.2542624,1.8255091,-0.46182027,0.2956217,-2.317914,-1.4347181,-0.35529363,0.696477,-0.21556844,-0.4540696,-0.70035833,2.0067127,-1.7933677,1.1879311,1.3159341,-0.62425435,-1.15329,-1.1890396,-2.6790316,-0.15189216,-1.2665341,0.9620495,0.5545678,1.4609323,0.8197591,1.5549401,-0.37746996,0.10150639,1.0532746,0.13010919,0.8449119,-1.2210468,1.8561814,1.8016864,2.0633302,-0.17143045,-0.5512876,-1.2943281,-0.25134742,-1.3337934,1.5674021,0.20768757,-0.992167,0.9103069,-1.2735014,-0.59566426,-0.11070259,-0.74220055,1.0227445,0.6348289,0.07372754,1.010961,1.3978589,-0.83960336,-1.8988073,1.7415584,-0.5682904,-2.5362532,1.6128821,0.32226273,1.1739067,-0.07466246,-0.76428217,-0.8672185,-0.30384305,-1.2806296,1.9230272,0.6422207,-0.34849668,-0.990292,1.6233236,0.13787906,0.8953687,-0.3066854,-0.3970677,2.6684175,-1.5583413,0.96148694,1.2938449,-0.9649529,-0.6374326,0.16510713,0.06751079,0.9840906,-0.03207816,-1.7967023,-0.2032976,1.2006972,1.7412938,0.72694767,-0.7008468,1.050593,0.5369226,-0.8929092,-0.83594126,-1.754676,-0.7065667,-1.1351912,-0.6897231,-2.6678176,0.29990137,0.7467278,1.3886695,-0.05901761,0.62423533,2.5607834,-0.18142839,-0.0060809418,0.51652324,-0.059991904,0.7451554,-0.1608628,0.11074063,-0.55962044,1.9141569,-1.0527679,-0.22288278,-0.9634515,0.24272574,-0.07558855,-0.24926586,-1.1264231,-0.7896131,0.1254792,0.28630167,-0.3416062,0.8896839,0.03144832,0.804973,2.6966088,-0.8551298,0.55968434,-0.8032341,0.71188116,0.54377383,1.1128136,0.46509328,0.6156992,-0.25234452,0.5512395,-0.30057335,0.5641385,0.35681474,0.69657964,-0.12360295,1.7039633,0.07471074,-0.80978274,0.3596196,0.71083784,-0.39826202,-0.7036833,-1.0686564,-0.04489948,-1.627995,0.45281056,-1.0957929,0.16575655,-1.5840722,-1.2059348,-1.2458407,1.8070418,-1.2515687,-0.024088701,0.20376149,1.0134174,1.7161908,-0.49042246,-3.0211957,1.6328378,0.11957376,-0.11274319,-0.14027739,0.4191166,0.58261377,-1.4869077,-1.3530914,1.299812,-0.5300207,-0.56668454,0.4306155,0.4286657,-0.59744877,-0.75936157,0.26559624,-0.33868343,-2.3579285,-1.1510754,0.5495508,-1.2693288,0.2982654,0.46421888,-0.049660727,1.6425258,0.8465826,1.0817512,-0.48616672,-0.10102651,-0.3182852,0.91198546,-0.5092184,1.5087723,-1.4030012,-0.84804595,-0.29711515,1.0480678,-1.1867954,-0.5317098,-2.2022982,-1.6458323,1.7321454,0.28063768,1.3140514,0.93794036,1.2928642,1.5840168,-0.18809041,-1.125275,1.6713556,1.1266859,-0.5091392,0.66839874,-0.44389328,1.5145001,0.051545054,-0.2117423,-1.295573,-0.94941384,0.15222426,-0.32266048,0.69595623,0.42329672,-2.0625567,-0.3980864,2.3401377,-0.3796944,0.8410902,0.6523237,-0.2919369,-0.97565323,0.6659789,-0.21563755,-1.5547451,1.5395943,0.09532575,-1.1268922,-1.2087172,0.76390475,1.0746291,1.169812,-1.177942,1.0163788,0.034448426,-0.3881477,1.5615789,-0.7331818,1.1294583,1.6004481,-0.02461839,-0.77603686,-0.067008436,0.5732266,1.250103,-1.2702494,-0.54285616,-0.07713063,0.42954984,-2.323887,1.3604087,-0.15259022,0.8494845,-0.47357282,1.864217,1.1130215,0.34428447,-0.50130826,1.6653899,-2.0835476,-0.57596886,-1.2972107,-0.53816783,-0.30310345,-2.3318324,0.7773662,0.9370278,0.8815968,3.283309,0.25795636,-1.4343871,1.6946443,-0.99094254,-0.14108324,-0.28173536,0.9143229,-0.53391707,-1.7498833,2.029181,-1.1807116,-1.2798175,-0.9424685,-0.43101588,-0.051568393,0.852998,0.8953133,-0.58810526,-1.1937081,-0.84899193,-0.31405285,-1.8659258,0.78925276,0.006667905,-2.2024012,0.4248198,0.77635235,0.75696903,-0.29180795,-0.35497025,1.5573459,-0.3663861,0.68217504,1.4364237,-2.1403306,-0.013864574,0.35256615,-1.3253044,-0.2061623,0.019723611,-1.1548668,-0.019728636,0.34517145,-0.39940593,-0.6615501,-2.5282094,2.09225,-1.2747476,-0.5477775,0.6773555,-0.850223,-0.18778683,-0.1527326,0.085896686,-0.081027515,0.09761362,1.4795032,-0.51000196,-1.4841405,0.43309763,0.001183058,-1.9565508,-0.060883395,-1.5060754,0.502083,0.49294052,-0.13010205,1.6409457,0.3606805,-2.4361167,-0.70286506,0.36543202,-2.5968437,-0.26255116,0.6855684,-1.693484,-0.35928607,-0.7572683,1.4766246,0.20263383,0.7557953,-0.05710262,-0.63775545,1.1275854,-1.8766522,0.7580501,-0.92413914,1.5367796,0.17557007,-0.3040677,0.6684252,-0.9483186,0.95723546,1.2483242,-1.760407,-0.547844,-0.373296,0.07755317,-0.13402914,0.3780877,-1.982206,1.177494,-0.811649,-1.0566704,1.0930051,0.8308311,-0.9389955,0.81658345,-0.4277495,1.2873223,2.8877206,-2.18811
125.jpg,0.22420801,-0.82827175,0.9586625,0.57743967,-0.53621894,-2.5712192,0.23250024,0.6188267,-2.23508,-0.9891973,-0.3944565,-0.55247545,0.04463613,-0.16106886,-1.1735915,0.68003154,0.11569098,1.9773595,-0.4794982,0.45055926,0.43300658,-1.4412612,-1.3858747,-1.780829,-0.09265257,0.6229595,-1.5224229,1.1579401,-0.5947534,-1.8292252,0.42249823,0.86320704,-0.6971573,-1.3702308,0.9036276,-0.6560167,1.6249589,-0.10841017,1.1928191,-0.30128875,0.7694492,0.2420056,0.550985,0.05447473,0.9283816,0.33746222,-1.8356605,1.1764013,2.4930935,0.019988349,-0.047229357,0.5071368,-0.5264364,-2.350574,-0.33068874,-0.37213936,0.37704057,-0.06627741,-1.1804906,0.8188724,0.20733146,-0.17893074,1.5869317,1.7306855,-1.2272613,0.10527511,0.6665559,-1.0801284,2.2077675,-1.016751,1.6161524,-0.69855595,0.19319727,1.1328518,-0.12345174,1.1393209,-2.1232185,0.053509153,1.0392587,-0.7536124,0.03360645,1.4769428,1.5879159,1.4610986,-1.3654383,-0.76077557,0.6645183,0.4113914,2.2694917,-1.5762359,-1.5295435,-1.1658027,0.28394416,1.1770098,-0.52061045,-0.006099234,-0.9581261,-0.2838368,-1.2744509,-1.0640818,-0.91091853,-0.9266691,-0.0004916009,0.10672062,0.9319902,-1.0190876,-0.5620193,-0.41823986,-0.383773,1.3887125,-1.1673341,0.5871712,-0.9705624,0.28511313,-1.2786587,-0.14940082,-0.31030938,-0.24568772,1.9044433,1.8527066,-1.0404078,-0.0659871,0.7424006,1.345852,0.19213839,-0.6924298,-1.2933748,1.1614937,0.381612,-0.048398327,-0.85972834,-1.0526674,0.8747077,-0.70024925,1.5630571,-1.2281431,-0.63535184,-0.34113276,-1.0103362,-0.09207349,1.8777409,0.28898144,2.20401,-0.96626425,-0.46549055,1.0909494,-0.69063073,0.77085227,1.9901804,-1.5510998,0.24040592,-1.5450057,-0.26808447,-1.0225155,0.90209264,-0.65590876,1.063987,-0.38012835,0.22537333,-0.26520607,-0.9707465,1.1047176,-0.2502776,1.0550575,-0.18664548,-0.36831343,-0.84299856,-0.8697319,0.285821,-1.7745907,0.90589404,-1.812555,-0.90648085,0.08392364,-1.913142,-0.27569923,0.78916377,0.7241973,-0.2923867,-0.6482796,-0.569619,0.16638994,-0.09090769,-0.024850376,-0.048360042,0.12820145,1.0088507,-0.4577231,2.356621,-0.018820565,-1.1789287,-0.8541834,0.8577622,0.36138073,1.3126328,-0.76163423,1.0227524,-0.36977065,-1.2593871,0.76472044,0.060133964,-0.24717547,2.7236161,0.09133198,0.37138942,0.86532754,0.97407216,-0.57705885,-1.3845754,-0.2948253,0.4592439,1.3496691,0.24378368,0.17098074,0.4553645,-0.9646743,0.2895945,1.1320239,1.9390473,-0.09249165,1.2112118,-0.31905606,-0.7714611,0.29721826,0.295461,0.44343567,0.032333836,0.2526134,-0.6622626,-0.4791694,0.5662797,-0.37779453,0.6624468,0.6450294,-1.0048404,-0.7548002,1.6175272,-1.0813785,1.1472164,-0.04451569,-1.950014,-1.102458,-0.13434055,0.65058273,0.26990238,-1.4809583,1.7417539,-0.21950027,0.00077029143,-1.8942016,-0.73092765,-0.6190451,0.6480003,0.5410572,0.07029085,-1.6190922,2.1897511,-2.019595,0.20029819,0.80156773,1.4671634,0.28780273,0.00807531,1.0367111,0.6097279,-1.1014862,-0.18553244,-0.06820923,0.25327653,-1.5476564,-0.21192114,-0.5334105,-0.24094519,0.9286448,-0.39114398,-0.6620763,-1.0377488,0.24136439,0.48293748,1.3144355,-0.4536027,1.2517155,-1.6761091,0.95467186,-0.22701561,2.700933,0.23344937,1.8323762,0.54260725,1.7786068,0.4507424,-0.94643724,0.7246754,-0.43859494,-0.88843656,1.0268382,0.001104562,-0.16046645,-1.285556,0.0055828653,0.004005637,0.28827244,0.8194208,-0.61500174,3.1780565,-1.8194337,0.06409707,0.36595547,-1.2736914,1.6223146,0.35607472,-0.5146965,-0.43143156,-0.59594905,0.99071974,-1.5058658,-0.82175535,0.706149,2.425886,0.7231309,1.1530514,-0.86137176,-0.112128355,-0.11379208,0.047528956,2.154011,-0.5074815,-0.6886407,0.18899831,2.356129,-0.47507882,-0.27018976,-0.14335763,-0.23658897,-0.3193183,0.13920513,0.45666203,-0.52134424,0.8687496,-1.0676595,1.0457987,-1.0112982,0.48050177,0.4309637,-1.462211,1.8574834,0.47989997,-0.38341457,-0.09087183,-0.13258715,0.648833,-0.62690735,0.046235032,-1.3035587,-1.8883704,-1.9825813,-0.23067327,0.21419305,2.0236254,1.1871353,-0.21526429,-0.058394577,1.4348862,1.328035,0.46295717,-1.1401143,2.3574765,0.9353515,-0.5030951,0.589232,-0.7904686,0.29488242,1.1998584,-0.4956143,-1.7335973,0.55599433,0.33585677,0.5258603,1.9868848,0.23647122,-0.7888512,0.46058524,-0.17606093,1.3978736,0.693403,0.7426368,-0.27715883,-0.9659522,-0.2353823,-0.4820871,-1.116549,0.06937681,1.1429183,-0.5889944,-0.67676014,-0.6426546,-1.32621,-0.8920362,-1.6606823,0.895598,1.3895906,0.2787905,-0.3456696,0.6299144,1.4819947,-2.2246122,-2.11065,1.4080036,-0.9631879,0.18671905,-0.77347714,-1.5954489,1.3192639,-0.20813592,-2.248902,-1.174775,-0.159598,-1.0237205,-1.0454314,0.7710716,1.2115949,1.8825175,-0.76321733,-0.41392368,0.070890255,0.40554783,0.17978007,0.21605696,0.31400692,-2.291778,-1.3265973,-0.20557253,1.2622784,0.6601569,-0.9572961,0.2861928,1.5100906,1.0783156,-0.31666023,-0.5170038,-1.917965,1.9616058,0.24662708,-0.6333366,-0.11826434,-1.1014364,1.7330189,0.8902713,-2.5949814,3.01829,-1.6026623,1.444926,-0.07757554,0.5326659,0.14346422,0.21920468,-0.7824506,0.08855115,0.67033803,-0.29236674,0.03044792,2.1553142,0.9029916,0.65868235,-0.6531829,-0.09892648,-0.23054734,-0.4360807,-1.2400032,-0.9012767,0.78698677,0.4859055,-0.8235702,1.8523513,1.7026211,-1.72679,0.18151261,-0.24482092,0.71924514,0.30580968,0.3871728,1.1411542,1.4100202,0.056475997,1.8345166,-0.43036124,-0.65794706,0.83468693,-1.4771733,2.453276,-2.2579167,0.30392256,1.3609692,-0.21558426,0.48847303,-0.39597288,-1.8661096,1.2742927,0.059661265,0.13264504,0.18450113,-0.40404633,0.4137005,0.26384005,2.0675857,-0.048199266,-0.73953843,-0.06104092,0.458819,-1.8267826,-0.08858294,-0.6401739,0.7391055,-0.12922326,-1.8069663,0.9489992,-0.19054434,-3.4481404,-0.57071024,-0.049136404,0.04579582,0.6230006,0.43702582,0.5182817,0.61970794,0.21869479,0.94418144,0.024688967,-0.1458767,-0.23468114,-0.1287498,-0.20244811,0.5050738,0.2583572,0.087132044,1.9978384,-0.5143993,-1.0949812,-0.6798024,-0.29686487,1.1871674,-0.6952351,0.2363651,0.37837175,-0.5008509,0.9030263,-0.45588186,0.2598207,0.079756394,0.17533803,0.09267964,-1.8095832,-2.0032575,2.7332418,0.87242556,-0.18296443,0.75230855,-0.9449882,-1.2454758,1.5758609,0.8876079,0.55622554,2.933212,0.046845518,-0.92421216,-0.58855057,-0.72485375,1.0479537,0.8496952,-1.5899674,-0.5014477,0.4841011,1.8070315,0.34030533,-0.4858256,-1.6392063,0.40080562,0.5448767,-1.3031301,0.99069935,2.194378,0.017562792,-0.09731142,0.78226817,-0.32402164,-1.2900261,-0.6795094,-0.14227146,1.5644661,-0.24357638,2.9826088,1.3259612,0.033396143,-0.50576985,-0.2748496,0.4035693,-0.16373746,-0.510295,-1.39485,0.36776882,-0.08856884,-0.26653185,-0.42922637,-0.8347701,1.6288884,1.0760989,0.82721525,-0.866869,0.046594333,-1.7737534,-0.85154736,-0.3455945,-0.94066393,1.5188549,-1.5549349,0.51224524,-1.5108815,-0.18659176,0.6911972,-0.4295995,-0.53382,0.45456323,0.7077703,-1.5739336,-1.6832256,0.3579159,1.5137024,0.11845441,0.3469804,-0.083875515,-0.29649654,0.9556656,-0.8410642,-2.2516544,-0.4796562,1.0737654,-0.38470125,0.77987844,-0.7395693,0.24779285,-0.14214593,-0.68225425,-0.77453446,-0.5994032,0.2718522,1.0079128,0.33386654,0.34389862,0.31028992,1.7718806,2.1773193,0.6665769,0.94109166,-1.173685,1.1814668,-0.49499792,-0.32008138,-0.25157937,0.8135136,-0.12858237,0.6833179,0.62100583,-1.8519225,-0.8454827,1.9712083,0.20739335,0.67739564,0.71914816,1.3582032,-0.48804384,-1.1953515,1.4012194,0.61645746,-0.42679957,0.642064,0.79124206,-1.0978409,-0.5226004,-0.517635,0.6923433,2.232716,1.3534322,1.3136687,1.8737121,-1.3855342,0.78937125,-1.5551678,0.8405197,0.1566642,0.034257405,0.81035125,-0.077260576,-0.95154846,-0.46844098,1.0639642,-0.22223888,0.7661685,-0.34756997,-0.2789905,0.7268134,-0.10182125,-0.21475141,0.04876182,-0.92455757,0.54529226,1.0810539,-0.047665287,0.8745305,1.374498,-0.52873105,0.61872125,2.4733827,0.22748326,0.33306184,-0.050078925,-0.7193346,-1.2420104,0.85812,-0.89273274,-0.22167438,-0.23193681,-1.6603,1.998607,1.3791252,-0.07450253,-0.60043055,-1.1384504,-0.29511872,0.18429007,-0.9471212,1.2227268,-0.077698015,0.07278937,1.050357,-0.17370598,0.17525521,-0.21888416,-0.5463279,-1.0373733,0.47177207,1.72053,-2.4082637,-0.6125974,1.0897129,0.02106828,2.1887817,-0.18989006,-1.1740254,-0.04890103,-0.6080325,-0.3903144,-0.8953346,0.7014482,0.37935305,1.5316076,-2.2064116,0.34525013,-0.6449749,-0.6430464,0.2563056,-1.4745972,-2.1895537,-1.0770514,2.9510303,1.101664,0.4987302,-0.16483757,1.3414577
137.jpg,0.7654261,1.665358,0.7351398,0.6994727,-1.2921586,1.5719367,0.88777155,-0.31315768,0.10969099,1.0272335,1.3855916,1.4555798,-0.019200444,-2.0619626,-0.11828456,0.2755704,0.19162059,-1.8125136,0.39604393,1.6460851,-2.0697567,1.7941717,2.9351242,-0.4040818,2.3320832,-1.1374546,-0.6307413,-0.10862129,-0.14675039,-1.2592076,-0.24248344,1.4218961,1.0020461,-0.23521085,0.41954353,-2.7268028,1.3662469,0.5007035,0.090513386,0.27444702,1.1891913,-0.24237585,0.117263064,-1.1913259,-1.5077031,-0.42803365,-1.9338689,0.8937494,0.6805486,2.1595793,-0.5879856,0.8064359,2.0590296,-0.5000477,-0.14296226,0.35996905,0.25788265,-0.6143043,0.8725078,0.23104449,2.9368107,0.36616638,1.102306,0.07326947,-2.6010404,-0.8432619,1.4986886,0.3230071,1.6430725,-0.9784937,0.82472247,-3.6024785,0.33298635,0.14923482,0.1014389,-0.62565243,-1.0120918,1.1432134,1.4151363,-0.37240112,1.6320591,-0.047279216,0.9051803,1.1452802,0.13617384,0.56070083,1.3164082,1.1227099,0.62816715,0.35270947,-0.43306875,0.5253227,0.38733342,-0.7996198,0.8814355,-0.13817279,1.8737688,1.6301949,1.9009348,0.8888412,-0.48789617,-0.9665697,-1.4053828,0.24460447,-0.648732,0.8621077,0.36561385,0.245967,1.2899871,1.0934739,-0.9907849,-1.0434113,-0.9059509,1.3729503,0.25521076,-0.7965532,-0.4598349,-2.5584376,0.98487663,-0.9373303,-3.0612714,-0.08214083,-0.9498263,-0.19966014,0.7100247,-0.62740487,-0.37680754,-1.5209855,0.7002956,-2.519809,0.8085832,0.31058937,1.0298609,-2.762217,-2.6728919,-0.31461287,-0.4421856,0.99606246,-1.1510141,-1.5927473,0.24165675,0.8821303,0.6412259,-1.0425267,-0.686745,-0.5835868,-0.0049265,-1.729684,-0.020391302,0.07669878,-0.3005933,0.5744812,-2.0385382,-0.19241548,-1.9522929,0.13274029,-1.2057806,-1.0932404,1.7127247,-0.06206064,2.1502466,-1.3450495,-1.0650843,0.90320486,-1.7624499,-0.20181106,0.36334035,-0.20503889,-1.3538133,-1.2421955,0.10449872,-1.1815339,1.5002408,-0.5205061,-0.23695762,-0.9630757,-1.5007432,1.3254066,-0.19505253,-1.2947848,1.1317873,-1.0656487,0.858437,-1.3613603,-0.49865264,2.3733816,-0.71892685,-0.9776379,0.93018293,-2.1503549,2.238143,0.8975,1.9150325,-1.5119798,-1.8402692,-2.6420634,-0.4198366,-0.38398328,1.2596099,1.0165833,0.15113308,-0.08400924,0.63633335,0.75364614,0.87022287,1.786282,-0.13311791,1.0709907,-0.4805824,1.6968113,2.1973753,0.43972716,-0.9503475,0.46339065,1.8331704,1.518764,-1.2359198,0.8335294,1.4374211,-0.08410714,1.2255412,0.5767528,-1.3683479,-0.6843806,1.0487546,-0.93976355,1.6227314,-0.70486754,0.15173848,1.1843082,1.4670284,1.9600786,0.20837769,0.6113126,2.5546618,-0.44167766,0.77659124,0.0034256421,1.4022024,-0.2666413,-0.017270423,-1.0739768,-0.8102756,-0.76098084,1.2374966,1.14942,-0.0016729189,-0.07416971,-1.4350269,0.31557825,1.7238183,0.6842869,-0.68609214,0.38485834,0.12114231,0.41492513,0.12290727,0.31017396,-1.5375599,0.56404966,1.7284354,-1.2382323,-0.01355119,0.22105162,-0.7289098,0.76474917,0.33095965,-0.255577,0.13781224,1.8689002,0.08789372,0.054613166,-0.196033,0.75644445,-0.79865354,-3.4025962,0.5286355,1.7091607,1.0411651,0.14632988,1.0757937,0.5847254,-1.3564053,0.7444064,-1.1564935,0.0018859527,-1.4705201,-0.7631639,1.3133184,2.30209,1.3096215,0.4381495,0.022570949,1.7668502,-1.0127776,-1.8885344,1.8100895,0.0917228,-0.5501786,1.5273696,-0.5230581,-1.1118276,1.622897,1.5398154,1.1947371,-1.022136,2.2757268,-2.3556285,0.2528069,1.9694093,0.8559233,0.11854345,1.5020185,0.40816343,-1.0498577,0.5773663,0.0015927019,-1.7036172,-2.032105,-2.2579591,-1.3048614,-1.0314956,-0.78409505,1.3045636,-0.261972,0.67532206,2.382318,-0.23985979,0.35282055,1.5024637,-1.0797634,-1.0321991,-1.7504851,0.15905412,-1.3229778,1.9946442,-0.1697902,1.7932394,0.91151476,1.5559772,-0.17325664,-0.59498465,1.211306,1.3466892,-2.2462382,1.0224447,0.8799311,1.5087034,0.20650125,-0.23768479,0.38678455,-0.58358324,0.08134401,-1.7874391,2.4266875,0.7303251,0.775877,-0.7820856,-0.32995802,-1.5876042,1.4668428,-1.5439622,0.21436265,0.73250747,-0.5851016,-0.32201692,-0.813968,0.9999653,-0.86546,-0.43537214,-0.38829017,-0.40216094,-0.37654927,-0.52899045,-0.34771314,1.1095527,2.2787952,-0.36706117,2.5700147,-0.993465,0.2905129,2.8491476,1.005438,1.0336685,0.35437506,-2.4597974,1.917498,-0.03558846,-1.1811224,-2.0583735,-0.53561604,0.7157037,1.6898854,0.99239826,-2.242828,1.2184209,-0.23079337,0.0024185227,-0.35075858,0.0410389,-1.0066106,0.8693742,1.3515586,1.661956,0.31497887,0.46058968,-0.3860114,0.8419883,1.6752458,0.43457586,0.26736683,-0.29768723,-1.085712,-0.37665844,-0.5238046,-1.1773297,-0.7382097,-0.6248191,-0.031910352,-1.4569777,-0.92910504,1.3199087,-0.8882162,-1.4958673,1.3106056,0.46724325,-0.55331403,0.93525624,2.5178723,-0.46229824,-1.171623,1.790572,-2.2799501,0.23965134,-2.265328,-0.6992086,0.99018365,1.1330397,0.7459642,1.4822912,-0.3148632,1.073256,-0.5348429,-0.5729888,-2.7157116,-0.26324588,0.7565543,-1.1409979,0.7835878,-1.1404495,-1.6604666,0.30414444,0.16655537,-1.0415248,0.60132986,1.4853404,-1.1096948,-0.7328507,-0.6287154,0.4951834,1.4228723,-0.09011227,0.22677147,-2.1889408,-2.8761919,3.1971655,0.42786577,1.9607714,-1.2723218,1.2963796,-0.9021722,-0.069447465,-1.6139132,0.5385826,0.5399378,-0.36317733,0.69798493,0.51627874,0.2506929,-0.9032348,1.7884701,0.90718937,-0.65448254,-0.10464894,0.13609195,0.601225,-0.25592992,0.42524523,-1.4854851,-0.12983766,-1.3956376,0.5479431,-0.54761034,0.12526233,-0.5018183,-0.12843768,-0.029722324,1.1686976,2.6818445,-1.948262,-1.3337051,-0.31244752,0.06348891,1.4762169,0.9840627,-0.033417694,2.6063352,0.5173328,-0.4396041,-0.47159705,-1.8699893,0.1817545,-0.3168597,0.57261044,0.03044557,0.50390756,-1.4191945,-1.2748158,-2.186824,-0.1915993,1.4361284,0.8063868,-0.83841306,1.249019,-1.0856748,1.7870593,-1.7919348,-0.30458525,-1.1718141,-2.4390478,-0.4605503,-1.0371082,1.0485463,1.3948871,0.107282884,-2.5080385,0.8705024,-0.160341,-0.0742163,0.6422818,0.12288988,0.15571545,-1.4585657,-1.2732625,0.95868415,0.15661708,0.7669876,1.5064924,0.6409092,-1.6692966,-0.6439837,-0.2676296,-0.40171778,0.6774325,-1.0227724,0.1053114,-0.08633186,0.54917985,-1.0045756,1.8895061,1.3985974,-0.23190245,-1.4427176,0.5511655,-0.9279279,1.0572248,0.34182608,-1.2297418,-1.7714391,-0.2590935,-1.857447,-0.028167816,-1.1128511,-2.1079967,3.1884124,0.23899171,-0.5956598,-1.27251,0.6965502,0.7200663,-1.0403742,-0.23928969,-0.22318561,0.8125488,-0.70630324,1.4610844,-0.13733992,-0.18209882,-0.9539883,0.01943415,1.7834623,-0.018523812,0.1834276,0.048456423,-0.89016294,0.4144402,0.22286206,-0.1936601,-3.0647016,2.351887,0.18335113,1.1298491,0.71668607,-1.672019,-0.88597554,0.1681671,-0.37198532,-0.53527737,-0.5289291,1.3688567,-0.25765952,0.55808264,-2.6940837,-0.25162268,0.93728703,-0.30638185,-1.4555227,-1.2067171,-0.23420413,-0.94983643,-0.8293303,0.4103591,-0.43428466,-0.8746601,0.85432124,0.7899926,0.3422277,0.08949342,0.70796406,0.4381358,0.26022023,-0.890942,-0.2615752,0.6445394,-1.1814144,1.4326819,-1.7613032,-0.08509703,1.1910559,0.18586195,0.52683836,-2.2233922,0.5794925,0.7240739,-2.331555,1.9590142,0.637401,2.6152818,0.5446605,0.19415827,0.19600324,-0.56597155,2.279019,-1.0722182,1.327626,-0.32808223,-1.4964865,2.7993717,0.49400428,-1.2553796,-1.3381621,-1.1455932,0.42028967,-1.8999367,0.88091516,0.70571935,-0.68978393,0.7259916,-0.4157607,1.6326962,0.97998315,1.1351676,1.3676419,0.09023973,0.25962707,1.3270401,0.08707017,-1.7019005,-0.7091515,1.1686525,1.7533715,-0.06511067,0.49071717,0.7570703,0.3552813,-2.8229184,-1.2353305,-0.42940804,1.2234175,-0.07788266,0.58843344,-1.0535275,-0.4190374,-1.0010188,-1.0960867,-0.90963906,-0.2573829,1.9374851,1.9754467,-3.1041162,0.26496005,-2.244534,-1.8315803,-0.14035077,2.062299,-0.46704143,-0.551517,-0.34236187,0.96387136,1.9493257,-0.594899,-0.89580876,-0.57745284,-1.0228782,-0.55518997,0.042349186,0.3687635,-0.099339806,0.9572336,-0.10659132,-0.60554653,-0.97642356,0.79088795,0.99976116,-0.9635663,0.2513643,0.7868565,-1.2303716,0.3699724,-0.31991136,-0.557063,1.5408344,-0.5910805,-0.79182386,1.7083267,0.5470215,0.34617767,-1.9230336,1.3185663,-0.33584034,0.3747848,0.056068186,-1.0261481,0.4632627,-1.1646556,-0.5903579,-0.4531816,-0.6769933,0.9601647,0.19922009,-2.0297875,0.12419864,1.2941939,0.82436454,-0.5885882,-0.72668046,0.045997154,-0.43827978,-0.2873973,0.8278205,-0.85661405,-0.016481217,2.306991,-1.496309,1.2899476,2.122107,1.84466,0.28606856
148.jpg,0.97501564,1.3365729,0.6200099,1.6963743,-0.9430653,-0.09134015,2.2935178,-0.7217732,2.3518968,-1.1538392,0.38970518,1.7931181,-1.6378329,-0.39536458,0.60977966,-0.035906285,0.38221887,-0.28320584,0.25861916,0.057238806,0.1799041,1.4218425,1.0608099,-0.911487,0.6069725,0.5712626,0.38136923,0.57335526,0.8023724,0.8897209,1.0384287,1.0416074,0.6054905,-2.0283363,1.4583861,0.8633108,0.59339184,0.23530123,-1.4880813,-0.9546601,1.0846406,1.2190881,-0.72888625,1.5760915,0.019665843,1.7713223,-0.44628558,-0.633761,0.6173158,-2.1737359,-2.0079916,-1.5446424,1.6435077,0.23576945,-0.3117175,-1.1452388,-1.8914341,0.020202879,-1.3780429,-1.882156,-0.96323544,-0.024188155,0.5557155,-1.3815309,-1.1325524,0.0680173,2.5545516,0.29556116,0.31678307,-0.5148521,-1.3554698,-1.4021015,-1.2948685,-0.18849708,1.4148259,0.010230308,2.0077121,1.2585459,1.026355,-0.75653964,0.18568565,0.63162327,2.52306,1.3519835,0.21194842,-0.6403729,0.39211872,-0.64144516,0.06294118,-0.6207016,-0.83980393,-0.5547828,2.8234386,-0.15470402,1.2968583,-0.049377307,0.23776641,-0.31395838,-2.0452285,2.4263954,0.9260648,0.16415109,0.9566626,2.1764753,0.7553354,-0.93554026,0.76294744,1.1728975,2.310834,-1.721788,0.801062,1.026016,-0.453561,-0.6477587,-1.1793634,-0.8270179,0.25812814,-2.1128056,-0.023557682,-1.1548324,-1.1949298,-0.30964547,-0.18605193,0.079969585,1.2140589,0.18828373,-0.94599205,-0.0010889608,0.5906114,-0.6088288,-0.07587952,1.6758052,-1.507557,-0.5984722,-0.3528611,-1.6520768,-0.62025696,0.67303795,-1.0748953,1.4324346,-2.0346155,0.5469857,0.7786383,1.5655367,-1.5307579,-0.672098,-0.27038863,2.4680676,2.0927017,-0.8084627,-2.0537107,2.4642859,-0.08176741,-1.176738,-0.97534275,1.5763024,-1.8075372,0.18105273,1.572324,-0.77598226,2.2065861,-0.40006188,0.61792237,0.66056824,0.8753904,0.2308642,1.1486623,0.90913075,-0.12925272,-0.809661,-0.43420914,-1.3530196,-1.404417,0.2599502,-1.1704589,-1.3743588,0.110186815,0.6419615,1.3195134,-0.94484997,1.2222309,2.0618446,-0.29637566,0.93548304,0.5819758,1.4037569,1.6132617,-0.29290047,-0.4746887,1.3043888,-0.86392725,-1.501745,-2.5739715,-1.0149896,-0.3906521,-1.4125099,-0.69363505,-0.048746657,-2.4975855,0.25423038,-0.36190608,-0.79708815,-0.86413443,0.12251399,-1.2107086,1.1215781,0.400781,-1.1641774,0.34784332,0.8709494,-0.62295675,1.6481924,0.92081076,1.3135659,0.68705386,-0.8261783,0.5197275,-0.9571908,0.31733257,0.49154484,1.5599574,1.0805216,0.18301706,-0.82259345,-0.27802712,-0.73998314,0.31454653,1.1255239,1.4369326,-0.09429368,0.89010316,-0.034187302,0.17915356,-0.6705739,-1.6448698,-0.8130673,-1.3571197,-1.046237,-0.6470222,-1.7549077,1.214799,-1.1196154,-0.27047384,1.5955939,-0.3756072,0.45045212,1.38006,0.2589527,0.63597244,0.027837235,0.33118173,-2.8497696,1.7624766,0.33824834,3.251178,0.8743344,0.94751084,0.05204093,1.5577073,2.1947832,1.9430723,-0.19463696,0.8256173,1.7015611,1.1353915,1.3922586,-0.22706349,0.97438616,-1.5395374,-0.6790064,1.3093174,0.02534752,0.11261397,0.890622,-0.44657698,-0.34645504,-0.68428856,2.160205,1.5125265,-0.8750723,3.070219,-1.0808371,0.35998547,-0.047133803,0.93200964,-0.13178314,0.92704177,0.575995,0.2416595,0.34541905,0.5174446,0.06788679,2.8705962,0.7666996,0.7537564,2.6948,-1.3730927,1.6402632,0.032182332,0.648028,-0.33850288,-0.5300931,1.0370374,0.06286305,0.57829934,-0.94456047,0.11484562,-3.436358,-0.7968669,0.046218574,1.3717116,-0.79693484,1.0913746,0.41886178,0.6420097,-0.64382,-0.39090845,0.31763938,-0.7556155,-0.06785331,1.3905143,-0.8696876,-0.27569073,0.24633801,-0.08578609,0.1649353,-1.0166271,-0.33831003,0.84004587,0.9922251,-0.5647685,-2.4997745,1.1729074,1.1433616,-0.011007234,-1.5899535,-0.19449212,-0.0632947,2.3219714,1.1592586,1.0506529,-0.9915924,1.1281903,-2.2344198,-1.4079978,-0.110616624,-0.40535498,1.5250971,1.0323741,0.7362185,0.7663848,0.5294826,-0.372906,-1.4194458,0.32284513,0.59562564,1.4006948,-0.20823981,-1.27874,-0.49583557,-0.743362,1.3896345,-0.6668159,-0.65091443,-1.932402,-0.20554467,-1.5437446,-2.3417256,1.8201692,1.0026594,2.099396,-0.9389539,1.7489074,-0.7032943,-0.7491568,-1.1568406,0.3917765,-1.0646765,0.41994363,0.036761884,0.12402612,0.5407699,-1.6092466,0.5792434,0.42546225,0.34056285,-0.76388097,-1.2645867,-0.14014108,0.109182775,-1.3975164,-1.2915272,0.23671511,0.1300768,-2.289801,-1.3662643,-0.2733245,0.47493708,1.4213935,0.0037768153,-0.15052809,0.04440587,2.396219,-1.9327658,1.1562991,-0.6290447,-1.6415136,0.60670227,0.6151185,0.87707096,0.19378358,-0.16817518,-1.1608832,-0.23343968,0.1944205,-0.2546611,0.14881742,-1.9691033,0.035372112,0.2022533,1.2964188,0.16962446,0.15432411,-0.48142362,2.3164248,0.7753987,1.259909,-1.6520717,-0.8244319,0.046924755,0.95135397,-0.24914323,1.5102373,1.3320072,-0.083820455,0.6696431,0.7328815,0.49795187,1.9567878,1.3473524,1.3704457,1.3389274,0.013009581,-0.09977024,0.14723493,-1.5319321,-0.9946454,-0.060981918,1.5264148,-0.52609086,0.9070431,0.6964744,1.2577097,1.4229038,0.53648037,1.3658311,-0.41986892,1.3810692,-0.46379322,-0.12917995,-0.2296143,0.25013053,0.5771111,0.109759405,0.37832218,-0.15999526,1.6681879,-0.14199811,-0.6877728,-0.14600573,1.2508956,-1.4833331,-0.610875,-1.4668556,-0.1311352,-1.3146873,-2.300096,0.14374542,-0.83583325,0.43062848,-1.4352503,0.84130865,0.48309466,1.6233171,2.458616,1.8600627,1.1569562,0.8597763,-1.1266898,-1.3767464,1.4699972,2.050735,-0.66085917,-0.7357823,-1.5108213,1.3298539,-0.1838959,2.569195,1.3803651,0.56496835,-0.053039063,1.1998026,0.93126094,0.06340433,-1.239735,-0.31675014,-0.57151127,-0.90160275,0.18580748,0.26439402,-2.1142538,-1.0214189,0.16780658,-0.561161,1.8541466,0.2851091,-0.4393514,-0.87713516,1.3588591,0.4504999,-1.3578848,-0.641341,-0.14239903,-0.50118715,1.3989047,0.88600296,0.2867582,-0.9469992,-0.36985597,-0.20548561,-2.2293177,-0.8157863,0.52948886,0.52877766,0.038946994,-2.0365417,0.4035127,0.7033945,-1.1642601,-1.5599269,-1.3879178,0.40198264,1.482958,1.393096,0.99155736,1.714843,-1.1083903,0.16624382,0.83501,0.7208246,-0.5209554,-1.6994889,-2.6135604,-0.05424826,0.6665875,1.7660846,0.2692053,-0.92566925,0.12028735,-1.8903259,-0.5742185,0.63376874,0.2910824,-0.83134145,1.2640443,1.3000884,1.2742078,-1.5660621,-0.34127125,0.6262268,2.226524,1.2105395,-0.6644273,-0.49098143,-0.551626,-1.0670478,1.5973015,-1.2409657,-1.201782,-0.24533188,-0.48610964,-0.24732313,-0.38056278,0.9611363,-0.34949806,-1.0661347,1.988936,0.7368235,-0.8786145,-0.28573975,0.41844812,-1.9228711,-0.046576306,-1.5677583,-0.7645695,1.1918752,2.0812683,0.26586056,1.8841008,-0.20153074,-0.73584896,0.13509718,0.17697865,0.23917118,1.2455881,2.1570058,-2.975906,-1.5526348,0.04745173,-0.1645242,-1.1037449,-0.32254755,0.9604529,1.0514392,0.48220962,-3.0796874,-0.30511054,-0.19342825,0.87280834,0.4800982,1.3710831,0.41341802,-2.0505464,0.19475459,1.4382935,0.81715965,-1.1963824,0.8817032,0.05379163,0.1309956,-0.37251773,0.9306375,0.8023003,-0.36919537,-0.97434664,0.43898,-0.19131027,-0.19024418,0.34573707,0.015685791,-0.76378554,0.39763448,1.9196743,1.2744709,0.26931965,-0.31605655,2.1837993,-0.99218553,0.30779576,0.8108721,2.0875812,-1.63119,-0.594684,-0.9031406,-0.9407354,-0.2571764,1.5827521,0.59758013,0.17737107,-0.92583257,0.4121776,0.6526745,-1.8656486,1.1335232,0.20631649,1.7133473,0.25531378,1.1880628,-0.3852704,-0.34883556,-1.6193995,-0.31042823,1.1308835,-0.9078137,-0.31091172,0.0013346625,-0.7540757,-0.58572245,-0.32740393,0.24683262,0.7875962,0.83007765,-0.95498717,-1.6667953,1.4837173,0.3318167,1.6114646,0.33464104,-1.4348193,0.2923906,0.84572273,0.06742522,-0.32551366,0.69586444,0.08417616,-1.2340878,-0.394272,0.217373,-1.1944419,-1.7545851,-0.94958687,-1.1940792,0.04225011,2.205399,2.110401,-1.6503222,0.8341528,0.44498813,-1.2953221,1.6945094,0.6931153,-0.44679072,0.49719733,-0.6871544,-0.7028326,0.4589587,-1.2763144,0.0073613846,-1.2335751,-0.37203395,0.57811534,-0.96026397,0.42905977,0.83497727,-0.60495996,-0.7655745,-0.43418455,2.2592697,-1.3555335,-0.9210948,0.21680948,0.17541023,0.7035066,-1.0062928,-0.013745326,1.2158859,-3.3405013,-0.13070783,0.8104573,1.9683816,-0.4194502,-0.37669665,-0.01229535,-0.9172637,0.9684129,1.190221,-0.35850778,1.126488,-2.4688783,-1.652546,-0.96946436,-0.079134196,1.4420874,-2.9390965,1.6650337,0.9460916,0.5998251,0.69114786,-2.2055335,1.2309941,0.98183626,-0.5983704,-0.15704878,1.4386337,-0.64615786,-1.1544336,-0.80946684,0.316541
151.jpg,1.4372269,-2.9244099,1.5286436,-1.0486834,0.38103992,-0.33558592,1.2805147,0.035321236,-1.830176,-0.5946556,-0.43305007,0.12176008,-0.5359173,-0.9052097,-1.2125888,1.4900569,1.2350787,-0.59708816,1.4803141,1.9541948,0.6060578,0.60197324,-0.41467574,-0.5723127,1.2500758,-0.69144607,-2.5054033,-0.12499166,-0.16901454,1.1088227,1.5671594,0.12064168,-1.5908967,-0.541334,1.5831543,0.24176975,1.3945516,-0.85624766,1.7675612,0.86682695,-0.009198676,-0.7395187,-1.0841568,-1.3531156,0.82639325,-0.31486344,-0.13170978,1.7750382,2.1779516,-0.47974953,-0.37927374,0.05622446,0.86044276,-0.3389815,-0.30809054,0.4792829,0.33221495,-0.08187378,-1.0573757,-1.5346736,-0.1610232,-0.06915969,0.73935336,-1.6636701,0.22257902,0.0044566393,1.5093266,0.44913605,1.3921007,-0.31673837,0.7250196,-1.4090154,0.10165464,-1.0618857,0.13060156,0.2156579,-0.49821728,0.27465585,0.37757865,-2.250348,1.7429414,-0.17378695,-0.5015524,0.6965428,-0.6039224,-0.2894787,-0.30256498,-1.1937541,-0.3235853,-0.1972579,-1.3505256,-1.055868,-1.125713,0.2811532,0.09269554,0.7620486,-1.2204272,-0.22046533,-1.6912265,-0.9735102,-0.7171927,-0.47789755,-1.1088126,-0.5217476,1.2393898,-0.53015345,-0.73618066,-1.0251555,-1.7376381,0.6360621,-1.0851498,0.24505457,1.0555558,0.48576707,-1.6010021,-0.19539513,0.18460542,0.8165933,1.151595,1.970766,-1.1587666,0.6156747,0.9420247,2.0702574,-0.3810168,0.5648001,-1.6118202,0.23717268,0.035019044,-1.3268515,-0.68770903,0.07274425,0.9864109,-1.359616,1.1333531,-1.0675436,-0.12260748,1.2290436,-1.2974186,-0.3251002,-0.37984648,0.3076012,-0.8927558,-0.6491825,-0.84082586,0.57191545,0.8757294,0.82683825,-0.25139976,-1.6581459,1.3039286,-0.5136716,1.8782572,-2.0667446,0.42308342,0.11927943,-1.0364274,0.5442234,0.194878,0.35592803,0.32264096,0.0699181,-0.8493141,2.0427673,-1.3392882,-1.1738416,0.570986,-0.20336191,0.313914,0.45443606,0.7548057,-0.3253115,2.0766795,0.062056612,0.2950442,1.102248,0.870193,0.43488118,0.41502276,0.12039205,-0.04816899,0.3570068,-0.5218865,-0.6699902,-0.09667329,0.46546298,-0.7269111,-0.9683867,0.6037455,0.0018014944,-0.70091397,0.2069933,2.1269395,-1.0926695,0.3104379,0.12003242,0.16127513,-0.91916203,-0.6436156,-0.40052962,-0.77444595,0.11895027,1.5428967,0.78604144,0.4816891,-0.16776878,-0.73495495,1.1909953,-2.1106343,0.28309175,1.6481881,0.81017524,0.7428204,1.2614784,0.3702139,0.20189919,-0.33759362,0.36114508,1.2633977,-1.0491298,0.7689416,-0.35473007,-1.663359,-0.120090954,-1.1755136,-1.5668353,-1.6467139,-1.3005296,0.38606632,0.21721187,-1.4315213,1.2237993,0.37228912,-1.7493007,-1.1307185,0.05712066,0.94406676,-0.5224839,1.1907803,-0.96914196,-2.2584677,-1.4812888,-0.11600987,1.6412716,0.29047242,-0.78346884,0.48228192,0.6149274,-0.6547498,-1.4485173,-0.55247366,-1.0956118,-0.38481548,0.2693262,0.040080737,0.2857764,1.6968346,-0.62602866,2.1705801,1.1623584,-1.3727658,1.3219539,0.5536811,-0.38661826,2.2905655,-0.8580993,-0.7237428,-1.2442315,1.1518912,-0.1932635,0.0453719,0.5303542,-0.6036736,1.8742989,-0.8303773,-0.47277334,1.784877,-1.7667812,-0.18401179,-0.68954366,0.52212554,-2.2133458,-1.3737813,0.89598656,1.0268633,0.7239711,0.04348508,-0.87689084,1.3210521,0.18135169,-0.08385282,-1.9749823,0.020914434,-0.5776278,-0.8107964,-0.3573613,-1.2264929,-1.1898739,1.0440308,1.6832538,0.55433357,1.3431287,1.3034667,-0.30251306,0.46929148,-0.79607815,-0.52002406,0.21239597,-0.03491706,-0.52118725,-0.018482007,-0.47976348,-2.1690974,0.2854315,1.8135885,1.1512659,0.30752486,1.4789847,1.835157,-0.5413991,0.43361536,0.9695801,-0.10499726,0.9712743,1.1399709,0.9272689,-1.692541,0.3422085,-0.19628039,1.034819,-0.58355325,-0.28411657,0.108773775,-0.51151943,-0.7943177,-0.22419542,-0.6617852,-1.7169855,-1.2055228,-1.461918,-0.9648964,-0.8490679,-0.18506913,-0.82308376,-0.95198244,0.8394792,0.68128836,-1.1505932,0.36699173,0.8867422,0.22980046,-2.506259,1.0213597,0.31754214,-0.4388945,-0.06906502,-1.4515598,-0.10284366,1.786598,-2.0747225,-1.2003466,-0.27649644,-0.09929755,0.6677539,2.7696257,-2.295763,1.9976282,-0.21907076,1.2001195,-0.2094035,0.34994817,-0.11167236,1.2399845,1.041555,0.06579489,2.329267,0.7048799,2.47134,0.34972277,0.27318785,0.40568015,-1.5337815,0.106589496,1.4803255,0.55976844,2.7389946,0.80640614,-0.31941664,-2.0951555,-0.7713409,-0.45759496,-0.84789646,1.5032588,-1.230645,0.46651903,-0.13820635,-1.326418,-1.0171386,0.10849233,0.89418954,0.73652685,0.9182417,-2.3547328,-0.85023826,0.6628369,-0.46848226,-1.3701279,1.5256433,0.40375584,-0.9962516,-0.22244194,-1.191535,0.48850065,-0.6535027,-1.0924264,-0.19775045,-0.5767641,-1.2121857,0.6425258,1.819254,1.5449462,0.033138167,-1.693216,-1.4610186,0.6383536,0.8319068,-0.36667925,1.1752465,-0.46920407,-0.5623088,-2.093522,-0.63207597,-1.0797508,0.8385785,0.1491992,-0.3645357,-0.50965226,0.42437914,1.3598074,-0.47372073,0.81733865,1.847316,-0.51865655,-0.7256094,-2.4329603,-1.036649,2.7181528,-0.6629174,-0.7628102,2.3240721,-0.21933085,0.47594818,1.568962,-1.855384,-0.89106727,1.4666606,0.60082614,-0.83587885,0.59814036,-1.4533327,-0.4152676,0.47343078,-0.15860617,1.4762108,-0.4079051,0.6109449,-0.118889555,-0.038113963,-0.02196992,0.53005004,-0.19492958,0.47636694,0.32789162,0.6068404,0.5550761,0.39267406,0.49896052,0.14321819,-1.06768,-0.6944809,-1.5097754,0.8376701,0.60943025,-0.79488033,-0.074054725,-0.29189855,-2.407198,1.6493448,-0.12151158,1.4916303,-0.555976,0.6227201,-0.50950897,-1.2067744,-0.13528804,-0.6492425,-1.0358512,0.8594043,1.7511808,0.94269186,-0.91090655,-0.15223293,-0.17519891,1.7463355,1.7519921,-0.14362155,-1.16093,-1.862766,1.3271462,-1.7907543,-0.22105563,-0.43562928,-0.53500473,-0.42969778,-0.41050464,-1.5939393,-1.5223085,-0.6757195,0.51019293,0.32236278,-0.2505446,0.04511867,0.6552982,-1.3509923,0.5374679,-0.4910619,0.023268232,-0.4178558,-1.6961029,0.5053688,0.2335479,-1.5590614,-1.033814,-0.98046833,-0.9256788,0.13627876,1.6262928,0.26427585,0.4683768,1.5012778,0.6792573,0.37178665,-0.9635548,-1.458924,-0.5374184,-1.0501028,-0.39956784,0.29518235,-1.6181662,0.81635404,-0.4136382,-1.339154,-0.1751519,0.48906243,-0.40172765,-1.1219927,-1.9069529,-0.60138714,0.81116575,0.4704717,0.2897943,1.4333273,0.93228525,-0.5010994,-0.12786414,0.93344855,-0.15053508,-0.62989926,-1.0814687,0.059740983,-0.44668907,-0.14752981,-1.0999273,1.3502412,-0.4696887,-0.37440702,-0.4788882,-0.323516,-0.62210494,-1.0262754,0.9742087,0.5890668,-1.2392654,0.8333308,-1.3186921,-1.3376943,-1.599153,-1.4389365,2.0539653,-1.860275,-0.26592374,-0.28590593,1.0477238,0.2843431,-0.7417189,2.2867532,-2.065803,1.2671952,-0.65342045,-0.37286356,1.8055403,0.20980011,0.57420224,-0.5658649,2.156548,0.11954919,0.13718419,-1.0596495,-0.69152904,-0.45911625,0.9220544,0.16344379,-3.1456995,1.8312069,-0.21691656,-0.822645,-1.9648445,0.46481854,1.1877979,-1.7297829,0.21620084,1.1506792,1.0318902,-1.3615155,0.29857397,1.1867107,1.2289894,-0.54530716,0.38391548,1.3755075,1.3271577,2.0841641,-0.73470587,-0.5240655,-1.1919868,0.9294447,-0.26660225,1.1045829,0.38755703,-1.3182796,0.584592,1.4209374,-1.2150264,-0.086255796,0.53515387,0.33494934,0.55544114,1.1725802,0.18345572,0.27813524,-0.07830585,0.61929613,1.9977292,-1.0661544,0.4788881,0.66052866,-0.15722866,1.0787182,1.0474008,-1.2981653,0.048803054,0.40298364,0.16816108,0.8603056,1.3487179,-1.1688437,0.29902747,-0.6646162,-0.41364908,0.042092036,-1.2003614,-0.51743484,-0.0900259,-2.1545885,-1.2534169,0.9896137,0.9470613,0.54288274,0.23765665,0.6105847,0.5064936,1.8339165,0.32859448,0.5576887,-1.8361754,0.24808863,0.22940037,-0.5398608,2.4570403,1.8652161,1.0066506,0.09417459,-0.9704589,-1.7658356,-1.2120627,0.42836288,1.3057126,0.10233104,0.6619569,2.2654881,-0.48043227,0.1060907,-0.17856665,-0.015970087,-0.27099782,0.19769105,0.49362472,-0.41411576,-1.0046335,-0.5509404,1.0639801,2.0357902,-1.2396849,-0.2633108,1.4050149,-1.4526433,0.19783007,1.3184129,-2.4384034,0.6210928,-1.48759,-0.7914417,1.8927895,-0.07595496,-1.0381218,-1.6366339,0.92057085,0.86386836,-1.0141982,0.77851546,1.0588498,1.8894621,1.447619,1.7980133,-1.083943,1.2050735,0.030750899,-0.6720403,0.86092067,0.022132933,0.43978885,0.6297477,-1.2188141,3.6211796,-1.7487147,1.7504151,-0.5325385,0.056622557,1.4637545,-0.4310745,-0.7076678,-1.1107823,-1.1963171,-1.0691359,1.3997449,-0.52704924,-1.5044032,1.5512012,0.90237,-0.97355306,-0.74298126,-0.44996837,1.6225829,0.3380473,0.26832485,0.7727734,-0.01781249,0.47585535
162.jpg,0.4367541,-0.1232069,0.44294113,0.6782051,-0.47748363,-1.7391862,-1.068286,-0.5633006,0.43664756,-0.05306769,-1.4941256,0.058197364,-1.9019651,0.43931368,-0.5242418,0.7824219,-0.97444195,2.9281535,-0.29419184,2.9579365,0.009818077,-1.553031,-0.43834075,-0.6794774,-0.9206653,-0.50074047,0.9288401,0.4902562,0.030526867,0.24484661,0.56790185,-0.2538312,-1.7044224,-0.97178066,2.4109468,-0.16641004,1.5485413,-2.550735,-0.08592285,-1.0192708,-0.057429407,-0.29250637,-1.0500262,1.3436824,0.38613045,0.43178824,-1.3910758,1.3549087,1.7405857,-0.974977,0.13351716,1.3669255,-0.48716265,-0.7612415,-0.019040862,-0.8824744,0.89020824,-0.67509174,-0.48273292,-0.5737142,-0.48993176,-0.9884557,-0.86351144,0.5440904,0.005445338,0.046975523,0.19629459,0.5048057,1.615263,-0.64879507,1.2604154,0.24473296,-1.0060885,0.6663279,-0.9697102,0.8764663,0.31239915,-1.7718511,-0.33167982,-0.59837264,0.900636,1.5101101,1.6454391,-0.69548255,-1.8832626,1.6149954,-1.0905555,1.1408824,0.5339448,0.16788165,-1.8177247,0.3033302,0.1827767,-0.25405213,-0.91278106,1.8149881,-0.4234802,-0.14921275,-0.40177205,1.0811996,-0.9103064,-1.8544573,-0.19855322,1.9316927,0.9285632,-1.3955938,1.2815722,0.6525984,-0.31219584,-0.11927919,-2.9187396,-0.76953244,0.74600464,1.3275762,0.21965803,1.2319388,1.2693479,0.9599581,1.8991432,0.4521882,0.5866789,1.0960116,-0.1388143,0.08613725,-1.57294,-0.23331292,-3.5670052,0.08107042,-0.19578782,1.3676385,0.6062723,0.506303,0.10545601,-1.2292582,-0.46009895,-0.38301048,-1.7477294,2.2642465,0.6306393,-0.005130964,0.28454491,1.161663,0.73831695,0.73643094,0.33621493,0.9691401,1.0922792,-1.33173,0.956618,-0.015791921,0.9353668,-0.9076634,-1.2337643,-1.4508861,0.023558944,-0.881125,-0.6213887,-1.4000492,-1.0792853,-2.927401,1.6031833,-2.4817007,1.3091449,1.4107602,0.37101147,-1.8804568,-0.8341134,0.15452705,0.28355476,-0.47560546,-1.0423784,0.101963155,0.7922943,-0.47113404,-3.0676892,-1.1062579,2.4992113,0.7073907,-0.07606097,1.846045,-2.0744238,-0.5483418,-0.029652676,1.7161431,-1.5306472,0.9339067,1.2477328,-0.55622673,0.1502566,-0.78504413,-0.0694936,-0.2007641,-1.0756724,-0.12914094,-0.66894656,-0.6006341,0.5639028,-0.67802316,1.0546874,-0.40152594,-0.74938637,-0.822686,1.2701862,0.8204117,0.5611236,-0.41915482,-1.1575259,-0.38743696,-0.97610205,0.8585462,-0.63247675,1.0743153,0.8257068,0.06423136,0.68199795,-0.1276554,-0.83976376,-0.3542312,1.9004883,-0.33068782,0.36989018,-0.07534513,1.5755954,1.8734189,-0.06510545,-1.1794965,2.6541357,0.54506105,-1.1873281,0.39403838,1.4839826,-0.3395431,0.58001095,-1.5285363,-1.4056731,0.20395102,-0.3608081,1.4177256,-0.38551804,0.5402847,0.42749205,-1.6949345,-0.029526128,-0.12145368,0.11914826,-1.353742,-0.14407365,-0.49609256,-0.43611598,-1.6440598,0.41945526,-0.030650055,-0.21010548,0.7838546,0.14997512,-0.6460231,0.31590936,-1.5893971,0.81075794,0.22022061,1.026259,1.1304368,0.70588094,0.5929644,1.8317604,-0.6749874,-0.5539456,-0.37457663,-0.29879567,-2.0563536,-0.6382128,-1.2250905,-0.57727295,1.5715659,-0.7554642,-0.6057999,0.21115218,2.36122,1.1592802,0.7692088,-0.40832847,0.7554592,-1.5755568,-1.6118429,0.88670707,-1.1472453,0.8543486,-0.100595154,-1.0380704,-0.19190742,-1.1131358,-2.4335222,0.63962483,-0.31419954,0.23334852,-2.3841445,-2.1444993,-0.8094832,-0.38080686,1.6398993,0.003057291,1.8996251,-0.44702363,0.5910759,2.0438695,-2.0446088,-0.6817246,-1.164329,-2.1481993,1.60299,-0.20299923,-0.030892517,-0.078675695,-0.6169728,1.0528314,-2.5238562,-0.3105221,1.1328259,0.050974812,-0.82545304,1.2214844,0.27731317,-0.64762074,-0.30973598,0.4090061,1.0907313,0.88260716,-0.10140438,-0.8754568,1.2316328,-0.7040188,1.0225412,1.0070815,-1.3197864,-0.32583913,1.135413,0.28318477,-0.9580553,-0.5287036,0.43244213,-0.23434974,-1.1073496,-0.06000202,2.2513201,-1.3689979,0.9675288,0.9561997,1.343617,-0.10593108,-0.9947367,-0.7116376,-1.306822,1.1857983,-0.16293244,-0.5245337,-2.0210946,0.48464173,-1.1489534,0.41643396,-0.91086763,0.7605199,0.6731551,-0.16898361,1.1999352,1.3002074,-2.0262604,0.27164027,0.82823217,1.5241328,0.58204186,-0.57840717,1.1001252,1.4498262,0.14847809,-1.4350026,1.9416469,1.1422929,1.2700307,-0.8656587,-1.8633269,-0.6712125,-1.2457858,1.2589809,0.026058095,0.8809754,0.41907957,-0.18274571,-0.4585057,-3.323591,-0.8350093,1.4085724,-1.5045878,-0.12588994,1.0102177,0.6741116,0.0057922318,-2.1614003,-0.03912057,-1.8748348,-1.4265918,0.536502,-1.0337957,-1.0971508,-1.7715949,-0.0796072,1.185333,-1.5199955,1.8501614,-1.2331582,0.8424501,0.24374774,-1.3280346,1.3753873,0.39376807,-0.41678098,-2.7535925,-0.28409266,0.0011106068,-1.5180781,0.54338884,2.0094643,0.9432471,-1.7926657,1.4185284,0.8524097,2.1299806,-0.6906231,-0.48067364,0.6045986,-1.4661336,-1.0580004,0.01506221,1.6598219,0.15904845,0.6097263,1.3409845,1.1915469,0.903616,-0.9684025,-0.4242312,-1.167678,0.7401259,-1.5619625,1.1211194,-1.1966004,-0.18177588,2.610365,-0.2934559,-2.2424736,1.1914635,1.0919316,1.7789682,0.16726868,1.6891015,-1.1886522,2.5416281,0.39946574,-0.2451581,-0.15715054,-1.5045477,0.28873682,1.1806738,-0.7922654,2.2461374,-0.6440212,-0.03060759,-0.41934395,0.28019264,0.2114123,-1.1858495,1.0451936,1.8558799,-1.0504097,-0.22659753,0.68667585,-1.7568166,-0.28692725,-0.8165118,-1.093619,-1.3257663,-1.836391,-0.20997149,1.7127502,-0.8989199,0.581706,0.27053475,-0.15659988,1.4779972,-1.7014545,0.09345898,-1.2474564,-0.15661801,-0.027465053,-0.91573507,0.40827292,0.94074064,-0.1535452,0.86049193,-0.78345066,0.019586317,-0.9866118,0.4426907,-0.80911833,0.46464658,-0.8473248,0.33429736,0.3387372,-1.0094965,0.9434954,-0.81731856,0.15123488,-0.7451153,-1.3851265,-1.0219929,0.5887286,-0.9481174,-0.78300285,0.76201993,-0.13881463,0.8328113,1.7450439,0.7320082,1.9465787,0.6404528,0.3491547,-0.43081328,0.71436936,-1.6344668,-1.1151981,-0.14491485,-0.14746998,0.04677645,-1.4093862,-1.3456405,-1.2295631,1.0105603,-0.5784831,-1.1923954,0.096543044,0.013825267,1.1109463,0.53251415,-0.4632346,-0.42627966,-0.1833396,-0.103009,0.047587045,2.3430896,-0.98159313,-0.5540555,-0.010008001,0.22625513,-1.625062,1.7979947,-0.091833375,-0.25571352,-0.76524514,-1.3256766,1.5205345,-0.39403513,0.06634055,1.3683164,1.0850409,0.8303639,-0.12480348,0.8235646,-1.8767735,0.8998559,-1.2995042,-1.7468734,-0.9517458,2.2172372,2.2543716,1.5070837,2.5488687,0.27925056,0.692082,1.1741211,0.88509583,-0.57863665,1.5719545,-0.73162276,0.98627543,2.0336008,0.43907467,-0.8919218,-0.5699415,-0.20651557,1.2455113,-0.4262632,-0.3195079,1.0827131,-0.07995713,-1.6875532,-0.11566256,0.52655756,-0.13414226,0.28564355,1.0456462,-0.4220461,1.8725336,0.5952959,-0.48891538,0.58096564,1.3125393,-0.7760647,-0.5972895,0.3009374,-0.9780675,-0.6234089,0.1928038,0.0019614848,0.54387903,2.3509715,-0.30461627,-1.9768183,-0.6167221,0.00651447,1.673776,0.73882955,1.9818543,0.6584062,-0.38528845,-0.7008516,-0.14635754,-0.60849416,1.1261137,-0.8006466,-1.2055554,0.7136282,0.660266,2.7736864,-0.891748,-0.32093057,-1.5648242,0.023166299,0.4390744,0.5607292,-1.1099421,0.5227042,-0.78814006,-1.6204683,0.7032513,2.2499042,-0.60609734,0.79510474,-0.32021815,1.714856,0.6961412,0.9486086,-0.48128656,-0.42297044,1.8206837,0.6732315,-1.0668459,-2.8098102,1.9280638,0.90708804,0.463499,-0.46547496,-0.43212545,-0.15147716,-0.17658317,-0.52680385,2.0159574,0.33111367,1.3637866,-0.44190478,-1.5823063,-1.8355128,-0.27341,1.7136557,-0.0041175233,-0.1307471,-0.6086221,0.88335556,1.0523442,-1.4917759,-1.3677554,0.8696363,-0.5669006,0.38933572,-0.36544123,0.44431,1.1098269,0.95466554,0.7661494,0.23856708,2.466061,-0.2955295,0.5999684,-0.22105502,1.044256,-0.19234005,0.8605113,0.62363476,1.8914465,-0.0018000441,-0.61078924,-0.3863926,-1.241414,0.101292305,-2.2343094,-0.48167753,-0.47959504,0.091102794,-0.83279425,-0.29158145,-0.7188644,1.1244453,-0.6754823,-0.83115524,-1.2404402,0.40291843,0.8712179,-2.3726654,-0.849834,1.6552109,-1.4954398,0.64167917,-1.1341921,-0.51711243,0.58370256,2.5295024,-0.31572747,0.017457766,1.6022483,0.9555586,1.0162851,-0.6144523,1.3905605,0.8089227,1.8629388,1.7735405,-0.43971342,1.9682959,1.5632867,0.25912166,0.030697426,1.8347374,0.20695667,-0.9745197,-1.7382313,2.281728,1.1517656,2.2639937,-0.45676723,0.61894137,0.632973,0.051658537,-0.51041335,0.82410604,-0.2256078,0.66146046,2.135671,-0.86585575,1.3519399,-1.8100828,-0.5961206,0.6669803,-0.52197886,1.0995938,0.2758654,1.2768154,-1.0526216,-0.9736962,0.9111728,2.0742044
170.jpg,0.6715311,-0.81898504,0.68155146,-0.51893985,0.3789964,-1.0479491,-0.10290102,-0.33283406,0.11393997,-0.7846956,-0.63907343,1.4074808,-2.392481,-1.0031949,-1.7843108,-1.4689777,-2.8226576,-0.3607888,0.8843301,0.8908533,-0.27564275,0.64493257,0.10343717,-1.1761128,0.5947385,-0.3573371,1.0036196,1.3969644,0.6317891,0.9120068,0.29054597,0.7772026,-1.0447788,0.01838229,1.570142,-1.8638756,1.511371,0.57831764,0.6950751,0.62605983,-0.69387704,-2.1229577,1.9524925,1.0918738,0.03539324,0.94686896,-0.009636725,-1.2587531,1.8509111,-0.19379286,-0.112698376,-0.2642499,1.4131413,0.5035236,0.26957738,0.35714975,1.4175342,-0.40532398,-1.8296162,-2.3433423,0.8134209,-0.32541668,0.057810813,-0.0967681,-1.8636249,-2.0030954,1.3621917,-1.2648897,0.8080271,-0.8778571,-0.3907682,0.18391876,-2.0691354,0.42380717,-2.099046,0.576597,-1.0296695,-0.5626146,-0.89490443,-0.781844,-0.5409647,1.5083215,0.24807529,-1.6101637,0.104086526,0.2597001,-0.69932115,0.046252754,-0.63104534,-0.1354616,-1.2055438,0.6405973,-0.1895593,0.4493041,1.5303221,-0.6993637,-0.29773304,-0.027991416,0.33442566,-1.3528174,-0.307965,-1.9195436,-0.92423695,0.15877642,0.3243624,2.285704,-0.31582853,0.39846373,-0.95676684,-0.8039442,-1.1225315,-0.72227377,0.9194176,-0.5887506,-1.4661071,-1.6623738,0.82301867,1.0801433,0.27573788,1.5582279,0.81533873,0.18514119,1.6805996,0.43746236,1.1089959,0.9332316,-0.6816886,-0.8519315,0.07975721,-0.057241958,-0.4495272,1.2387309,-0.11113974,-0.7802526,-2.085378,-0.0014455612,0.5011934,1.2853868,-0.5058495,1.2186115,-0.4418279,0.9702529,0.77497375,-1.5568714,-0.6631505,-0.5622607,0.07367727,0.906798,1.4394649,0.8827735,2.004945,-0.45327333,-0.5169388,0.391034,-0.52967346,0.44163835,-2.4804463,0.15948981,-0.86049,0.06699336,1.4459096,-0.7485324,-1.0306581,-0.72762156,-0.36001495,-0.020997845,0.57712036,1.2165277,0.2944558,-0.6773175,-1.2570431,0.2044043,-0.32072398,0.74024135,-0.11998195,0.8919578,0.38496917,-0.75113666,0.6291784,-2.5803618,0.7854951,-1.9188932,-0.6977517,-0.32528928,2.1297193,-0.27331623,-1.4450973,-0.6646236,-0.111731954,0.19817415,-1.5866365,0.13665384,0.6959588,-1.5275869,-0.45020118,-0.11349503,-0.7789712,1.2982117,0.8888987,0.54634327,-1.3654284,-1.5105275,1.9861141,-0.029488884,0.2045889,-1.2774501,-1.8519957,0.31188524,-1.4982786,-0.2905722,0.9050715,0.98568404,1.1724766,0.99314976,1.1359274,-0.21137515,1.1900752,0.80041414,0.83611286,-0.5316308,0.41307342,-0.24292731,0.57591116,-2.6728776,-0.6896657,-2.05394,0.11844184,-0.9686434,-0.8128582,-1.2017372,-0.23190303,0.8536201,0.3260688,0.7396024,0.136166,0.91121095,1.7656401,0.41551238,-0.22638056,-0.009341425,-0.4152403,-0.51205015,-2.096939,1.628616,-0.6528642,0.01620767,0.021126153,-1.0313432,0.23507263,-0.3750966,-1.0221833,-1.9812689,-0.19477452,-0.42364088,-0.9760219,-2.100067,0.6407549,-0.6554513,-0.2504335,-0.45975605,1.0494667,-0.13631998,0.92239755,1.0764531,0.6356703,0.025252813,-1.6491399,0.7101071,1.3909721,0.4930944,0.5368221,-1.044288,0.5992944,-0.20171651,-0.23960912,-0.29594097,-0.10305259,-0.30567783,0.4651321,-0.76378345,0.5054471,-1.7462472,0.47306836,0.37693253,0.15212812,-0.26976052,0.7791567,1.0527028,0.54761046,0.20358865,-0.56586134,-0.90994453,0.54763067,0.5405781,-0.10872697,-0.7523923,0.56125945,-0.41932023,0.13470298,1.1081692,-0.87977225,0.5682936,-1.6821445,0.36946952,0.9475775,-0.61334866,-1.3051413,1.0936681,1.0120076,0.9433018,0.292714,-0.17772847,-0.002242603,-0.9737282,0.03529404,-0.9252995,-1.4091386,-0.2929123,2.0292902,-0.83100957,-0.33058897,0.73827136,0.362945,0.36144623,0.5565183,0.8915643,-1.6216952,-1.7775509,1.5775986,0.92539585,-0.20479241,0.733312,-0.67881334,-0.5431901,-0.64550906,-0.5090477,0.71223545,1.0140251,2.3980887,-0.5795526,-1.0044216,-0.13953024,-1.3230532,-0.17490298,-0.73512965,1.6548676,-0.79526824,0.8198036,-0.68104833,-0.74137694,2.0604482,-0.9444119,0.7746807,-0.16551699,-0.924047,0.09338097,0.45854414,-1.1914091,0.4092583,0.60327184,0.3552048,-1.7412437,-1.0343148,0.9690523,1.5336472,0.017549817,0.42880228,0.09706968,0.51804787,0.33535197,-1.2085507,-1.2090336,-0.60749894,-0.28879598,0.44229192,0.4640668,1.8191575,-0.9389903,2.1586998,-0.37299553,-1.4811805,0.057947453,0.7524634,-0.2735437,-0.047261793,1.3610083,2.3994682,0.53876513,-0.9658754,-1.1934828,1.4356896,-0.3264183,-1.4053065,0.8544756,-0.41211888,-1.7642874,1.0586753,0.14835137,1.5179178,-1.6228375,-0.31164867,0.30586967,-0.2571208,-1.5441251,-1.1822892,0.4229964,-0.40094885,0.3189315,1.3655088,1.9219841,0.48201618,0.5415803,0.19724144,1.4583348,1.1856997,0.5823194,-0.15884867,-0.15855642,-0.80178434,1.1211566,-0.9786945,-0.2546998,0.21169692,-1.050991,2.5255568,-1.1944147,0.8898758,1.2799995,-0.2616007,1.3091376,-1.0454146,-0.5623725,-0.9524255,1.1142874,-1.3123872,0.37626827,1.3214757,0.049280822,0.9880842,-0.0648171,-0.29345122,1.094162,0.3296377,-1.7658687,0.86885333,-1.5699694,-1.3621081,0.07466821,-1.5654728,-0.31149566,-0.49806717,-1.7591069,0.12039388,0.39080432,-1.0673666,0.5659034,0.33578044,1.267266,0.4996981,-0.43876556,0.8742322,0.9864689,-1.4733148,1.7133185,-0.12543431,1.8626233,-0.30931816,0.14978577,-0.3867238,1.2865375,0.6827466,1.5603379,-0.6912747,-0.087140016,1.5828586,0.12499629,-1.3016338,-1.073067,0.14794831,0.6789454,-0.21923946,1.902585,0.82851696,-0.70815074,0.18579085,1.0732251,1.406966,1.0120682,-0.44849297,0.283189,-0.028493224,0.8374774,-0.094913915,-1.2774739,-1.6522677,1.3510786,-0.10642496,0.43107417,1.011356,-0.008572144,1.7195394,0.3655918,0.2933962,0.33644634,-1.3428795,-0.51998144,1.5758048,-0.89560413,-0.06623427,-0.5330084,-0.071256354,-0.60972345,-0.36935014,-0.7932772,0.6347519,-3.0481524,-0.54937613,-0.026013386,0.08278417,-0.19460952,0.21382092,-1.9648626,-0.7101459,-0.88557965,-0.13125713,-1.2521894,-1.1544169,-0.023899864,-1.8285545,-0.0242548,-0.8739503,-0.9096111,-1.3498152,-1.3497322,-0.26704344,0.96909034,-0.8886183,0.021614945,-0.9621348,-0.41088563,-1.1469316,-0.1909232,-0.026595877,0.6808005,0.23926398,0.7403889,1.1950889,0.3617927,-0.5494491,0.6836593,1.8222889,1.872722,0.36425474,0.6703814,-1.227965,0.41197395,-0.8790721,-0.8386476,-0.59480256,-0.14426337,0.21309128,1.2026738,-0.74481994,2.7215827,1.8103724,0.80929977,-0.7143998,-0.08324462,-0.36125773,-0.4089927,-0.48918805,-1.754659,-1.5773933,0.262613,0.022735251,-1.3923092,-1.6485553,-0.1265828,-0.20919532,0.9001644,-0.648357,-0.79099935,2.8377867,1.2513133,-0.91830254,-0.3102123,-0.103050224,-0.9932143,0.25660896,0.6631067,0.40715766,-0.672352,1.5003763,-0.47507674,1.1766262,-1.4042851,-0.7512671,0.5528211,0.75898397,1.6979107,1.0282778,-0.39512458,-0.09476022,-0.23765925,-1.2113694,1.114483,-1.615144,-1.0538825,-0.9655554,-0.3469123,0.14783047,0.33019823,1.3835931,-0.83131874,0.5018082,0.4406304,-1.6303291,1.98323,0.8709521,1.204871,0.37929022,0.6341022,-0.5190998,-1.0164229,-0.3260586,1.4435773,0.1765414,0.37365478,-1.5660834,0.14149176,0.90468615,-0.56039274,-0.8304732,-0.048607092,-0.80065054,0.908001,0.51098734,2.6198888,0.7056122,-0.56182903,0.00894081,1.2251832,1.5480164,0.19047053,-1.359213,0.3371853,2.1207166,0.67761636,0.84053534,0.81582946,0.38900462,-0.8648539,0.64294904,0.18383236,-0.9271507,0.4244813,-0.70068485,0.3991258,0.7704654,0.16715579,-1.1175759,1.0286355,0.06702119,-0.8757895,-0.31306314,-0.79141635,-1.056075,-1.1570734,-0.9203435,0.19354612,-1.0673393,2.8184776,1.1906885,-2.1107447,-1.570936,1.147992,-0.26483342,-0.9596977,0.4671553,1.0304184,1.3207573,1.1242074,-0.8748237,-1.1576916,-0.06405942,0.18685596,-2.7192893,-1.6464561,0.6747551,0.19706471,0.46798077,0.9643684,-1.556036,-1.5818626,-0.6309207,-0.5893491,0.66169435,1.0519773,-0.6308857,0.037765767,-1.5756274,-3.2164035,1.7794591,-1.1586004,-0.57087576,-0.071178816,-2.7207968,1.0933021,-1.1151346,0.080713,1.0050294,1.8545092,0.22421072,-1.4382362,-1.9475715,0.32808933,2.4152093,-0.5707487,-0.45839858,-0.17074531,-0.87607354,0.39631993,-0.24205402,-0.07329546,-2.0175717,1.3356856,-0.34014,1.3877584,0.3803808,1.0041419,0.6868168,0.7483281,0.06457325,0.115448534,-0.2458413,2.3205135,-1.8724936,-0.41871879,-1.829121,-0.9131685,-0.97506595,-1.5434164,-0.8204179,-1.0625526,-0.41425318,0.21619481,-0.62871134,-0.5499908,1.544424,1.6059183,0.84342235,0.4123344,0.2678184,-0.083224714,0.35748386,-0.35048127,-0.54478025,0.044797737,0.6596947,-0.66550577,-0.83952177,-1.5495653,1.390375,-0.7910783,0.23591906,-0.5845429,-0.6623393,0.5408199
